<?xml version="1.0" encoding="UTF-8"?>
<PMML version="4.1" xmlns="http://www.dmg.org/PMML-4_1">
  <Header copyright="KNIME">
    <Application name="KNIME" version="2.8.0"/>
  </Header>
  <DataDictionary numberOfFields="10">
    <DataField dataType="integer" name="Age" optype="continuous">
      <Interval closure="closedClosed" leftMargin="17.0" rightMargin="90.0"/>
    </DataField>
    <DataField dataType="string" name="Employment" optype="categorical">
      <Value value="Private"/>
      <Value value="Consultant"/>
      <Value value="SelfEmp"/>
      <Value value="PSLocal"/>
      <Value value="PSState"/>
      <Value value="PSFederal"/>
      <Value value="Unemployed"/>
      <Value value="NA"/>
      <Value value="Volunteer"/>
    </DataField>
    <DataField dataType="string" name="Education" optype="categorical">
      <Value value="College"/>
      <Value value="Associate"/>
      <Value value="HSgrad"/>
      <Value value="Bachelor"/>
      <Value value="Yr12"/>
      <Value value="Vocational"/>
      <Value value="Master"/>
      <Value value="Yr11"/>
      <Value value="Yr10"/>
      <Value value="Doctorate"/>
      <Value value="Yr9"/>
      <Value value="Yr5t6"/>
      <Value value="Professional"/>
      <Value value="Yr7t8"/>
      <Value value="Preschool"/>
      <Value value="Yr1t4"/>
    </DataField>
    <DataField dataType="string" name="Marital" optype="categorical">
      <Value value="Unmarried"/>
      <Value value="Absent"/>
      <Value value="Divorced"/>
      <Value value="Married"/>
      <Value value="Widowed"/>
      <Value value="Married-spouse-absent"/>
    </DataField>
    <DataField dataType="string" name="Occupation" optype="categorical">
      <Value value="Service"/>
      <Value value="Transport"/>
      <Value value="Clerical"/>
      <Value value="Repair"/>
      <Value value="Executive"/>
      <Value value="Machinist"/>
      <Value value="Sales"/>
      <Value value="Professional"/>
      <Value value="Support"/>
      <Value value="Cleaner"/>
      <Value value="Farming"/>
      <Value value="NA"/>
      <Value value="Protective"/>
      <Value value="Home"/>
      <Value value="Military"/>
    </DataField>
    <DataField dataType="double" name="Income" optype="continuous">
      <Interval closure="closedClosed" leftMargin="609.72" rightMargin="481259.5"/>
    </DataField>
    <DataField dataType="string" name="Gender" optype="categorical">
      <Value value="Female"/>
      <Value value="Male"/>
    </DataField>
    <DataField dataType="double" name="Deductions" optype="continuous">
      <Interval closure="closedClosed" leftMargin="0.0" rightMargin="2904.0"/>
    </DataField>
    <DataField dataType="integer" name="Hours" optype="continuous">
      <Interval closure="closedClosed" leftMargin="1.0" rightMargin="99.0"/>
    </DataField>
    <DataField dataType="string" name="TARGET_Adjusted" optype="categorical">
      <Value value="0"/>
      <Value value="1"/>
    </DataField>
  </DataDictionary>
  <MiningModel functionName="classification">
    <MiningSchema>
      <MiningField invalidValueTreatment="asIs" name="Age"/>
      <MiningField invalidValueTreatment="asIs" name="Income"/>
      <MiningField invalidValueTreatment="asIs" name="Deductions"/>
      <MiningField invalidValueTreatment="asIs" name="Hours"/>
      <MiningField invalidValueTreatment="asIs" name="TARGET_Adjusted" usageType="predicted"/>
      <MiningField invalidValueTreatment="asIs" name="Employment"/>
      <MiningField invalidValueTreatment="asIs" name="Education"/>
      <MiningField invalidValueTreatment="asIs" name="Marital"/>
      <MiningField invalidValueTreatment="asIs" name="Occupation"/>
      <MiningField invalidValueTreatment="asIs" name="Gender"/>
    </MiningSchema>
    <Segmentation multipleModelMethod="majorityVote">
      <Segment>
        <True/>
        <SupportVectorMachineModel algorithmName="Sequential Minimal Optimization (SMO)" functionName="classification" modelName="SVM" svmRepresentation="SupportVectors">
          <MiningSchema>
            <MiningField invalidValueTreatment="asIs" name="Age"/>
            <MiningField invalidValueTreatment="asIs" name="Income"/>
            <MiningField invalidValueTreatment="asIs" name="Deductions"/>
            <MiningField invalidValueTreatment="asIs" name="Hours"/>
            <MiningField invalidValueTreatment="asIs" name="TARGET_Adjusted" usageType="predicted"/>
            <MiningField invalidValueTreatment="asIs" name="Employment"/>
            <MiningField invalidValueTreatment="asIs" name="Education"/>
            <MiningField invalidValueTreatment="asIs" name="Marital"/>
            <MiningField invalidValueTreatment="asIs" name="Occupation"/>
            <MiningField invalidValueTreatment="asIs" name="Gender"/>
          </MiningSchema>
          <Targets>
            <Target field="TARGET_Adjusted" optype="categorical">
              <TargetValue value="0"/>
              <TargetValue value="1"/>
            </Target>
          </Targets>
          <LocalTransformations>
            <DerivedField dataType="integer" name="Private_Employment" optype="ordinal">
              <NormDiscrete field="Employment" mapMissingTo="0.0" value="Private"/>
            </DerivedField>
            <DerivedField dataType="integer" name="Consultant_Employment" optype="ordinal">
              <NormDiscrete field="Employment" mapMissingTo="0.0" value="Consultant"/>
            </DerivedField>
            <DerivedField dataType="integer" name="SelfEmp_Employment" optype="ordinal">
              <NormDiscrete field="Employment" mapMissingTo="0.0" value="SelfEmp"/>
            </DerivedField>
            <DerivedField dataType="integer" name="PSLocal_Employment" optype="ordinal">
              <NormDiscrete field="Employment" mapMissingTo="0.0" value="PSLocal"/>
            </DerivedField>
            <DerivedField dataType="integer" name="PSState_Employment" optype="ordinal">
              <NormDiscrete field="Employment" mapMissingTo="0.0" value="PSState"/>
            </DerivedField>
            <DerivedField dataType="integer" name="PSFederal_Employment" optype="ordinal">
              <NormDiscrete field="Employment" mapMissingTo="0.0" value="PSFederal"/>
            </DerivedField>
            <DerivedField dataType="integer" name="Unemployed_Employment" optype="ordinal">
              <NormDiscrete field="Employment" mapMissingTo="0.0" value="Unemployed"/>
            </DerivedField>
            <DerivedField dataType="integer" name="NA_Employment" optype="ordinal">
              <NormDiscrete field="Employment" mapMissingTo="0.0" value="NA"/>
            </DerivedField>
            <DerivedField dataType="integer" name="Volunteer_Employment" optype="ordinal">
              <NormDiscrete field="Employment" mapMissingTo="0.0" value="Volunteer"/>
            </DerivedField>
            <DerivedField dataType="integer" name="College_Education" optype="ordinal">
              <NormDiscrete field="Education" mapMissingTo="0.0" value="College"/>
            </DerivedField>
            <DerivedField dataType="integer" name="Associate_Education" optype="ordinal">
              <NormDiscrete field="Education" mapMissingTo="0.0" value="Associate"/>
            </DerivedField>
            <DerivedField dataType="integer" name="HSgrad_Education" optype="ordinal">
              <NormDiscrete field="Education" mapMissingTo="0.0" value="HSgrad"/>
            </DerivedField>
            <DerivedField dataType="integer" name="Bachelor_Education" optype="ordinal">
              <NormDiscrete field="Education" mapMissingTo="0.0" value="Bachelor"/>
            </DerivedField>
            <DerivedField dataType="integer" name="Yr12_Education" optype="ordinal">
              <NormDiscrete field="Education" mapMissingTo="0.0" value="Yr12"/>
            </DerivedField>
            <DerivedField dataType="integer" name="Vocational_Education" optype="ordinal">
              <NormDiscrete field="Education" mapMissingTo="0.0" value="Vocational"/>
            </DerivedField>
            <DerivedField dataType="integer" name="Master_Education" optype="ordinal">
              <NormDiscrete field="Education" mapMissingTo="0.0" value="Master"/>
            </DerivedField>
            <DerivedField dataType="integer" name="Yr11_Education" optype="ordinal">
              <NormDiscrete field="Education" mapMissingTo="0.0" value="Yr11"/>
            </DerivedField>
            <DerivedField dataType="integer" name="Yr10_Education" optype="ordinal">
              <NormDiscrete field="Education" mapMissingTo="0.0" value="Yr10"/>
            </DerivedField>
            <DerivedField dataType="integer" name="Doctorate_Education" optype="ordinal">
              <NormDiscrete field="Education" mapMissingTo="0.0" value="Doctorate"/>
            </DerivedField>
            <DerivedField dataType="integer" name="Yr9_Education" optype="ordinal">
              <NormDiscrete field="Education" mapMissingTo="0.0" value="Yr9"/>
            </DerivedField>
            <DerivedField dataType="integer" name="Yr5t6_Education" optype="ordinal">
              <NormDiscrete field="Education" mapMissingTo="0.0" value="Yr5t6"/>
            </DerivedField>
            <DerivedField dataType="integer" name="Professional_Education" optype="ordinal">
              <NormDiscrete field="Education" mapMissingTo="0.0" value="Professional"/>
            </DerivedField>
            <DerivedField dataType="integer" name="Yr7t8_Education" optype="ordinal">
              <NormDiscrete field="Education" mapMissingTo="0.0" value="Yr7t8"/>
            </DerivedField>
            <DerivedField dataType="integer" name="Preschool_Education" optype="ordinal">
              <NormDiscrete field="Education" mapMissingTo="0.0" value="Preschool"/>
            </DerivedField>
            <DerivedField dataType="integer" name="Yr1t4_Education" optype="ordinal">
              <NormDiscrete field="Education" mapMissingTo="0.0" value="Yr1t4"/>
            </DerivedField>
            <DerivedField dataType="integer" name="Unmarried_Marital" optype="ordinal">
              <NormDiscrete field="Marital" mapMissingTo="0.0" value="Unmarried"/>
            </DerivedField>
            <DerivedField dataType="integer" name="Absent_Marital" optype="ordinal">
              <NormDiscrete field="Marital" mapMissingTo="0.0" value="Absent"/>
            </DerivedField>
            <DerivedField dataType="integer" name="Divorced_Marital" optype="ordinal">
              <NormDiscrete field="Marital" mapMissingTo="0.0" value="Divorced"/>
            </DerivedField>
            <DerivedField dataType="integer" name="Married_Marital" optype="ordinal">
              <NormDiscrete field="Marital" mapMissingTo="0.0" value="Married"/>
            </DerivedField>
            <DerivedField dataType="integer" name="Widowed_Marital" optype="ordinal">
              <NormDiscrete field="Marital" mapMissingTo="0.0" value="Widowed"/>
            </DerivedField>
            <DerivedField dataType="integer" name="Married-spouse-absent_Marital" optype="ordinal">
              <NormDiscrete field="Marital" mapMissingTo="0.0" value="Married-spouse-absent"/>
            </DerivedField>
            <DerivedField dataType="integer" name="Service_Occupation" optype="ordinal">
              <NormDiscrete field="Occupation" mapMissingTo="0.0" value="Service"/>
            </DerivedField>
            <DerivedField dataType="integer" name="Transport_Occupation" optype="ordinal">
              <NormDiscrete field="Occupation" mapMissingTo="0.0" value="Transport"/>
            </DerivedField>
            <DerivedField dataType="integer" name="Clerical_Occupation" optype="ordinal">
              <NormDiscrete field="Occupation" mapMissingTo="0.0" value="Clerical"/>
            </DerivedField>
            <DerivedField dataType="integer" name="Repair_Occupation" optype="ordinal">
              <NormDiscrete field="Occupation" mapMissingTo="0.0" value="Repair"/>
            </DerivedField>
            <DerivedField dataType="integer" name="Executive_Occupation" optype="ordinal">
              <NormDiscrete field="Occupation" mapMissingTo="0.0" value="Executive"/>
            </DerivedField>
            <DerivedField dataType="integer" name="Machinist_Occupation" optype="ordinal">
              <NormDiscrete field="Occupation" mapMissingTo="0.0" value="Machinist"/>
            </DerivedField>
            <DerivedField dataType="integer" name="Sales_Occupation" optype="ordinal">
              <NormDiscrete field="Occupation" mapMissingTo="0.0" value="Sales"/>
            </DerivedField>
            <DerivedField dataType="integer" name="Professional_Occupation" optype="ordinal">
              <NormDiscrete field="Occupation" mapMissingTo="0.0" value="Professional"/>
            </DerivedField>
            <DerivedField dataType="integer" name="Support_Occupation" optype="ordinal">
              <NormDiscrete field="Occupation" mapMissingTo="0.0" value="Support"/>
            </DerivedField>
            <DerivedField dataType="integer" name="Cleaner_Occupation" optype="ordinal">
              <NormDiscrete field="Occupation" mapMissingTo="0.0" value="Cleaner"/>
            </DerivedField>
            <DerivedField dataType="integer" name="Farming_Occupation" optype="ordinal">
              <NormDiscrete field="Occupation" mapMissingTo="0.0" value="Farming"/>
            </DerivedField>
            <DerivedField dataType="integer" name="NA_Occupation" optype="ordinal">
              <NormDiscrete field="Occupation" mapMissingTo="0.0" value="NA"/>
            </DerivedField>
            <DerivedField dataType="integer" name="Protective_Occupation" optype="ordinal">
              <NormDiscrete field="Occupation" mapMissingTo="0.0" value="Protective"/>
            </DerivedField>
            <DerivedField dataType="integer" name="Home_Occupation" optype="ordinal">
              <NormDiscrete field="Occupation" mapMissingTo="0.0" value="Home"/>
            </DerivedField>
            <DerivedField dataType="integer" name="Military_Occupation" optype="ordinal">
              <NormDiscrete field="Occupation" mapMissingTo="0.0" value="Military"/>
            </DerivedField>
            <DerivedField dataType="integer" name="Female_Gender" optype="ordinal">
              <NormDiscrete field="Gender" mapMissingTo="0.0" value="Female"/>
            </DerivedField>
            <DerivedField dataType="integer" name="Male_Gender" optype="ordinal">
              <NormDiscrete field="Gender" mapMissingTo="0.0" value="Male"/>
            </DerivedField>
            <DerivedField dataType="string" name="Age_binned" optype="categorical">
              <Discretize field="Age">
                <DiscretizeBin binValue="0.92">
                  <Interval closure="openOpen" rightMargin="18.0"/>
                </DiscretizeBin>
                <DiscretizeBin binValue="0.83">
                  <Interval closure="closedOpen" leftMargin="18.0" rightMargin="32.0"/>
                </DiscretizeBin>
                <DiscretizeBin binValue="0.69">
                  <Interval closure="closedOpen" leftMargin="32.0" rightMargin="40.0"/>
                </DiscretizeBin>
                <DiscretizeBin binValue="0.32">
                  <Interval closure="closedOpen" leftMargin="40.0" rightMargin="57.0"/>
                </DiscretizeBin>
                <DiscretizeBin binValue="0.12">
                  <Interval closure="closedOpen" leftMargin="57.0"/>
                </DiscretizeBin>
              </Discretize>
            </DerivedField>
            <DerivedField dataType="double" displayName="Age" name="Age*" optype="continuous">
              <Extension extender="KNIME" name="summary" value="Z-Score (Gaussian) normalization on 4 column(s)"/>
              <NormContinuous field="Age">
                <LinearNorm norm="-2.8567198820936754" orig="0.0"/>
                <LinearNorm norm="-2.7845349198171454" orig="1.0"/>
              </NormContinuous>
            </DerivedField>
            <DerivedField dataType="double" displayName="Income" name="Income*" optype="continuous">
              <Extension extender="KNIME" name="summary" value="Z-Score (Gaussian) normalization on 4 column(s)"/>
              <NormContinuous field="Income">
                <LinearNorm norm="-1.2225502957677865" orig="0.0"/>
                <LinearNorm norm="-1.2225346695558106" orig="1.0"/>
              </NormContinuous>
            </DerivedField>
            <DerivedField dataType="double" displayName="Deductions" name="Deductions*" optype="continuous">
              <Extension extender="KNIME" name="summary" value="Z-Score (Gaussian) normalization on 4 column(s)"/>
              <NormContinuous field="Deductions">
                <LinearNorm norm="-0.18343936897060836" orig="0.0"/>
                <LinearNorm norm="-0.18024671301590728" orig="1.0"/>
              </NormContinuous>
            </DerivedField>
            <DerivedField dataType="double" displayName="Hours" name="Hours*" optype="continuous">
              <Extension extender="KNIME" name="summary" value="Z-Score (Gaussian) normalization on 4 column(s)"/>
              <NormContinuous field="Hours">
                <LinearNorm norm="-3.3867308585475104" orig="0.0"/>
                <LinearNorm norm="-3.303692220358286" orig="1.0"/>
              </NormContinuous>
            </DerivedField>
            <DerivedField dataType="double" displayName="Age_binned" name="Age_binned*" optype="continuous">
              <FieldRef field="Age_binned"/>
            </DerivedField>
          </LocalTransformations>
          <PolynomialKernelType coef0="1.0" degree="1.0" gamma="1.0"/>
          <VectorDictionary numberOfVectors="85">
            <VectorFields numberOfFields="53">
              <FieldRef field="Age*"/>
              <FieldRef field="Income*"/>
              <FieldRef field="Deductions*"/>
              <FieldRef field="Hours*"/>
              <FieldRef field="Private_Employment"/>
              <FieldRef field="Consultant_Employment"/>
              <FieldRef field="SelfEmp_Employment"/>
              <FieldRef field="PSLocal_Employment"/>
              <FieldRef field="PSState_Employment"/>
              <FieldRef field="PSFederal_Employment"/>
              <FieldRef field="Unemployed_Employment"/>
              <FieldRef field="NA_Employment"/>
              <FieldRef field="Volunteer_Employment"/>
              <FieldRef field="College_Education"/>
              <FieldRef field="Associate_Education"/>
              <FieldRef field="HSgrad_Education"/>
              <FieldRef field="Bachelor_Education"/>
              <FieldRef field="Yr12_Education"/>
              <FieldRef field="Vocational_Education"/>
              <FieldRef field="Master_Education"/>
              <FieldRef field="Yr11_Education"/>
              <FieldRef field="Yr10_Education"/>
              <FieldRef field="Doctorate_Education"/>
              <FieldRef field="Yr9_Education"/>
              <FieldRef field="Yr5t6_Education"/>
              <FieldRef field="Professional_Education"/>
              <FieldRef field="Yr7t8_Education"/>
              <FieldRef field="Preschool_Education"/>
              <FieldRef field="Yr1t4_Education"/>
              <FieldRef field="Unmarried_Marital"/>
              <FieldRef field="Absent_Marital"/>
              <FieldRef field="Divorced_Marital"/>
              <FieldRef field="Married_Marital"/>
              <FieldRef field="Widowed_Marital"/>
              <FieldRef field="Married-spouse-absent_Marital"/>
              <FieldRef field="Service_Occupation"/>
              <FieldRef field="Transport_Occupation"/>
              <FieldRef field="Clerical_Occupation"/>
              <FieldRef field="Repair_Occupation"/>
              <FieldRef field="Executive_Occupation"/>
              <FieldRef field="Machinist_Occupation"/>
              <FieldRef field="Sales_Occupation"/>
              <FieldRef field="Professional_Occupation"/>
              <FieldRef field="Support_Occupation"/>
              <FieldRef field="Cleaner_Occupation"/>
              <FieldRef field="Farming_Occupation"/>
              <FieldRef field="NA_Occupation"/>
              <FieldRef field="Protective_Occupation"/>
              <FieldRef field="Home_Occupation"/>
              <FieldRef field="Military_Occupation"/>
              <FieldRef field="Female_Gender"/>
              <FieldRef field="Male_Gender"/>
              <FieldRef field="Age_binned*"/>
            </VectorFields>
            <VectorInstance id="1_1038288">
              <REAL-SparseArray n="53">
                <Indices>1 2 3 4 5 6 7 8 9 10 11 12 13 14 15 16 17 18 19 20 21 22 23 24 25 26 27 28 29 30 31 32 33 34 35 36 37 38 39 40 41 42 43 44 45 46 47 48 49 50 51 52 53</Indices>
                <REAL-Entries>0.39160342035017504 -0.7890194834236195 -0.18343936897060836 1.1803942418598234 1.0 0.0 0.0 0.0 0.0 0.0 0.0 0.0 0.0 0.0 0.0 0.0 1.0 0.0 0.0 0.0 0.0 0.0 0.0 0.0 0.0 0.0 0.0 0.0 0.0 0.0 0.0 0.0 1.0 0.0 0.0 0.0 0.0 0.0 1.0 0.0 0.0 0.0 0.0 0.0 0.0 0.0 0.0 0.0 0.0 0.0 0.0 1.0 0.32</REAL-Entries>
              </REAL-SparseArray>
            </VectorInstance>
            <VectorInstance id="1_1044221">
              <REAL-SparseArray n="53">
                <Indices>1 2 3 4 5 6 7 8 9 10 11 12 13 14 15 16 17 18 19 20 21 22 23 24 25 26 27 28 29 30 31 32 33 34 35 36 37 38 39 40 41 42 43 44 45 46 47 48 49 50 51 52 53</Indices>
                <REAL-Entries>1.4743778544981252 -1.1042875295046153 -0.18343936897060836 -0.06518533097854062 1.0 0.0 0.0 0.0 0.0 0.0 0.0 0.0 0.0 1.0 0.0 0.0 0.0 0.0 0.0 0.0 0.0 0.0 0.0 0.0 0.0 0.0 0.0 0.0 0.0 0.0 0.0 0.0 1.0 0.0 0.0 0.0 0.0 0.0 0.0 1.0 0.0 0.0 0.0 0.0 0.0 0.0 0.0 0.0 0.0 0.0 0.0 1.0 0.12</REAL-Entries>
              </REAL-SparseArray>
            </VectorInstance>
            <VectorInstance id="0_1047095">
              <REAL-SparseArray n="53">
                <Indices>1 2 3 4 5 6 7 8 9 10 11 12 13 14 15 16 17 18 19 20 21 22 23 24 25 26 27 28 29 30 31 32 33 34 35 36 37 38 39 40 41 42 43 44 45 46 47 48 49 50 51 52 53</Indices>
                <REAL-Entries>2.4849673263695458 -0.7046288755502386 -0.18343936897060836 -0.8955717128707832 1.0 0.0 0.0 0.0 0.0 0.0 0.0 0.0 0.0 0.0 0.0 1.0 0.0 0.0 0.0 0.0 0.0 0.0 0.0 0.0 0.0 0.0 0.0 0.0 0.0 0.0 0.0 0.0 1.0 0.0 0.0 1.0 0.0 0.0 0.0 0.0 0.0 0.0 0.0 0.0 0.0 0.0 0.0 0.0 0.0 0.0 0.0 1.0 0.12</REAL-Entries>
              </REAL-SparseArray>
            </VectorInstance>
            <VectorInstance id="0_1053888">
              <REAL-SparseArray n="53">
                <Indices>1 2 3 4 5 6 7 8 9 10 11 12 13 14 15 16 17 18 19 20 21 22 23 24 25 26 27 28 29 30 31 32 33 34 35 36 37 38 39 40 41 42 43 44 45 46 47 48 49 50 51 52 53</Indices>
                <REAL-Entries>-0.3302462024151249 -0.28643628409536015 -0.18343936897060836 -0.06518533097854062 1.0 0.0 0.0 0.0 0.0 0.0 0.0 0.0 0.0 0.0 0.0 0.0 0.0 1.0 0.0 0.0 0.0 0.0 0.0 0.0 0.0 0.0 0.0 0.0 0.0 0.0 0.0 0.0 1.0 0.0 0.0 0.0 0.0 0.0 0.0 0.0 1.0 0.0 0.0 0.0 0.0 0.0 0.0 0.0 0.0 0.0 0.0 1.0 0.69</REAL-Entries>
              </REAL-SparseArray>
            </VectorInstance>
            <VectorInstance id="1_1084870">
              <REAL-SparseArray n="53">
                <Indices>1 2 3 4 5 6 7 8 9 10 11 12 13 14 15 16 17 18 19 20 21 22 23 24 25 26 27 28 29 30 31 32 33 34 35 36 37 38 39 40 41 42 43 44 45 46 47 48 49 50 51 52 53</Indices>
                <REAL-Entries>0.7525282317328252 -0.6768960995837013 -0.18343936897060836 -0.06518533097854062 1.0 0.0 0.0 0.0 0.0 0.0 0.0 0.0 0.0 0.0 0.0 0.0 0.0 0.0 0.0 1.0 0.0 0.0 0.0 0.0 0.0 0.0 0.0 0.0 0.0 0.0 0.0 0.0 1.0 0.0 0.0 0.0 0.0 0.0 0.0 1.0 0.0 0.0 0.0 0.0 0.0 0.0 0.0 0.0 0.0 0.0 0.0 1.0 0.32</REAL-Entries>
              </REAL-SparseArray>
            </VectorInstance>
            <VectorInstance id="0_1094029">
              <REAL-SparseArray n="53">
                <Indices>1 2 3 4 5 6 7 8 9 10 11 12 13 14 15 16 17 18 19 20 21 22 23 24 25 26 27 28 29 30 31 32 33 34 35 36 37 38 39 40 41 42 43 44 45 46 47 48 49 50 51 52 53</Indices>
                <REAL-Entries>-0.546801089244715 -1.0276001753490462 -0.18343936897060836 -0.06518533097854062 1.0 0.0 0.0 0.0 0.0 0.0 0.0 0.0 0.0 0.0 0.0 1.0 0.0 0.0 0.0 0.0 0.0 0.0 0.0 0.0 0.0 0.0 0.0 0.0 0.0 0.0 0.0 0.0 1.0 0.0 0.0 0.0 0.0 0.0 0.0 0.0 1.0 0.0 0.0 0.0 0.0 0.0 0.0 0.0 0.0 0.0 0.0 1.0 0.69</REAL-Entries>
              </REAL-SparseArray>
            </VectorInstance>
            <VectorInstance id="0_1099084">
              <REAL-SparseArray n="53">
                <Indices>1 2 3 4 5 6 7 8 9 10 11 12 13 14 15 16 17 18 19 20 21 22 23 24 25 26 27 28 29 30 31 32 33 34 35 36 37 38 39 40 41 42 43 44 45 46 47 48 49 50 51 52 53</Indices>
                <REAL-Entries>1.835302665880775 -0.7074573761800155 -0.18343936897060836 -0.06518533097854062 0.0 0.0 1.0 0.0 0.0 0.0 0.0 0.0 0.0 1.0 0.0 0.0 0.0 0.0 0.0 0.0 0.0 0.0 0.0 0.0 0.0 0.0 0.0 0.0 0.0 0.0 0.0 0.0 1.0 0.0 0.0 0.0 0.0 0.0 0.0 0.0 0.0 1.0 0.0 0.0 0.0 0.0 0.0 0.0 0.0 0.0 0.0 1.0 0.12</REAL-Entries>
              </REAL-SparseArray>
            </VectorInstance>
            <VectorInstance id="0_1099829">
              <REAL-SparseArray n="53">
                <Indices>1 2 3 4 5 6 7 8 9 10 11 12 13 14 15 16 17 18 19 20 21 22 23 24 25 26 27 28 29 30 31 32 33 34 35 36 37 38 39 40 41 42 43 44 45 46 47 48 49 50 51 52 53</Indices>
                <REAL-Entries>-0.8355409383508352 -0.7297781698907826 -0.18343936897060836 1.1803942418598234 1.0 0.0 0.0 0.0 0.0 0.0 0.0 0.0 0.0 1.0 0.0 0.0 0.0 0.0 0.0 0.0 0.0 0.0 0.0 0.0 0.0 0.0 0.0 0.0 0.0 0.0 0.0 0.0 1.0 0.0 0.0 0.0 0.0 0.0 0.0 1.0 0.0 0.0 0.0 0.0 0.0 0.0 0.0 0.0 0.0 0.0 0.0 1.0 0.83</REAL-Entries>
              </REAL-SparseArray>
            </VectorInstance>
            <VectorInstance id="1_1141887">
              <REAL-SparseArray n="53">
                <Indices>1 2 3 4 5 6 7 8 9 10 11 12 13 14 15 16 17 18 19 20 21 22 23 24 25 26 27 28 29 30 31 32 33 34 35 36 37 38 39 40 41 42 43 44 45 46 47 48 49 50 51 52 53</Indices>
                <REAL-Entries>-0.546801089244715 -1.2002318459888157 -0.18343936897060836 1.595587432805944 0.0 1.0 0.0 0.0 0.0 0.0 0.0 0.0 0.0 0.0 0.0 1.0 0.0 0.0 0.0 0.0 0.0 0.0 0.0 0.0 0.0 0.0 0.0 0.0 0.0 0.0 0.0 0.0 1.0 0.0 0.0 0.0 0.0 0.0 0.0 0.0 0.0 1.0 0.0 0.0 0.0 0.0 0.0 0.0 0.0 0.0 0.0 1.0 0.69</REAL-Entries>
              </REAL-SparseArray>
            </VectorInstance>
            <VectorInstance id="1_1142177">
              <REAL-SparseArray n="53">
                <Indices>1 2 3 4 5 6 7 8 9 10 11 12 13 14 15 16 17 18 19 20 21 22 23 24 25 26 27 28 29 30 31 32 33 34 35 36 37 38 39 40 41 42 43 44 45 46 47 48 49 50 51 52 53</Indices>
                <REAL-Entries>0.6803432694562952 -0.9827609163460156 -0.18343936897060836 -0.06518533097854062 0.0 0.0 0.0 0.0 0.0 1.0 0.0 0.0 0.0 1.0 0.0 0.0 0.0 0.0 0.0 0.0 0.0 0.0 0.0 0.0 0.0 0.0 0.0 0.0 0.0 0.0 0.0 0.0 1.0 0.0 0.0 0.0 0.0 0.0 0.0 0.0 0.0 0.0 0.0 1.0 0.0 0.0 0.0 0.0 0.0 0.0 0.0 1.0 0.32</REAL-Entries>
              </REAL-SparseArray>
            </VectorInstance>
            <VectorInstance id="0_1145025">
              <REAL-SparseArray n="53">
                <Indices>1 2 3 4 5 6 7 8 9 10 11 12 13 14 15 16 17 18 19 20 21 22 23 24 25 26 27 28 29 30 31 32 33 34 35 36 37 38 39 40 41 42 43 44 45 46 47 48 49 50 51 52 53</Indices>
                <REAL-Entries>0.10286357124405487 -0.368525307206795 -0.18343936897060836 -1.3938035420061285 0.0 0.0 0.0 0.0 0.0 1.0 0.0 0.0 0.0 0.0 0.0 0.0 1.0 0.0 0.0 0.0 0.0 0.0 0.0 0.0 0.0 0.0 0.0 0.0 0.0 0.0 0.0 0.0 1.0 0.0 0.0 0.0 0.0 0.0 0.0 0.0 0.0 0.0 0.0 1.0 0.0 0.0 0.0 0.0 0.0 0.0 0.0 1.0 0.32</REAL-Entries>
              </REAL-SparseArray>
            </VectorInstance>
            <VectorInstance id="0_1155672">
              <REAL-SparseArray n="53">
                <Indices>1 2 3 4 5 6 7 8 9 10 11 12 13 14 15 16 17 18 19 20 21 22 23 24 25 26 27 28 29 30 31 32 33 34 35 36 37 38 39 40 41 42 43 44 45 46 47 48 49 50 51 52 53</Indices>
                <REAL-Entries>0.5359733449032351 1.3063606914521502 -0.18343936897060836 -0.06518533097854062 0.0 0.0 0.0 1.0 0.0 0.0 0.0 0.0 0.0 0.0 0.0 0.0 0.0 0.0 0.0 0.0 0.0 0.0 1.0 0.0 0.0 0.0 0.0 0.0 0.0 0.0 1.0 0.0 0.0 0.0 0.0 0.0 0.0 0.0 0.0 0.0 0.0 0.0 1.0 0.0 0.0 0.0 0.0 0.0 0.0 0.0 1.0 0.0 0.32</REAL-Entries>
              </REAL-SparseArray>
            </VectorInstance>
            <VectorInstance id="1_1157546">
              <REAL-SparseArray n="53">
                <Indices>1 2 3 4 5 6 7 8 9 10 11 12 13 14 15 16 17 18 19 20 21 22 23 24 25 26 27 28 29 30 31 32 33 34 35 36 37 38 39 40 41 42 43 44 45 46 47 48 49 50 51 52 53</Indices>
                <REAL-Entries>-1.1242807874569551 1.7954273736832833 -0.18343936897060836 -0.06518533097854062 1.0 0.0 0.0 0.0 0.0 0.0 0.0 0.0 0.0 0.0 1.0 0.0 0.0 0.0 0.0 0.0 0.0 0.0 0.0 0.0 0.0 0.0 0.0 0.0 0.0 1.0 0.0 0.0 0.0 0.0 0.0 0.0 0.0 0.0 1.0 0.0 0.0 0.0 0.0 0.0 0.0 0.0 0.0 0.0 0.0 0.0 0.0 1.0 0.83</REAL-Entries>
              </REAL-SparseArray>
            </VectorInstance>
            <VectorInstance id="0_1169595">
              <REAL-SparseArray n="53">
                <Indices>1 2 3 4 5 6 7 8 9 10 11 12 13 14 15 16 17 18 19 20 21 22 23 24 25 26 27 28 29 30 31 32 33 34 35 36 37 38 39 40 41 42 43 44 45 46 47 48 49 50 51 52 53</Indices>
                <REAL-Entries>0.030678608967525278 0.3361421596178502 -0.18343936897060836 -0.06518533097854062 0.0 0.0 0.0 0.0 0.0 1.0 0.0 0.0 0.0 0.0 1.0 0.0 0.0 0.0 0.0 0.0 0.0 0.0 0.0 0.0 0.0 0.0 0.0 0.0 0.0 0.0 1.0 0.0 0.0 0.0 0.0 0.0 0.0 1.0 0.0 0.0 0.0 0.0 0.0 0.0 0.0 0.0 0.0 0.0 0.0 0.0 1.0 0.0 0.32</REAL-Entries>
              </REAL-SparseArray>
            </VectorInstance>
            <VectorInstance id="1_1172381">
              <REAL-SparseArray n="53">
                <Indices>1 2 3 4 5 6 7 8 9 10 11 12 13 14 15 16 17 18 19 20 21 22 23 24 25 26 27 28 29 30 31 32 33 34 35 36 37 38 39 40 41 42 43 44 45 46 47 48 49 50 51 52 53</Indices>
                <REAL-Entries>0.8247131940093553 -1.0098452045155484 -0.18343936897060836 -0.06518533097854062 0.0 0.0 1.0 0.0 0.0 0.0 0.0 0.0 0.0 0.0 0.0 0.0 0.0 0.0 0.0 0.0 0.0 0.0 1.0 0.0 0.0 0.0 0.0 0.0 0.0 0.0 0.0 0.0 1.0 0.0 0.0 0.0 0.0 0.0 0.0 0.0 0.0 0.0 1.0 0.0 0.0 0.0 0.0 0.0 0.0 0.0 0.0 1.0 0.32</REAL-Entries>
              </REAL-SparseArray>
            </VectorInstance>
            <VectorInstance id="0_1177328">
              <REAL-SparseArray n="53">
                <Indices>1 2 3 4 5 6 7 8 9 10 11 12 13 14 15 16 17 18 19 20 21 22 23 24 25 26 27 28 29 30 31 32 33 34 35 36 37 38 39 40 41 42 43 44 45 46 47 48 49 50 51 52 53</Indices>
                <REAL-Entries>-0.3302462024151249 -0.532958529471233 -0.18343936897060836 0.35000785996758044 1.0 0.0 0.0 0.0 0.0 0.0 0.0 0.0 0.0 1.0 0.0 0.0 0.0 0.0 0.0 0.0 0.0 0.0 0.0 0.0 0.0 0.0 0.0 0.0 0.0 0.0 0.0 0.0 1.0 0.0 0.0 0.0 0.0 0.0 0.0 0.0 0.0 0.0 0.0 1.0 0.0 0.0 0.0 0.0 0.0 0.0 0.0 1.0 0.69</REAL-Entries>
              </REAL-SparseArray>
            </VectorInstance>
            <VectorInstance id="0_1197102">
              <REAL-SparseArray n="53">
                <Indices>1 2 3 4 5 6 7 8 9 10 11 12 13 14 15 16 17 18 19 20 21 22 23 24 25 26 27 28 29 30 31 32 33 34 35 36 37 38 39 40 41 42 43 44 45 46 47 48 49 50 51 52 53</Indices>
                <REAL-Entries>-0.04150635330900476 0.21925965665851943 -0.18343936897060836 -0.06518533097854062 0.0 0.0 0.0 0.0 1.0 0.0 0.0 0.0 0.0 0.0 0.0 0.0 1.0 0.0 0.0 0.0 0.0 0.0 0.0 0.0 0.0 0.0 0.0 0.0 0.0 0.0 1.0 0.0 0.0 0.0 0.0 0.0 0.0 0.0 0.0 1.0 0.0 0.0 0.0 0.0 0.0 0.0 0.0 0.0 0.0 0.0 1.0 0.0 0.69</REAL-Entries>
              </REAL-SparseArray>
            </VectorInstance>
            <VectorInstance id="1_1199127">
              <REAL-SparseArray n="53">
                <Indices>1 2 3 4 5 6 7 8 9 10 11 12 13 14 15 16 17 18 19 20 21 22 23 24 25 26 27 28 29 30 31 32 33 34 35 36 37 38 39 40 41 42 43 44 45 46 47 48 49 50 51 52 53</Indices>
                <REAL-Entries>1.6909327413277158 -1.0804738075016604 -0.18343936897060836 -0.06518533097854062 0.0 0.0 1.0 0.0 0.0 0.0 0.0 0.0 0.0 0.0 0.0 0.0 1.0 0.0 0.0 0.0 0.0 0.0 0.0 0.0 0.0 0.0 0.0 0.0 0.0 0.0 0.0 0.0 1.0 0.0 0.0 0.0 0.0 0.0 0.0 0.0 0.0 0.0 0.0 0.0 0.0 1.0 0.0 0.0 0.0 0.0 0.0 1.0 0.12</REAL-Entries>
              </REAL-SparseArray>
            </VectorInstance>
            <VectorInstance id="1_1210411">
              <REAL-SparseArray n="53">
                <Indices>1 2 3 4 5 6 7 8 9 10 11 12 13 14 15 16 17 18 19 20 21 22 23 24 25 26 27 28 29 30 31 32 33 34 35 36 37 38 39 40 41 42 43 44 45 46 47 48 49 50 51 52 53</Indices>
                <REAL-Entries>-0.04150635330900476 -0.8914305514719705 -0.18343936897060836 -0.06518533097854062 1.0 0.0 0.0 0.0 0.0 0.0 0.0 0.0 0.0 0.0 0.0 0.0 1.0 0.0 0.0 0.0 0.0 0.0 0.0 0.0 0.0 0.0 0.0 0.0 0.0 0.0 0.0 0.0 1.0 0.0 0.0 0.0 0.0 0.0 0.0 0.0 0.0 0.0 1.0 0.0 0.0 0.0 0.0 0.0 0.0 0.0 0.0 1.0 0.69</REAL-Entries>
              </REAL-SparseArray>
            </VectorInstance>
            <VectorInstance id="1_1216471">
              <REAL-SparseArray n="53">
                <Indices>1 2 3 4 5 6 7 8 9 10 11 12 13 14 15 16 17 18 19 20 21 22 23 24 25 26 27 28 29 30 31 32 33 34 35 36 37 38 39 40 41 42 43 44 45 46 47 48 49 50 51 52 53</Indices>
                <REAL-Entries>0.17504853352058491 -0.4658934841262493 -0.18343936897060836 0.35000785996758044 0.0 0.0 0.0 1.0 0.0 0.0 0.0 0.0 0.0 1.0 0.0 0.0 0.0 0.0 0.0 0.0 0.0 0.0 0.0 0.0 0.0 0.0 0.0 0.0 0.0 0.0 0.0 0.0 1.0 0.0 0.0 0.0 0.0 0.0 0.0 1.0 0.0 0.0 0.0 0.0 0.0 0.0 0.0 0.0 0.0 0.0 0.0 1.0 0.32</REAL-Entries>
              </REAL-SparseArray>
            </VectorInstance>
            <VectorInstance id="1_1226867">
              <REAL-SparseArray n="53">
                <Indices>1 2 3 4 5 6 7 8 9 10 11 12 13 14 15 16 17 18 19 20 21 22 23 24 25 26 27 28 29 30 31 32 33 34 35 36 37 38 39 40 41 42 43 44 45 46 47 48 49 50 51 52 53</Indices>
                <REAL-Entries>0.39160342035017504 -0.5333995011731959 -0.18343936897060836 -0.06518533097854062 1.0 0.0 0.0 0.0 0.0 0.0 0.0 0.0 0.0 0.0 0.0 0.0 0.0 0.0 0.0 0.0 0.0 0.0 0.0 0.0 0.0 1.0 0.0 0.0 0.0 0.0 1.0 0.0 0.0 0.0 0.0 0.0 0.0 0.0 0.0 0.0 0.0 0.0 1.0 0.0 0.0 0.0 0.0 0.0 0.0 0.0 0.0 1.0 0.32</REAL-Entries>
              </REAL-SparseArray>
            </VectorInstance>
            <VectorInstance id="0_1233450">
              <REAL-SparseArray n="53">
                <Indices>1 2 3 4 5 6 7 8 9 10 11 12 13 14 15 16 17 18 19 20 21 22 23 24 25 26 27 28 29 30 31 32 33 34 35 36 37 38 39 40 41 42 43 44 45 46 47 48 49 50 51 52 53</Indices>
                <REAL-Entries>-0.546801089244715 -0.9935076873703943 -0.18343936897060836 -0.06518533097854062 1.0 0.0 0.0 0.0 0.0 0.0 0.0 0.0 0.0 0.0 0.0 1.0 0.0 0.0 0.0 0.0 0.0 0.0 0.0 0.0 0.0 0.0 0.0 0.0 0.0 0.0 0.0 0.0 1.0 0.0 0.0 0.0 0.0 0.0 0.0 0.0 1.0 0.0 0.0 0.0 0.0 0.0 0.0 0.0 0.0 0.0 0.0 1.0 0.69</REAL-Entries>
              </REAL-SparseArray>
            </VectorInstance>
            <VectorInstance id="1_1254408">
              <REAL-SparseArray n="53">
                <Indices>1 2 3 4 5 6 7 8 9 10 11 12 13 14 15 16 17 18 19 20 21 22 23 24 25 26 27 28 29 30 31 32 33 34 35 36 37 38 39 40 41 42 43 44 45 46 47 48 49 50 51 52 53</Indices>
                <REAL-Entries>-0.907725900627365 0.18029507204786843 -0.18343936897060836 -0.06518533097854062 1.0 0.0 0.0 0.0 0.0 0.0 0.0 0.0 0.0 0.0 0.0 0.0 1.0 0.0 0.0 0.0 0.0 0.0 0.0 0.0 0.0 0.0 0.0 0.0 0.0 0.0 1.0 0.0 0.0 0.0 0.0 0.0 0.0 0.0 0.0 0.0 0.0 0.0 1.0 0.0 0.0 0.0 0.0 0.0 0.0 0.0 0.0 1.0 0.83</REAL-Entries>
              </REAL-SparseArray>
            </VectorInstance>
            <VectorInstance id="0_1264690">
              <REAL-SparseArray n="53">
                <Indices>1 2 3 4 5 6 7 8 9 10 11 12 13 14 15 16 17 18 19 20 21 22 23 24 25 26 27 28 29 30 31 32 33 34 35 36 37 38 39 40 41 42 43 44 45 46 47 48 49 50 51 52 53</Indices>
                <REAL-Entries>-0.474616126968185 2.1251877937993067 -0.18343936897060836 2.425973814698187 0.0 1.0 0.0 0.0 0.0 0.0 0.0 0.0 0.0 0.0 0.0 1.0 0.0 0.0 0.0 0.0 0.0 0.0 0.0 0.0 0.0 0.0 0.0 0.0 0.0 0.0 1.0 0.0 0.0 0.0 0.0 0.0 0.0 0.0 0.0 0.0 0.0 0.0 0.0 0.0 0.0 1.0 0.0 0.0 0.0 0.0 0.0 1.0 0.69</REAL-Entries>
              </REAL-SparseArray>
            </VectorInstance>
            <VectorInstance id="0_1267022">
              <REAL-SparseArray n="53">
                <Indices>1 2 3 4 5 6 7 8 9 10 11 12 13 14 15 16 17 18 19 20 21 22 23 24 25 26 27 28 29 30 31 32 33 34 35 36 37 38 39 40 41 42 43 44 45 46 47 48 49 50 51 52 53</Indices>
                <REAL-Entries>-0.6189860515212451 0.07666281553359267 3.5221699757857863 -0.23126260735698922 1.0 0.0 0.0 0.0 0.0 0.0 0.0 0.0 0.0 0.0 0.0 0.0 1.0 0.0 0.0 0.0 0.0 0.0 0.0 0.0 0.0 0.0 0.0 0.0 0.0 0.0 1.0 0.0 0.0 0.0 0.0 0.0 0.0 0.0 0.0 1.0 0.0 0.0 0.0 0.0 0.0 0.0 0.0 0.0 0.0 0.0 0.0 1.0 0.83</REAL-Entries>
              </REAL-SparseArray>
            </VectorInstance>
            <VectorInstance id="0_1272722">
              <REAL-SparseArray n="53">
                <Indices>1 2 3 4 5 6 7 8 9 10 11 12 13 14 15 16 17 18 19 20 21 22 23 24 25 26 27 28 29 30 31 32 33 34 35 36 37 38 39 40 41 42 43 44 45 46 47 48 49 50 51 52 53</Indices>
                <REAL-Entries>1.185638005392005 -0.6431491071518388 -0.18343936897060836 -0.06518533097854062 0.0 0.0 0.0 0.0 0.0 1.0 0.0 0.0 0.0 0.0 0.0 0.0 1.0 0.0 0.0 0.0 0.0 0.0 0.0 0.0 0.0 0.0 0.0 0.0 0.0 0.0 0.0 1.0 0.0 0.0 0.0 0.0 0.0 1.0 0.0 0.0 0.0 0.0 0.0 0.0 0.0 0.0 0.0 0.0 0.0 0.0 0.0 1.0 0.32</REAL-Entries>
              </REAL-SparseArray>
            </VectorInstance>
            <VectorInstance id="0_1273089">
              <REAL-SparseArray n="53">
                <Indices>1 2 3 4 5 6 7 8 9 10 11 12 13 14 15 16 17 18 19 20 21 22 23 24 25 26 27 28 29 30 31 32 33 34 35 36 37 38 39 40 41 42 43 44 45 46 47 48 49 50 51 52 53</Indices>
                <REAL-Entries>1.6187477790511853 -0.4220116431309885 -0.18343936897060836 0.7652010509137019 0.0 0.0 0.0 0.0 0.0 0.0 0.0 0.0 1.0 0.0 1.0 0.0 0.0 0.0 0.0 0.0 0.0 0.0 0.0 0.0 0.0 0.0 0.0 0.0 0.0 0.0 0.0 0.0 1.0 0.0 0.0 0.0 0.0 0.0 0.0 0.0 0.0 0.0 0.0 0.0 0.0 1.0 0.0 0.0 0.0 0.0 0.0 1.0 0.12</REAL-Entries>
              </REAL-SparseArray>
            </VectorInstance>
            <VectorInstance id="0_1276913">
              <REAL-SparseArray n="53">
                <Indices>1 2 3 4 5 6 7 8 9 10 11 12 13 14 15 16 17 18 19 20 21 22 23 24 25 26 27 28 29 30 31 32 33 34 35 36 37 38 39 40 41 42 43 44 45 46 47 48 49 50 51 52 53</Indices>
                <REAL-Entries>-0.04150635330900476 -0.7708369794304581 -0.18343936897060836 -0.06518533097854062 1.0 0.0 0.0 0.0 0.0 0.0 0.0 0.0 0.0 0.0 0.0 1.0 0.0 0.0 0.0 0.0 0.0 0.0 0.0 0.0 0.0 0.0 0.0 0.0 0.0 0.0 0.0 0.0 1.0 0.0 0.0 0.0 0.0 0.0 0.0 1.0 0.0 0.0 0.0 0.0 0.0 0.0 0.0 0.0 0.0 0.0 0.0 1.0 0.69</REAL-Entries>
              </REAL-SparseArray>
            </VectorInstance>
            <VectorInstance id="0_1282955">
              <REAL-SparseArray n="53">
                <Indices>1 2 3 4 5 6 7 8 9 10 11 12 13 14 15 16 17 18 19 20 21 22 23 24 25 26 27 28 29 30 31 32 33 34 35 36 37 38 39 40 41 42 43 44 45 46 47 48 49 50 51 52 53</Indices>
                <REAL-Entries>1.5465628167746557 -1.1422606309653887 -0.18343936897060836 -1.3107649038169042 0.0 0.0 0.0 1.0 0.0 0.0 0.0 0.0 0.0 0.0 0.0 0.0 0.0 0.0 0.0 1.0 0.0 0.0 0.0 0.0 0.0 0.0 0.0 0.0 0.0 0.0 1.0 0.0 0.0 0.0 0.0 0.0 0.0 0.0 0.0 0.0 0.0 0.0 1.0 0.0 0.0 0.0 0.0 0.0 0.0 0.0 1.0 0.0 0.12</REAL-Entries>
              </REAL-SparseArray>
            </VectorInstance>
            <VectorInstance id="0_1298943">
              <REAL-SparseArray n="53">
                <Indices>1 2 3 4 5 6 7 8 9 10 11 12 13 14 15 16 17 18 19 20 21 22 23 24 25 26 27 28 29 30 31 32 33 34 35 36 37 38 39 40 41 42 43 44 45 46 47 48 49 50 51 52 53</Indices>
                <REAL-Entries>0.24723349579711495 -0.7118149016516447 -0.18343936897060836 -0.23126260735698922 1.0 0.0 0.0 0.0 0.0 0.0 0.0 0.0 0.0 1.0 0.0 0.0 0.0 0.0 0.0 0.0 0.0 0.0 0.0 0.0 0.0 0.0 0.0 0.0 0.0 0.0 0.0 0.0 1.0 0.0 0.0 0.0 0.0 0.0 1.0 0.0 0.0 0.0 0.0 0.0 0.0 0.0 0.0 0.0 0.0 0.0 0.0 1.0 0.32</REAL-Entries>
              </REAL-SparseArray>
            </VectorInstance>
            <VectorInstance id="0_1312365">
              <REAL-SparseArray n="53">
                <Indices>1 2 3 4 5 6 7 8 9 10 11 12 13 14 15 16 17 18 19 20 21 22 23 24 25 26 27 28 29 30 31 32 33 34 35 36 37 38 39 40 41 42 43 44 45 46 47 48 49 50 51 52 53</Indices>
                <REAL-Entries>1.7631177036042454 -0.2600940847325678 -0.18343936897060836 -0.06518533097854062 1.0 0.0 0.0 0.0 0.0 0.0 0.0 0.0 0.0 0.0 0.0 1.0 0.0 0.0 0.0 0.0 0.0 0.0 0.0 0.0 0.0 0.0 0.0 0.0 0.0 0.0 0.0 0.0 1.0 0.0 0.0 0.0 0.0 0.0 0.0 0.0 1.0 0.0 0.0 0.0 0.0 0.0 0.0 0.0 0.0 0.0 0.0 1.0 0.12</REAL-Entries>
              </REAL-SparseArray>
            </VectorInstance>
            <VectorInstance id="1_1312435">
              <REAL-SparseArray n="53">
                <Indices>1 2 3 4 5 6 7 8 9 10 11 12 13 14 15 16 17 18 19 20 21 22 23 24 25 26 27 28 29 30 31 32 33 34 35 36 37 38 39 40 41 42 43 44 45 46 47 48 49 50 51 52 53</Indices>
                <REAL-Entries>0.319418458073645 -0.6340355878031924 -0.18343936897060836 0.7652010509137019 1.0 0.0 0.0 0.0 0.0 0.0 0.0 0.0 0.0 0.0 0.0 0.0 1.0 0.0 0.0 0.0 0.0 0.0 0.0 0.0 0.0 0.0 0.0 0.0 0.0 0.0 0.0 0.0 1.0 0.0 0.0 0.0 0.0 0.0 0.0 0.0 0.0 1.0 0.0 0.0 0.0 0.0 0.0 0.0 0.0 0.0 0.0 1.0 0.32</REAL-Entries>
              </REAL-SparseArray>
            </VectorInstance>
            <VectorInstance id="1_1318398">
              <REAL-SparseArray n="53">
                <Indices>1 2 3 4 5 6 7 8 9 10 11 12 13 14 15 16 17 18 19 20 21 22 23 24 25 26 27 28 29 30 31 32 33 34 35 36 37 38 39 40 41 42 43 44 45 46 47 48 49 50 51 52 53</Indices>
                <REAL-Entries>0.6803432694562952 -0.7522235045109985 -0.18343936897060836 0.7652010509137019 0.0 0.0 0.0 1.0 0.0 0.0 0.0 0.0 0.0 0.0 0.0 0.0 0.0 0.0 0.0 1.0 0.0 0.0 0.0 0.0 0.0 0.0 0.0 0.0 0.0 0.0 0.0 0.0 1.0 0.0 0.0 0.0 0.0 0.0 0.0 1.0 0.0 0.0 0.0 0.0 0.0 0.0 0.0 0.0 0.0 0.0 0.0 1.0 0.32</REAL-Entries>
              </REAL-SparseArray>
            </VectorInstance>
            <VectorInstance id="0_1383516">
              <REAL-SparseArray n="53">
                <Indices>1 2 3 4 5 6 7 8 9 10 11 12 13 14 15 16 17 18 19 20 21 22 23 24 25 26 27 28 29 30 31 32 33 34 35 36 37 38 39 40 41 42 43 44 45 46 47 48 49 50 51 52 53</Indices>
                <REAL-Entries>-0.8355409383508352 -0.026531281996876155 -0.18343936897060836 1.595587432805944 1.0 0.0 0.0 0.0 0.0 0.0 0.0 0.0 0.0 0.0 0.0 0.0 1.0 0.0 0.0 0.0 0.0 0.0 0.0 0.0 0.0 0.0 0.0 0.0 0.0 0.0 1.0 0.0 0.0 0.0 0.0 0.0 0.0 0.0 0.0 1.0 0.0 0.0 0.0 0.0 0.0 0.0 0.0 0.0 0.0 0.0 1.0 0.0 0.83</REAL-Entries>
              </REAL-SparseArray>
            </VectorInstance>
            <VectorInstance id="0_1400557">
              <REAL-SparseArray n="53">
                <Indices>1 2 3 4 5 6 7 8 9 10 11 12 13 14 15 16 17 18 19 20 21 22 23 24 25 26 27 28 29 30 31 32 33 34 35 36 37 38 39 40 41 42 43 44 45 46 47 48 49 50 51 52 53</Indices>
                <REAL-Entries>1.3300079299450651 -0.7029351504341592 -0.18343936897060836 -0.06518533097854062 0.0 0.0 0.0 0.0 1.0 0.0 0.0 0.0 0.0 0.0 0.0 0.0 0.0 0.0 0.0 0.0 0.0 0.0 1.0 0.0 0.0 0.0 0.0 0.0 0.0 0.0 0.0 0.0 1.0 0.0 0.0 0.0 0.0 0.0 0.0 0.0 0.0 0.0 1.0 0.0 0.0 0.0 0.0 0.0 0.0 0.0 0.0 1.0 0.12</REAL-Entries>
              </REAL-SparseArray>
            </VectorInstance>
            <VectorInstance id="0_1401108">
              <REAL-SparseArray n="53">
                <Indices>1 2 3 4 5 6 7 8 9 10 11 12 13 14 15 16 17 18 19 20 21 22 23 24 25 26 27 28 29 30 31 32 33 34 35 36 37 38 39 40 41 42 43 44 45 46 47 48 49 50 51 52 53</Indices>
                <REAL-Entries>1.1134530431154754 -0.6117605788935149 -0.18343936897060836 -0.06518533097854062 1.0 0.0 0.0 0.0 0.0 0.0 0.0 0.0 0.0 1.0 0.0 0.0 0.0 0.0 0.0 0.0 0.0 0.0 0.0 0.0 0.0 0.0 0.0 0.0 0.0 0.0 0.0 0.0 1.0 0.0 0.0 0.0 0.0 0.0 1.0 0.0 0.0 0.0 0.0 0.0 0.0 0.0 0.0 0.0 0.0 0.0 0.0 1.0 0.32</REAL-Entries>
              </REAL-SparseArray>
            </VectorInstance>
            <VectorInstance id="0_1454004">
              <REAL-SparseArray n="53">
                <Indices>1 2 3 4 5 6 7 8 9 10 11 12 13 14 15 16 17 18 19 20 21 22 23 24 25 26 27 28 29 30 31 32 33 34 35 36 37 38 39 40 41 42 43 44 45 46 47 48 49 50 51 52 53</Indices>
                <REAL-Entries>0.9690831185624154 -0.34646484618754814 -0.18343936897060836 1.595587432805944 0.0 0.0 0.0 1.0 0.0 0.0 0.0 0.0 0.0 0.0 0.0 1.0 0.0 0.0 0.0 0.0 0.0 0.0 0.0 0.0 0.0 0.0 0.0 0.0 0.0 0.0 0.0 0.0 1.0 0.0 0.0 0.0 0.0 0.0 0.0 1.0 0.0 0.0 0.0 0.0 0.0 0.0 0.0 0.0 0.0 0.0 0.0 1.0 0.32</REAL-Entries>
              </REAL-SparseArray>
            </VectorInstance>
            <VectorInstance id="0_1455874">
              <REAL-SparseArray n="53">
                <Indices>1 2 3 4 5 6 7 8 9 10 11 12 13 14 15 16 17 18 19 20 21 22 23 24 25 26 27 28 29 30 31 32 33 34 35 36 37 38 39 40 41 42 43 44 45 46 47 48 49 50 51 52 53</Indices>
                <REAL-Entries>-0.40243116469165496 -0.6614125549230359 -0.18343936897060836 -0.06518533097854062 1.0 0.0 0.0 0.0 0.0 0.0 0.0 0.0 0.0 0.0 0.0 0.0 0.0 0.0 1.0 0.0 0.0 0.0 0.0 0.0 0.0 0.0 0.0 0.0 0.0 0.0 0.0 0.0 1.0 0.0 0.0 0.0 0.0 0.0 0.0 1.0 0.0 0.0 0.0 0.0 0.0 0.0 0.0 0.0 0.0 0.0 0.0 1.0 0.69</REAL-Entries>
              </REAL-SparseArray>
            </VectorInstance>
            <VectorInstance id="0_1457685">
              <REAL-SparseArray n="53">
                <Indices>1 2 3 4 5 6 7 8 9 10 11 12 13 14 15 16 17 18 19 20 21 22 23 24 25 26 27 28 29 30 31 32 33 34 35 36 37 38 39 40 41 42 43 44 45 46 47 48 49 50 51 52 53</Indices>
                <REAL-Entries>-0.8355409383508352 -0.6404817127675345 -0.18343936897060836 -0.06518533097854062 1.0 0.0 0.0 0.0 0.0 0.0 0.0 0.0 0.0 1.0 0.0 0.0 0.0 0.0 0.0 0.0 0.0 0.0 0.0 0.0 0.0 0.0 0.0 0.0 0.0 0.0 0.0 0.0 1.0 0.0 0.0 0.0 0.0 0.0 0.0 0.0 0.0 1.0 0.0 0.0 0.0 0.0 0.0 0.0 0.0 0.0 0.0 1.0 0.83</REAL-Entries>
              </REAL-SparseArray>
            </VectorInstance>
            <VectorInstance id="0_1467638">
              <REAL-SparseArray n="53">
                <Indices>1 2 3 4 5 6 7 8 9 10 11 12 13 14 15 16 17 18 19 20 21 22 23 24 25 26 27 28 29 30 31 32 33 34 35 36 37 38 39 40 41 42 43 44 45 46 47 48 49 50 51 52 53</Indices>
                <REAL-Entries>0.7525282317328252 -0.48793425611840635 -0.18343936897060836 0.5991237745352533 1.0 0.0 0.0 0.0 0.0 0.0 0.0 0.0 0.0 0.0 0.0 1.0 0.0 0.0 0.0 0.0 0.0 0.0 0.0 0.0 0.0 0.0 0.0 0.0 0.0 0.0 0.0 0.0 1.0 0.0 0.0 0.0 0.0 0.0 0.0 0.0 0.0 1.0 0.0 0.0 0.0 0.0 0.0 0.0 0.0 0.0 0.0 1.0 0.32</REAL-Entries>
              </REAL-SparseArray>
            </VectorInstance>
            <VectorInstance id="0_1471496">
              <REAL-SparseArray n="53">
                <Indices>1 2 3 4 5 6 7 8 9 10 11 12 13 14 15 16 17 18 19 20 21 22 23 24 25 26 27 28 29 30 31 32 33 34 35 36 37 38 39 40 41 42 43 44 45 46 47 48 49 50 51 52 53</Indices>
                <REAL-Entries>1.5465628167746557 0.21753686678816475 -0.18343936897060836 4.83409432218569 0.0 0.0 1.0 0.0 0.0 0.0 0.0 0.0 0.0 0.0 0.0 0.0 0.0 0.0 0.0 1.0 0.0 0.0 0.0 0.0 0.0 0.0 0.0 0.0 0.0 0.0 0.0 0.0 0.0 1.0 0.0 0.0 0.0 0.0 0.0 1.0 0.0 0.0 0.0 0.0 0.0 0.0 0.0 0.0 0.0 0.0 1.0 0.0 0.12</REAL-Entries>
              </REAL-SparseArray>
            </VectorInstance>
            <VectorInstance id="1_1474221">
              <REAL-SparseArray n="53">
                <Indices>1 2 3 4 5 6 7 8 9 10 11 12 13 14 15 16 17 18 19 20 21 22 23 24 25 26 27 28 29 30 31 32 33 34 35 36 37 38 39 40 41 42 43 44 45 46 47 48 49 50 51 52 53</Indices>
                <REAL-Entries>-0.04150635330900476 -0.7944361535429822 -0.18343936897060836 0.7652010509137019 1.0 0.0 0.0 0.0 0.0 0.0 0.0 0.0 0.0 0.0 0.0 0.0 1.0 0.0 0.0 0.0 0.0 0.0 0.0 0.0 0.0 0.0 0.0 0.0 0.0 0.0 0.0 0.0 1.0 0.0 0.0 0.0 0.0 0.0 0.0 0.0 0.0 0.0 0.0 1.0 0.0 0.0 0.0 0.0 0.0 0.0 0.0 1.0 0.69</REAL-Entries>
              </REAL-SparseArray>
            </VectorInstance>
            <VectorInstance id="1_1488053">
              <REAL-SparseArray n="53">
                <Indices>1 2 3 4 5 6 7 8 9 10 11 12 13 14 15 16 17 18 19 20 21 22 23 24 25 26 27 28 29 30 31 32 33 34 35 36 37 38 39 40 41 42 43 44 45 46 47 48 49 50 51 52 53</Indices>
                <REAL-Entries>1.4743778544981252 0.1309648397229335 -0.18343936897060836 0.26696922177835614 1.0 0.0 0.0 0.0 0.0 0.0 0.0 0.0 0.0 1.0 0.0 0.0 0.0 0.0 0.0 0.0 0.0 0.0 0.0 0.0 0.0 0.0 0.0 0.0 0.0 0.0 0.0 1.0 0.0 0.0 0.0 0.0 0.0 0.0 1.0 0.0 0.0 0.0 0.0 0.0 0.0 0.0 0.0 0.0 0.0 0.0 0.0 1.0 0.12</REAL-Entries>
              </REAL-SparseArray>
            </VectorInstance>
            <VectorInstance id="0_1493406">
              <REAL-SparseArray n="53">
                <Indices>1 2 3 4 5 6 7 8 9 10 11 12 13 14 15 16 17 18 19 20 21 22 23 24 25 26 27 28 29 30 31 32 33 34 35 36 37 38 39 40 41 42 43 44 45 46 47 48 49 50 51 52 53</Indices>
                <REAL-Entries>0.24723349579711495 -0.7911996525185119 -0.18343936897060836 -0.06518533097854062 1.0 0.0 0.0 0.0 0.0 0.0 0.0 0.0 0.0 1.0 0.0 0.0 0.0 0.0 0.0 0.0 0.0 0.0 0.0 0.0 0.0 0.0 0.0 0.0 0.0 0.0 0.0 0.0 1.0 0.0 0.0 0.0 0.0 0.0 0.0 0.0 0.0 0.0 1.0 0.0 0.0 0.0 0.0 0.0 0.0 0.0 0.0 1.0 0.32</REAL-Entries>
              </REAL-SparseArray>
            </VectorInstance>
            <VectorInstance id="1_1495310">
              <REAL-SparseArray n="53">
                <Indices>1 2 3 4 5 6 7 8 9 10 11 12 13 14 15 16 17 18 19 20 21 22 23 24 25 26 27 28 29 30 31 32 33 34 35 36 37 38 39 40 41 42 43 44 45 46 47 48 49 50 51 52 53</Indices>
                <REAL-Entries>-0.3302462024151249 -0.2807161529394233 -0.18343936897060836 -0.06518533097854062 1.0 0.0 0.0 0.0 0.0 0.0 0.0 0.0 0.0 0.0 0.0 1.0 0.0 0.0 0.0 0.0 0.0 0.0 0.0 0.0 0.0 0.0 0.0 0.0 0.0 0.0 1.0 0.0 0.0 0.0 0.0 0.0 0.0 1.0 0.0 0.0 0.0 0.0 0.0 0.0 0.0 0.0 0.0 0.0 0.0 0.0 0.0 1.0 0.69</REAL-Entries>
              </REAL-SparseArray>
            </VectorInstance>
            <VectorInstance id="0_1502038">
              <REAL-SparseArray n="53">
                <Indices>1 2 3 4 5 6 7 8 9 10 11 12 13 14 15 16 17 18 19 20 21 22 23 24 25 26 27 28 29 30 31 32 33 34 35 36 37 38 39 40 41 42 43 44 45 46 47 48 49 50 51 52 53</Indices>
                <REAL-Entries>1.6909327413277158 -0.7137258311141905 -0.18343936897060836 0.35000785996758044 1.0 0.0 0.0 0.0 0.0 0.0 0.0 0.0 0.0 1.0 0.0 0.0 0.0 0.0 0.0 0.0 0.0 0.0 0.0 0.0 0.0 0.0 0.0 0.0 0.0 0.0 0.0 0.0 1.0 0.0 0.0 0.0 0.0 0.0 1.0 0.0 0.0 0.0 0.0 0.0 0.0 0.0 0.0 0.0 0.0 0.0 0.0 1.0 0.12</REAL-Entries>
              </REAL-SparseArray>
            </VectorInstance>
            <VectorInstance id="1_1505676">
              <REAL-SparseArray n="53">
                <Indices>1 2 3 4 5 6 7 8 9 10 11 12 13 14 15 16 17 18 19 20 21 22 23 24 25 26 27 28 29 30 31 32 33 34 35 36 37 38 39 40 41 42 43 44 45 46 47 48 49 50 51 52 53</Indices>
                <REAL-Entries>1.0412680808389454 -0.796661794914725 -0.18343936897060836 0.35000785996758044 1.0 0.0 0.0 0.0 0.0 0.0 0.0 0.0 0.0 0.0 0.0 1.0 0.0 0.0 0.0 0.0 0.0 0.0 0.0 0.0 0.0 0.0 0.0 0.0 0.0 0.0 0.0 0.0 1.0 0.0 0.0 0.0 0.0 0.0 0.0 0.0 1.0 0.0 0.0 0.0 0.0 0.0 0.0 0.0 0.0 0.0 0.0 1.0 0.32</REAL-Entries>
              </REAL-SparseArray>
            </VectorInstance>
            <VectorInstance id="1_1518173">
              <REAL-SparseArray n="53">
                <Indices>1 2 3 4 5 6 7 8 9 10 11 12 13 14 15 16 17 18 19 20 21 22 23 24 25 26 27 28 29 30 31 32 33 34 35 36 37 38 39 40 41 42 43 44 45 46 47 48 49 50 51 52 53</Indices>
                <REAL-Entries>-0.474616126968185 0.7946560034071368 -0.18343936897060836 -0.06518533097854062 1.0 0.0 0.0 0.0 0.0 0.0 0.0 0.0 0.0 0.0 0.0 0.0 1.0 0.0 0.0 0.0 0.0 0.0 0.0 0.0 0.0 0.0 0.0 0.0 0.0 0.0 0.0 0.0 1.0 0.0 0.0 0.0 0.0 0.0 0.0 1.0 0.0 0.0 0.0 0.0 0.0 0.0 0.0 0.0 0.0 0.0 1.0 0.0 0.69</REAL-Entries>
              </REAL-SparseArray>
            </VectorInstance>
            <VectorInstance id="1_1531306">
              <REAL-SparseArray n="53">
                <Indices>1 2 3 4 5 6 7 8 9 10 11 12 13 14 15 16 17 18 19 20 21 22 23 24 25 26 27 28 29 30 31 32 33 34 35 36 37 38 39 40 41 42 43 44 45 46 47 48 49 50 51 52 53</Indices>
                <REAL-Entries>0.4637883826267051 -0.5749583494961036 -0.18343936897060836 -0.06518533097854062 1.0 0.0 0.0 0.0 0.0 0.0 0.0 0.0 0.0 0.0 0.0 1.0 0.0 0.0 0.0 0.0 0.0 0.0 0.0 0.0 0.0 0.0 0.0 0.0 0.0 0.0 0.0 0.0 1.0 0.0 0.0 0.0 0.0 0.0 0.0 1.0 0.0 0.0 0.0 0.0 0.0 0.0 0.0 0.0 0.0 0.0 0.0 1.0 0.32</REAL-Entries>
              </REAL-SparseArray>
            </VectorInstance>
            <VectorInstance id="1_1545759">
              <REAL-SparseArray n="53">
                <Indices>1 2 3 4 5 6 7 8 9 10 11 12 13 14 15 16 17 18 19 20 21 22 23 24 25 26 27 28 29 30 31 32 33 34 35 36 37 38 39 40 41 42 43 44 45 46 47 48 49 50 51 52 53</Indices>
                <REAL-Entries>-0.2580612401385949 -0.6344670275158498 5.841102417550325 1.595587432805944 1.0 0.0 0.0 0.0 0.0 0.0 0.0 0.0 0.0 0.0 0.0 1.0 0.0 0.0 0.0 0.0 0.0 0.0 0.0 0.0 0.0 0.0 0.0 0.0 0.0 0.0 0.0 0.0 1.0 0.0 0.0 0.0 0.0 0.0 1.0 0.0 0.0 0.0 0.0 0.0 0.0 0.0 0.0 0.0 0.0 0.0 0.0 1.0 0.69</REAL-Entries>
              </REAL-SparseArray>
            </VectorInstance>
            <VectorInstance id="1_1545762">
              <REAL-SparseArray n="53">
                <Indices>1 2 3 4 5 6 7 8 9 10 11 12 13 14 15 16 17 18 19 20 21 22 23 24 25 26 27 28 29 30 31 32 33 34 35 36 37 38 39 40 41 42 43 44 45 46 47 48 49 50 51 52 53</Indices>
                <REAL-Entries>-0.6911710137977751 -0.3840049453144666 -0.18343936897060836 -0.06518533097854062 1.0 0.0 0.0 0.0 0.0 0.0 0.0 0.0 0.0 1.0 0.0 0.0 0.0 0.0 0.0 0.0 0.0 0.0 0.0 0.0 0.0 0.0 0.0 0.0 0.0 0.0 0.0 0.0 1.0 0.0 0.0 0.0 0.0 0.0 0.0 0.0 1.0 0.0 0.0 0.0 0.0 0.0 0.0 0.0 0.0 0.0 0.0 1.0 0.83</REAL-Entries>
              </REAL-SparseArray>
            </VectorInstance>
            <VectorInstance id="1_1551622">
              <REAL-SparseArray n="53">
                <Indices>1 2 3 4 5 6 7 8 9 10 11 12 13 14 15 16 17 18 19 20 21 22 23 24 25 26 27 28 29 30 31 32 33 34 35 36 37 38 39 40 41 42 43 44 45 46 47 48 49 50 51 52 53</Indices>
                <REAL-Entries>1.6909327413277158 -0.949697101901744 -0.18343936897060836 -0.4803785219246617 0.0 1.0 0.0 0.0 0.0 0.0 0.0 0.0 0.0 1.0 0.0 0.0 0.0 0.0 0.0 0.0 0.0 0.0 0.0 0.0 0.0 0.0 0.0 0.0 0.0 0.0 0.0 0.0 1.0 0.0 0.0 0.0 0.0 0.0 0.0 0.0 1.0 0.0 0.0 0.0 0.0 0.0 0.0 0.0 0.0 0.0 0.0 1.0 0.12</REAL-Entries>
              </REAL-SparseArray>
            </VectorInstance>
            <VectorInstance id="1_1579205">
              <REAL-SparseArray n="53">
                <Indices>1 2 3 4 5 6 7 8 9 10 11 12 13 14 15 16 17 18 19 20 21 22 23 24 25 26 27 28 29 30 31 32 33 34 35 36 37 38 39 40 41 42 43 44 45 46 47 48 49 50 51 52 53</Indices>
                <REAL-Entries>-0.546801089244715 1.333704218478365 -0.18343936897060836 -0.4803785219246617 0.0 0.0 0.0 1.0 0.0 0.0 0.0 0.0 0.0 0.0 0.0 0.0 1.0 0.0 0.0 0.0 0.0 0.0 0.0 0.0 0.0 0.0 0.0 0.0 0.0 0.0 0.0 0.0 1.0 0.0 0.0 0.0 0.0 0.0 0.0 0.0 0.0 0.0 1.0 0.0 0.0 0.0 0.0 0.0 0.0 0.0 1.0 0.0 0.69</REAL-Entries>
              </REAL-SparseArray>
            </VectorInstance>
            <VectorInstance id="0_1598679">
              <REAL-SparseArray n="53">
                <Indices>1 2 3 4 5 6 7 8 9 10 11 12 13 14 15 16 17 18 19 20 21 22 23 24 25 26 27 28 29 30 31 32 33 34 35 36 37 38 39 40 41 42 43 44 45 46 47 48 49 50 51 52 53</Indices>
                <REAL-Entries>-0.6189860515212451 -0.8774199335521633 -0.18343936897060836 -0.06518533097854062 1.0 0.0 0.0 0.0 0.0 0.0 0.0 0.0 0.0 1.0 0.0 0.0 0.0 0.0 0.0 0.0 0.0 0.0 0.0 0.0 0.0 0.0 0.0 0.0 0.0 0.0 0.0 0.0 1.0 0.0 0.0 0.0 0.0 1.0 0.0 0.0 0.0 0.0 0.0 0.0 0.0 0.0 0.0 0.0 0.0 0.0 0.0 1.0 0.83</REAL-Entries>
              </REAL-SparseArray>
            </VectorInstance>
            <VectorInstance id="1_1611099">
              <REAL-SparseArray n="53">
                <Indices>1 2 3 4 5 6 7 8 9 10 11 12 13 14 15 16 17 18 19 20 21 22 23 24 25 26 27 28 29 30 31 32 33 34 35 36 37 38 39 40 41 42 43 44 45 46 47 48 49 50 51 52 53</Indices>
                <REAL-Entries>1.4021928922215956 0.7511027816497311 -0.18343936897060836 0.7652010509137019 0.0 1.0 0.0 0.0 0.0 0.0 0.0 0.0 0.0 0.0 0.0 0.0 1.0 0.0 0.0 0.0 0.0 0.0 0.0 0.0 0.0 0.0 0.0 0.0 0.0 0.0 0.0 0.0 0.0 1.0 0.0 0.0 0.0 0.0 0.0 0.0 0.0 0.0 1.0 0.0 0.0 0.0 0.0 0.0 0.0 0.0 1.0 0.0 0.12</REAL-Entries>
              </REAL-SparseArray>
            </VectorInstance>
            <VectorInstance id="1_1612385">
              <REAL-SparseArray n="53">
                <Indices>1 2 3 4 5 6 7 8 9 10 11 12 13 14 15 16 17 18 19 20 21 22 23 24 25 26 27 28 29 30 31 32 33 34 35 36 37 38 39 40 41 42 43 44 45 46 47 48 49 50 51 52 53</Indices>
                <REAL-Entries>-0.3302462024151249 -0.2143806954315992 -0.18343936897060836 0.7652010509137019 1.0 0.0 0.0 0.0 0.0 0.0 0.0 0.0 0.0 0.0 0.0 0.0 1.0 0.0 0.0 0.0 0.0 0.0 0.0 0.0 0.0 0.0 0.0 0.0 0.0 0.0 0.0 0.0 1.0 0.0 0.0 0.0 0.0 0.0 0.0 1.0 0.0 0.0 0.0 0.0 0.0 0.0 0.0 0.0 0.0 0.0 0.0 1.0 0.69</REAL-Entries>
              </REAL-SparseArray>
            </VectorInstance>
            <VectorInstance id="0_1624617">
              <REAL-SparseArray n="53">
                <Indices>1 2 3 4 5 6 7 8 9 10 11 12 13 14 15 16 17 18 19 20 21 22 23 24 25 26 27 28 29 30 31 32 33 34 35 36 37 38 39 40 41 42 43 44 45 46 47 48 49 50 51 52 53</Indices>
                <REAL-Entries>-0.04150635330900476 2.891086728514053 -0.18343936897060836 -1.3107649038169042 1.0 0.0 0.0 0.0 0.0 0.0 0.0 0.0 0.0 0.0 0.0 1.0 0.0 0.0 0.0 0.0 0.0 0.0 0.0 0.0 0.0 0.0 0.0 0.0 0.0 0.0 0.0 0.0 1.0 0.0 0.0 0.0 0.0 1.0 0.0 0.0 0.0 0.0 0.0 0.0 0.0 0.0 0.0 0.0 0.0 0.0 1.0 0.0 0.69</REAL-Entries>
              </REAL-SparseArray>
            </VectorInstance>
            <VectorInstance id="0_1637260">
              <REAL-SparseArray n="53">
                <Indices>1 2 3 4 5 6 7 8 9 10 11 12 13 14 15 16 17 18 19 20 21 22 23 24 25 26 27 28 29 30 31 32 33 34 35 36 37 38 39 40 41 42 43 44 45 46 47 48 49 50 51 52 53</Indices>
                <REAL-Entries>0.030678608967525278 -0.6807226463723859 -0.18343936897060836 0.7652010509137019 0.0 1.0 0.0 0.0 0.0 0.0 0.0 0.0 0.0 0.0 0.0 0.0 1.0 0.0 0.0 0.0 0.0 0.0 0.0 0.0 0.0 0.0 0.0 0.0 0.0 0.0 0.0 0.0 1.0 0.0 0.0 0.0 0.0 0.0 1.0 0.0 0.0 0.0 0.0 0.0 0.0 0.0 0.0 0.0 0.0 0.0 0.0 1.0 0.32</REAL-Entries>
              </REAL-SparseArray>
            </VectorInstance>
            <VectorInstance id="1_1670669">
              <REAL-SparseArray n="53">
                <Indices>1 2 3 4 5 6 7 8 9 10 11 12 13 14 15 16 17 18 19 20 21 22 23 24 25 26 27 28 29 30 31 32 33 34 35 36 37 38 39 40 41 42 43 44 45 46 47 48 49 50 51 52 53</Indices>
                <REAL-Entries>-0.6911710137977751 -0.6618685277884958 -0.18343936897060836 1.595587432805944 1.0 0.0 0.0 0.0 0.0 0.0 0.0 0.0 0.0 0.0 0.0 1.0 0.0 0.0 0.0 0.0 0.0 0.0 0.0 0.0 0.0 0.0 0.0 0.0 0.0 0.0 0.0 0.0 1.0 0.0 0.0 0.0 0.0 0.0 0.0 0.0 1.0 0.0 0.0 0.0 0.0 0.0 0.0 0.0 0.0 0.0 0.0 1.0 0.83</REAL-Entries>
              </REAL-SparseArray>
            </VectorInstance>
            <VectorInstance id="0_1681753">
              <REAL-SparseArray n="53">
                <Indices>1 2 3 4 5 6 7 8 9 10 11 12 13 14 15 16 17 18 19 20 21 22 23 24 25 26 27 28 29 30 31 32 33 34 35 36 37 38 39 40 41 42 43 44 45 46 47 48 49 50 51 52 53</Indices>
                <REAL-Entries>-0.6911710137977751 -0.43746596677525884 -0.18343936897060836 -0.06518533097854062 1.0 0.0 0.0 0.0 0.0 0.0 0.0 0.0 0.0 0.0 0.0 1.0 0.0 0.0 0.0 0.0 0.0 0.0 0.0 0.0 0.0 0.0 0.0 0.0 0.0 0.0 0.0 0.0 1.0 0.0 0.0 0.0 0.0 0.0 0.0 0.0 0.0 0.0 0.0 0.0 1.0 0.0 0.0 0.0 0.0 0.0 0.0 1.0 0.83</REAL-Entries>
              </REAL-SparseArray>
            </VectorInstance>
            <VectorInstance id="0_1690774">
              <REAL-SparseArray n="53">
                <Indices>1 2 3 4 5 6 7 8 9 10 11 12 13 14 15 16 17 18 19 20 21 22 23 24 25 26 27 28 29 30 31 32 33 34 35 36 37 38 39 40 41 42 43 44 45 46 47 48 49 50 51 52 53</Indices>
                <REAL-Entries>-0.474616126968185 -1.0761090939725224 -0.18343936897060836 -0.06518533097854062 1.0 0.0 0.0 0.0 0.0 0.0 0.0 0.0 0.0 0.0 0.0 0.0 1.0 0.0 0.0 0.0 0.0 0.0 0.0 0.0 0.0 0.0 0.0 0.0 0.0 0.0 0.0 0.0 1.0 0.0 0.0 0.0 0.0 0.0 0.0 0.0 0.0 0.0 1.0 0.0 0.0 0.0 0.0 0.0 0.0 0.0 0.0 1.0 0.69</REAL-Entries>
              </REAL-SparseArray>
            </VectorInstance>
            <VectorInstance id="0_1709319">
              <REAL-SparseArray n="53">
                <Indices>1 2 3 4 5 6 7 8 9 10 11 12 13 14 15 16 17 18 19 20 21 22 23 24 25 26 27 28 29 30 31 32 33 34 35 36 37 38 39 40 41 42 43 44 45 46 47 48 49 50 51 52 53</Indices>
                <REAL-Entries>-0.04150635330900476 -0.8782996892864126 -0.18343936897060836 0.35000785996758044 1.0 0.0 0.0 0.0 0.0 0.0 0.0 0.0 0.0 0.0 0.0 0.0 1.0 0.0 0.0 0.0 0.0 0.0 0.0 0.0 0.0 0.0 0.0 0.0 0.0 0.0 0.0 0.0 1.0 0.0 0.0 0.0 0.0 0.0 0.0 1.0 0.0 0.0 0.0 0.0 0.0 0.0 0.0 0.0 0.0 0.0 0.0 1.0 0.69</REAL-Entries>
              </REAL-SparseArray>
            </VectorInstance>
            <VectorInstance id="0_1711915">
              <REAL-SparseArray n="53">
                <Indices>1 2 3 4 5 6 7 8 9 10 11 12 13 14 15 16 17 18 19 20 21 22 23 24 25 26 27 28 29 30 31 32 33 34 35 36 37 38 39 40 41 42 43 44 45 46 47 48 49 50 51 52 53</Indices>
                <REAL-Entries>1.6187477790511853 -0.008945386776958664 -0.18343936897060836 -0.06518533097854062 0.0 0.0 0.0 0.0 1.0 0.0 0.0 0.0 0.0 0.0 0.0 0.0 1.0 0.0 0.0 0.0 0.0 0.0 0.0 0.0 0.0 0.0 0.0 0.0 0.0 0.0 0.0 1.0 0.0 0.0 0.0 0.0 0.0 0.0 0.0 0.0 0.0 0.0 1.0 0.0 0.0 0.0 0.0 0.0 0.0 0.0 0.0 1.0 0.12</REAL-Entries>
              </REAL-SparseArray>
            </VectorInstance>
            <VectorInstance id="1_1718282">
              <REAL-SparseArray n="53">
                <Indices>1 2 3 4 5 6 7 8 9 10 11 12 13 14 15 16 17 18 19 20 21 22 23 24 25 26 27 28 29 30 31 32 33 34 35 36 37 38 39 40 41 42 43 44 45 46 47 48 49 50 51 52 53</Indices>
                <REAL-Entries>0.10286357124405487 -0.9294924098167676 -0.18343936897060836 -0.06518533097854062 1.0 0.0 0.0 0.0 0.0 0.0 0.0 0.0 0.0 0.0 0.0 0.0 1.0 0.0 0.0 0.0 0.0 0.0 0.0 0.0 0.0 0.0 0.0 0.0 0.0 0.0 0.0 0.0 1.0 0.0 0.0 0.0 0.0 0.0 0.0 0.0 0.0 0.0 1.0 0.0 0.0 0.0 0.0 0.0 0.0 0.0 0.0 1.0 0.32</REAL-Entries>
              </REAL-SparseArray>
            </VectorInstance>
            <VectorInstance id="0_1718309">
              <REAL-SparseArray n="53">
                <Indices>1 2 3 4 5 6 7 8 9 10 11 12 13 14 15 16 17 18 19 20 21 22 23 24 25 26 27 28 29 30 31 32 33 34 35 36 37 38 39 40 41 42 43 44 45 46 47 48 49 50 51 52 53</Indices>
                <REAL-Entries>0.319418458073645 2.5758168072876204 -0.18343936897060836 1.595587432805944 0.0 0.0 0.0 1.0 0.0 0.0 0.0 0.0 0.0 0.0 0.0 0.0 1.0 0.0 0.0 0.0 0.0 0.0 0.0 0.0 0.0 0.0 0.0 0.0 0.0 0.0 0.0 1.0 0.0 0.0 0.0 0.0 0.0 0.0 0.0 0.0 0.0 0.0 1.0 0.0 0.0 0.0 0.0 0.0 0.0 0.0 1.0 0.0 0.32</REAL-Entries>
              </REAL-SparseArray>
            </VectorInstance>
            <VectorInstance id="0_1723024">
              <REAL-SparseArray n="53">
                <Indices>1 2 3 4 5 6 7 8 9 10 11 12 13 14 15 16 17 18 19 20 21 22 23 24 25 26 27 28 29 30 31 32 33 34 35 36 37 38 39 40 41 42 43 44 45 46 47 48 49 50 51 52 53</Indices>
                <REAL-Entries>0.17504853352058491 -0.17633977621084984 -0.18343936897060836 -0.06518533097854062 1.0 0.0 0.0 0.0 0.0 0.0 0.0 0.0 0.0 0.0 0.0 0.0 1.0 0.0 0.0 0.0 0.0 0.0 0.0 0.0 0.0 0.0 0.0 0.0 0.0 0.0 0.0 0.0 1.0 0.0 0.0 0.0 0.0 0.0 0.0 1.0 0.0 0.0 0.0 0.0 0.0 0.0 0.0 0.0 0.0 0.0 0.0 1.0 0.32</REAL-Entries>
              </REAL-SparseArray>
            </VectorInstance>
            <VectorInstance id="1_1731662">
              <REAL-SparseArray n="53">
                <Indices>1 2 3 4 5 6 7 8 9 10 11 12 13 14 15 16 17 18 19 20 21 22 23 24 25 26 27 28 29 30 31 32 33 34 35 36 37 38 39 40 41 42 43 44 45 46 47 48 49 50 51 52 53</Indices>
                <REAL-Entries>0.030678608967525278 1.0305492993969299 -0.18343936897060836 -0.06518533097854062 1.0 0.0 0.0 0.0 0.0 0.0 0.0 0.0 0.0 0.0 0.0 1.0 0.0 0.0 0.0 0.0 0.0 0.0 0.0 0.0 0.0 0.0 0.0 0.0 0.0 0.0 0.0 0.0 1.0 0.0 0.0 0.0 0.0 0.0 1.0 0.0 0.0 0.0 0.0 0.0 0.0 0.0 0.0 0.0 0.0 0.0 1.0 0.0 0.32</REAL-Entries>
              </REAL-SparseArray>
            </VectorInstance>
            <VectorInstance id="1_1742535">
              <REAL-SparseArray n="53">
                <Indices>1 2 3 4 5 6 7 8 9 10 11 12 13 14 15 16 17 18 19 20 21 22 23 24 25 26 27 28 29 30 31 32 33 34 35 36 37 38 39 40 41 42 43 44 45 46 47 48 49 50 51 52 53</Indices>
                <REAL-Entries>-0.7633559760743052 -0.37263046935501165 -0.18343936897060836 -0.06518533097854062 0.0 0.0 0.0 0.0 0.0 1.0 0.0 0.0 0.0 1.0 0.0 0.0 0.0 0.0 0.0 0.0 0.0 0.0 0.0 0.0 0.0 0.0 0.0 0.0 0.0 0.0 0.0 0.0 1.0 0.0 0.0 0.0 0.0 1.0 0.0 0.0 0.0 0.0 0.0 0.0 0.0 0.0 0.0 0.0 0.0 0.0 0.0 1.0 0.83</REAL-Entries>
              </REAL-SparseArray>
            </VectorInstance>
            <VectorInstance id="1_1747347">
              <REAL-SparseArray n="53">
                <Indices>1 2 3 4 5 6 7 8 9 10 11 12 13 14 15 16 17 18 19 20 21 22 23 24 25 26 27 28 29 30 31 32 33 34 35 36 37 38 39 40 41 42 43 44 45 46 47 48 49 50 51 52 53</Indices>
                <REAL-Entries>1.1134530431154754 -0.5068054072733502 -0.18343936897060836 -0.06518533097854062 0.0 0.0 0.0 0.0 0.0 1.0 0.0 0.0 0.0 1.0 0.0 0.0 0.0 0.0 0.0 0.0 0.0 0.0 0.0 0.0 0.0 0.0 0.0 0.0 0.0 0.0 0.0 0.0 1.0 0.0 0.0 0.0 0.0 1.0 0.0 0.0 0.0 0.0 0.0 0.0 0.0 0.0 0.0 0.0 0.0 0.0 0.0 1.0 0.32</REAL-Entries>
              </REAL-SparseArray>
            </VectorInstance>
            <VectorInstance id="0_1767024">
              <REAL-SparseArray n="53">
                <Indices>1 2 3 4 5 6 7 8 9 10 11 12 13 14 15 16 17 18 19 20 21 22 23 24 25 26 27 28 29 30 31 32 33 34 35 36 37 38 39 40 41 42 43 44 45 46 47 48 49 50 51 52 53</Indices>
                <REAL-Entries>-0.6911710137977751 -0.33774963898217014 -0.18343936897060836 0.7652010509137019 1.0 0.0 0.0 0.0 0.0 0.0 0.0 0.0 0.0 0.0 0.0 1.0 0.0 0.0 0.0 0.0 0.0 0.0 0.0 0.0 0.0 0.0 0.0 0.0 0.0 0.0 0.0 0.0 1.0 0.0 0.0 0.0 0.0 0.0 0.0 1.0 0.0 0.0 0.0 0.0 0.0 0.0 0.0 0.0 0.0 0.0 0.0 1.0 0.83</REAL-Entries>
              </REAL-SparseArray>
            </VectorInstance>
            <VectorInstance id="1_1770057">
              <REAL-SparseArray n="53">
                <Indices>1 2 3 4 5 6 7 8 9 10 11 12 13 14 15 16 17 18 19 20 21 22 23 24 25 26 27 28 29 30 31 32 33 34 35 36 37 38 39 40 41 42 43 44 45 46 47 48 49 50 51 52 53</Indices>
                <REAL-Entries>-0.40243116469165496 -1.151843874246034 -0.18343936897060836 -0.06518533097854062 1.0 0.0 0.0 0.0 0.0 0.0 0.0 0.0 0.0 0.0 0.0 1.0 0.0 0.0 0.0 0.0 0.0 0.0 0.0 0.0 0.0 0.0 0.0 0.0 0.0 0.0 0.0 0.0 1.0 0.0 0.0 0.0 0.0 0.0 0.0 1.0 0.0 0.0 0.0 0.0 0.0 0.0 0.0 0.0 0.0 0.0 0.0 1.0 0.69</REAL-Entries>
              </REAL-SparseArray>
            </VectorInstance>
            <VectorInstance id="1_1777740">
              <REAL-SparseArray n="53">
                <Indices>1 2 3 4 5 6 7 8 9 10 11 12 13 14 15 16 17 18 19 20 21 22 23 24 25 26 27 28 29 30 31 32 33 34 35 36 37 38 39 40 41 42 43 44 45 46 47 48 49 50 51 52 53</Indices>
                <REAL-Entries>0.4637883826267051 -0.707759899643871 -0.18343936897060836 0.35000785996758044 1.0 0.0 0.0 0.0 0.0 0.0 0.0 0.0 0.0 0.0 0.0 1.0 0.0 0.0 0.0 0.0 0.0 0.0 0.0 0.0 0.0 0.0 0.0 0.0 0.0 0.0 0.0 0.0 1.0 0.0 0.0 0.0 0.0 0.0 0.0 0.0 0.0 1.0 0.0 0.0 0.0 0.0 0.0 0.0 0.0 0.0 0.0 1.0 0.32</REAL-Entries>
              </REAL-SparseArray>
            </VectorInstance>
            <VectorInstance id="1_1782051">
              <REAL-SparseArray n="53">
                <Indices>1 2 3 4 5 6 7 8 9 10 11 12 13 14 15 16 17 18 19 20 21 22 23 24 25 26 27 28 29 30 31 32 33 34 35 36 37 38 39 40 41 42 43 44 45 46 47 48 49 50 51 52 53</Indices>
                <REAL-Entries>1.0412680808389454 -0.10190869080249643 -0.18343936897060836 0.7652010509137019 0.0 0.0 0.0 0.0 1.0 0.0 0.0 0.0 0.0 0.0 0.0 0.0 0.0 0.0 0.0 0.0 0.0 0.0 1.0 0.0 0.0 0.0 0.0 0.0 0.0 0.0 1.0 0.0 0.0 0.0 0.0 0.0 0.0 0.0 0.0 1.0 0.0 0.0 0.0 0.0 0.0 0.0 0.0 0.0 0.0 0.0 1.0 0.0 0.32</REAL-Entries>
              </REAL-SparseArray>
            </VectorInstance>
            <VectorInstance id="1_1787841">
              <REAL-SparseArray n="53">
                <Indices>1 2 3 4 5 6 7 8 9 10 11 12 13 14 15 16 17 18 19 20 21 22 23 24 25 26 27 28 29 30 31 32 33 34 35 36 37 38 39 40 41 42 43 44 45 46 47 48 49 50 51 52 53</Indices>
                <REAL-Entries>-0.18587627786206484 -0.7482358514768415 -0.18343936897060836 1.595587432805944 1.0 0.0 0.0 0.0 0.0 0.0 0.0 0.0 0.0 0.0 0.0 0.0 0.0 0.0 0.0 1.0 0.0 0.0 0.0 0.0 0.0 0.0 0.0 0.0 0.0 0.0 0.0 0.0 1.0 0.0 0.0 0.0 0.0 0.0 0.0 0.0 0.0 0.0 0.0 1.0 0.0 0.0 0.0 0.0 0.0 0.0 0.0 1.0 0.69</REAL-Entries>
              </REAL-SparseArray>
            </VectorInstance>
            <VectorInstance id="0_1796280">
              <REAL-SparseArray n="53">
                <Indices>1 2 3 4 5 6 7 8 9 10 11 12 13 14 15 16 17 18 19 20 21 22 23 24 25 26 27 28 29 30 31 32 33 34 35 36 37 38 39 40 41 42 43 44 45 46 47 48 49 50 51 52 53</Indices>
                <REAL-Entries>0.7525282317328252 -0.9721168095343193 -0.18343936897060836 -0.06518533097854062 1.0 0.0 0.0 0.0 0.0 0.0 0.0 0.0 0.0 0.0 0.0 1.0 0.0 0.0 0.0 0.0 0.0 0.0 0.0 0.0 0.0 0.0 0.0 0.0 0.0 0.0 0.0 0.0 1.0 0.0 0.0 0.0 0.0 0.0 1.0 0.0 0.0 0.0 0.0 0.0 0.0 0.0 0.0 0.0 0.0 0.0 0.0 1.0 0.32</REAL-Entries>
              </REAL-SparseArray>
            </VectorInstance>
            <VectorInstance id="1_1797150">
              <REAL-SparseArray n="53">
                <Indices>1 2 3 4 5 6 7 8 9 10 11 12 13 14 15 16 17 18 19 20 21 22 23 24 25 26 27 28 29 30 31 32 33 34 35 36 37 38 39 40 41 42 43 44 45 46 47 48 49 50 51 52 53</Indices>
                <REAL-Entries>2.1962274772634256 -0.086275290768981 -0.18343936897060836 -0.06518533097854062 1.0 0.0 0.0 0.0 0.0 0.0 0.0 0.0 0.0 0.0 0.0 0.0 1.0 0.0 0.0 0.0 0.0 0.0 0.0 0.0 0.0 0.0 0.0 0.0 0.0 0.0 0.0 0.0 1.0 0.0 0.0 0.0 0.0 0.0 0.0 0.0 0.0 0.0 0.0 0.0 1.0 0.0 0.0 0.0 0.0 0.0 0.0 1.0 0.12</REAL-Entries>
              </REAL-SparseArray>
            </VectorInstance>
            <VectorInstance id="0_1797445">
              <REAL-SparseArray n="53">
                <Indices>1 2 3 4 5 6 7 8 9 10 11 12 13 14 15 16 17 18 19 20 21 22 23 24 25 26 27 28 29 30 31 32 33 34 35 36 37 38 39 40 41 42 43 44 45 46 47 48 49 50 51 52 53</Indices>
                <REAL-Entries>0.8247131940093553 -0.12180179622067122 3.8095090117088835 -0.06518533097854062 1.0 0.0 0.0 0.0 0.0 0.0 0.0 0.0 0.0 0.0 0.0 1.0 0.0 0.0 0.0 0.0 0.0 0.0 0.0 0.0 0.0 0.0 0.0 0.0 0.0 1.0 0.0 0.0 0.0 0.0 0.0 0.0 0.0 0.0 0.0 0.0 1.0 0.0 0.0 0.0 0.0 0.0 0.0 0.0 0.0 0.0 0.0 1.0 0.32</REAL-Entries>
              </REAL-SparseArray>
            </VectorInstance>
            <VectorInstance id="0_1807406">
              <REAL-SparseArray n="53">
                <Indices>1 2 3 4 5 6 7 8 9 10 11 12 13 14 15 16 17 18 19 20 21 22 23 24 25 26 27 28 29 30 31 32 33 34 35 36 37 38 39 40 41 42 43 44 45 46 47 48 49 50 51 52 53</Indices>
                <REAL-Entries>1.185638005392005 -0.45315734005520525 -0.18343936897060836 -1.22772626562768 1.0 0.0 0.0 0.0 0.0 0.0 0.0 0.0 0.0 0.0 0.0 0.0 0.0 0.0 0.0 0.0 0.0 0.0 0.0 0.0 0.0 0.0 1.0 0.0 0.0 0.0 0.0 0.0 1.0 0.0 0.0 0.0 0.0 0.0 1.0 0.0 0.0 0.0 0.0 0.0 0.0 0.0 0.0 0.0 0.0 0.0 0.0 1.0 0.32</REAL-Entries>
              </REAL-SparseArray>
            </VectorInstance>
            <VectorInstance id="0_1827120">
              <REAL-SparseArray n="53">
                <Indices>1 2 3 4 5 6 7 8 9 10 11 12 13 14 15 16 17 18 19 20 21 22 23 24 25 26 27 28 29 30 31 32 33 34 35 36 37 38 39 40 41 42 43 44 45 46 47 48 49 50 51 52 53</Indices>
                <REAL-Entries>-0.3302462024151249 -0.5547364685779537 -0.18343936897060836 0.7652010509137019 0.0 0.0 1.0 0.0 0.0 0.0 0.0 0.0 0.0 0.0 0.0 0.0 1.0 0.0 0.0 0.0 0.0 0.0 0.0 0.0 0.0 0.0 0.0 0.0 0.0 1.0 0.0 0.0 0.0 0.0 0.0 0.0 0.0 0.0 0.0 0.0 0.0 0.0 1.0 0.0 0.0 0.0 0.0 0.0 0.0 0.0 1.0 0.0 0.69</REAL-Entries>
              </REAL-SparseArray>
            </VectorInstance>
            <VectorInstance id="0_1834675">
              <REAL-SparseArray n="53">
                <Indices>1 2 3 4 5 6 7 8 9 10 11 12 13 14 15 16 17 18 19 20 21 22 23 24 25 26 27 28 29 30 31 32 33 34 35 36 37 38 39 40 41 42 43 44 45 46 47 48 49 50 51 52 53</Indices>
                <REAL-Entries>0.17504853352058491 0.29612577467909396 -0.18343936897060836 1.595587432805944 1.0 0.0 0.0 0.0 0.0 0.0 0.0 0.0 0.0 0.0 0.0 0.0 1.0 0.0 0.0 0.0 0.0 0.0 0.0 0.0 0.0 0.0 0.0 0.0 0.0 0.0 0.0 0.0 0.0 0.0 1.0 0.0 1.0 0.0 0.0 0.0 0.0 0.0 0.0 0.0 0.0 0.0 0.0 0.0 0.0 0.0 0.0 1.0 0.32</REAL-Entries>
              </REAL-SparseArray>
            </VectorInstance>
            <VectorInstance id="1_1839135">
              <REAL-SparseArray n="53">
                <Indices>1 2 3 4 5 6 7 8 9 10 11 12 13 14 15 16 17 18 19 20 21 22 23 24 25 26 27 28 29 30 31 32 33 34 35 36 37 38 39 40 41 42 43 44 45 46 47 48 49 50 51 52 53</Indices>
                <REAL-Entries>0.9690831185624154 -0.7490451329950788 -0.18343936897060836 1.595587432805944 1.0 0.0 0.0 0.0 0.0 0.0 0.0 0.0 0.0 0.0 0.0 1.0 0.0 0.0 0.0 0.0 0.0 0.0 0.0 0.0 0.0 0.0 0.0 0.0 0.0 0.0 0.0 0.0 1.0 0.0 0.0 0.0 0.0 0.0 0.0 1.0 0.0 0.0 0.0 0.0 0.0 0.0 0.0 0.0 0.0 0.0 0.0 1.0 0.32</REAL-Entries>
              </REAL-SparseArray>
            </VectorInstance>
            <VectorInstance id="1_1860764">
              <REAL-SparseArray n="53">
                <Indices>1 2 3 4 5 6 7 8 9 10 11 12 13 14 15 16 17 18 19 20 21 22 23 24 25 26 27 28 29 30 31 32 33 34 35 36 37 38 39 40 41 42 43 44 45 46 47 48 49 50 51 52 53</Indices>
                <REAL-Entries>0.319418458073645 -0.5177310984248542 -0.18343936897060836 0.7652010509137019 0.0 1.0 0.0 0.0 0.0 0.0 0.0 0.0 0.0 0.0 0.0 1.0 0.0 0.0 0.0 0.0 0.0 0.0 0.0 0.0 0.0 0.0 0.0 0.0 0.0 0.0 0.0 0.0 1.0 0.0 0.0 0.0 0.0 0.0 1.0 0.0 0.0 0.0 0.0 0.0 0.0 0.0 0.0 0.0 0.0 0.0 0.0 1.0 0.32</REAL-Entries>
              </REAL-SparseArray>
            </VectorInstance>
            <VectorInstance id="0_1872825">
              <REAL-SparseArray n="53">
                <Indices>1 2 3 4 5 6 7 8 9 10 11 12 13 14 15 16 17 18 19 20 21 22 23 24 25 26 27 28 29 30 31 32 33 34 35 36 37 38 39 40 41 42 43 44 45 46 47 48 49 50 51 52 53</Indices>
                <REAL-Entries>-0.2580612401385949 -0.687068451055842 -0.18343936897060836 -0.06518533097854062 1.0 0.0 0.0 0.0 0.0 0.0 0.0 0.0 0.0 0.0 0.0 0.0 0.0 0.0 0.0 0.0 0.0 1.0 0.0 0.0 0.0 0.0 0.0 0.0 0.0 0.0 0.0 0.0 1.0 0.0 0.0 0.0 0.0 0.0 0.0 0.0 1.0 0.0 0.0 0.0 0.0 0.0 0.0 0.0 0.0 0.0 0.0 1.0 0.69</REAL-Entries>
              </REAL-SparseArray>
            </VectorInstance>
            <VectorInstance id="0_1906994">
              <REAL-SparseArray n="53">
                <Indices>1 2 3 4 5 6 7 8 9 10 11 12 13 14 15 16 17 18 19 20 21 22 23 24 25 26 27 28 29 30 31 32 33 34 35 36 37 38 39 40 41 42 43 44 45 46 47 48 49 50 51 52 53</Indices>
                <REAL-Entries>0.39160342035017504 -0.6349139371783638 -0.18343936897060836 -0.06518533097854062 1.0 0.0 0.0 0.0 0.0 0.0 0.0 0.0 0.0 0.0 0.0 1.0 0.0 0.0 0.0 0.0 0.0 0.0 0.0 0.0 0.0 0.0 0.0 0.0 0.0 0.0 0.0 0.0 1.0 0.0 0.0 0.0 0.0 0.0 1.0 0.0 0.0 0.0 0.0 0.0 0.0 0.0 0.0 0.0 0.0 0.0 0.0 1.0 0.32</REAL-Entries>
              </REAL-SparseArray>
            </VectorInstance>
            <VectorInstance id="1_1965508">
              <REAL-SparseArray n="53">
                <Indices>1 2 3 4 5 6 7 8 9 10 11 12 13 14 15 16 17 18 19 20 21 22 23 24 25 26 27 28 29 30 31 32 33 34 35 36 37 38 39 40 41 42 43 44 45 46 47 48 49 50 51 52 53</Indices>
                <REAL-Entries>1.4743778544981252 2.4599665718914245 -0.18343936897060836 -2.141151285709147 0.0 0.0 1.0 0.0 0.0 0.0 0.0 0.0 0.0 0.0 0.0 1.0 0.0 0.0 0.0 0.0 0.0 0.0 0.0 0.0 0.0 0.0 0.0 0.0 0.0 0.0 0.0 0.0 1.0 0.0 0.0 0.0 0.0 1.0 0.0 0.0 0.0 0.0 0.0 0.0 0.0 0.0 0.0 0.0 0.0 0.0 1.0 0.0 0.12</REAL-Entries>
              </REAL-SparseArray>
            </VectorInstance>
          </VectorDictionary>
          <SupportVectorMachine alternateTargetCategory="1" targetCategory="0">
            <SupportVectors numberOfAttributes="53" numberOfSupportVectors="85">
              <SupportVector vectorId="1_1038288"/>
              <SupportVector vectorId="1_1044221"/>
              <SupportVector vectorId="0_1047095"/>
              <SupportVector vectorId="0_1053888"/>
              <SupportVector vectorId="1_1084870"/>
              <SupportVector vectorId="0_1094029"/>
              <SupportVector vectorId="0_1099084"/>
              <SupportVector vectorId="0_1099829"/>
              <SupportVector vectorId="1_1141887"/>
              <SupportVector vectorId="1_1142177"/>
              <SupportVector vectorId="0_1145025"/>
              <SupportVector vectorId="0_1155672"/>
              <SupportVector vectorId="1_1157546"/>
              <SupportVector vectorId="0_1169595"/>
              <SupportVector vectorId="1_1172381"/>
              <SupportVector vectorId="0_1177328"/>
              <SupportVector vectorId="0_1197102"/>
              <SupportVector vectorId="1_1199127"/>
              <SupportVector vectorId="1_1210411"/>
              <SupportVector vectorId="1_1216471"/>
              <SupportVector vectorId="1_1226867"/>
              <SupportVector vectorId="0_1233450"/>
              <SupportVector vectorId="1_1254408"/>
              <SupportVector vectorId="0_1264690"/>
              <SupportVector vectorId="0_1267022"/>
              <SupportVector vectorId="0_1272722"/>
              <SupportVector vectorId="0_1273089"/>
              <SupportVector vectorId="0_1276913"/>
              <SupportVector vectorId="0_1282955"/>
              <SupportVector vectorId="0_1298943"/>
              <SupportVector vectorId="0_1312365"/>
              <SupportVector vectorId="1_1312435"/>
              <SupportVector vectorId="1_1318398"/>
              <SupportVector vectorId="0_1383516"/>
              <SupportVector vectorId="0_1400557"/>
              <SupportVector vectorId="0_1401108"/>
              <SupportVector vectorId="0_1454004"/>
              <SupportVector vectorId="0_1455874"/>
              <SupportVector vectorId="0_1457685"/>
              <SupportVector vectorId="0_1467638"/>
              <SupportVector vectorId="0_1471496"/>
              <SupportVector vectorId="1_1474221"/>
              <SupportVector vectorId="1_1488053"/>
              <SupportVector vectorId="0_1493406"/>
              <SupportVector vectorId="1_1495310"/>
              <SupportVector vectorId="0_1502038"/>
              <SupportVector vectorId="1_1505676"/>
              <SupportVector vectorId="1_1518173"/>
              <SupportVector vectorId="1_1531306"/>
              <SupportVector vectorId="1_1545759"/>
              <SupportVector vectorId="1_1545762"/>
              <SupportVector vectorId="1_1551622"/>
              <SupportVector vectorId="1_1579205"/>
              <SupportVector vectorId="0_1598679"/>
              <SupportVector vectorId="1_1611099"/>
              <SupportVector vectorId="1_1612385"/>
              <SupportVector vectorId="0_1624617"/>
              <SupportVector vectorId="0_1637260"/>
              <SupportVector vectorId="1_1670669"/>
              <SupportVector vectorId="0_1681753"/>
              <SupportVector vectorId="0_1690774"/>
              <SupportVector vectorId="0_1709319"/>
              <SupportVector vectorId="0_1711915"/>
              <SupportVector vectorId="1_1718282"/>
              <SupportVector vectorId="0_1718309"/>
              <SupportVector vectorId="0_1723024"/>
              <SupportVector vectorId="1_1731662"/>
              <SupportVector vectorId="1_1742535"/>
              <SupportVector vectorId="1_1747347"/>
              <SupportVector vectorId="0_1767024"/>
              <SupportVector vectorId="1_1770057"/>
              <SupportVector vectorId="1_1777740"/>
              <SupportVector vectorId="1_1782051"/>
              <SupportVector vectorId="1_1787841"/>
              <SupportVector vectorId="0_1796280"/>
              <SupportVector vectorId="1_1797150"/>
              <SupportVector vectorId="0_1797445"/>
              <SupportVector vectorId="0_1807406"/>
              <SupportVector vectorId="0_1827120"/>
              <SupportVector vectorId="0_1834675"/>
              <SupportVector vectorId="1_1839135"/>
              <SupportVector vectorId="1_1860764"/>
              <SupportVector vectorId="0_1872825"/>
              <SupportVector vectorId="0_1906994"/>
              <SupportVector vectorId="1_1965508"/>
            </SupportVectors>
            <Coefficients absoluteValue="-1.2439872430293333" numberOfCoefficients="85">
              <Coefficient value="1.0"/>
              <Coefficient value="1.0"/>
              <Coefficient value="-0.544594221468679"/>
              <Coefficient value="-0.48152707877815937"/>
              <Coefficient value="1.0"/>
              <Coefficient value="-0.7402467802519044"/>
              <Coefficient value="-1.0"/>
              <Coefficient value="-1.0"/>
              <Coefficient value="0.8452368526247079"/>
              <Coefficient value="1.0"/>
              <Coefficient value="-1.0"/>
              <Coefficient value="-0.41772464697219636"/>
              <Coefficient value="1.0"/>
              <Coefficient value="-0.5591810799377713"/>
              <Coefficient value="0.9750709234840387"/>
              <Coefficient value="-1.0"/>
              <Coefficient value="-0.252539512943148"/>
              <Coefficient value="1.0"/>
              <Coefficient value="1.0"/>
              <Coefficient value="1.0"/>
              <Coefficient value="1.0"/>
              <Coefficient value="-1.0"/>
              <Coefficient value="1.0"/>
              <Coefficient value="-1.0"/>
              <Coefficient value="-1.0"/>
              <Coefficient value="-0.9999999999999999"/>
              <Coefficient value="-0.6367243137839136"/>
              <Coefficient value="-1.0"/>
              <Coefficient value="-0.7349215008618696"/>
              <Coefficient value="-0.5288163265460666"/>
              <Coefficient value="-1.0"/>
              <Coefficient value="1.0"/>
              <Coefficient value="0.5146998137341667"/>
              <Coefficient value="-0.12495559227493236"/>
              <Coefficient value="-1.0"/>
              <Coefficient value="-1.0"/>
              <Coefficient value="-1.0"/>
              <Coefficient value="-0.8100127442049045"/>
              <Coefficient value="-0.7193119973004867"/>
              <Coefficient value="-1.0"/>
              <Coefficient value="-1.0"/>
              <Coefficient value="0.46563690266264735"/>
              <Coefficient value="1.0"/>
              <Coefficient value="-1.0"/>
              <Coefficient value="1.0"/>
              <Coefficient value="-0.9999999999999999"/>
              <Coefficient value="1.0"/>
              <Coefficient value="1.0"/>
              <Coefficient value="1.0"/>
              <Coefficient value="0.7586403708546463"/>
              <Coefficient value="1.0"/>
              <Coefficient value="0.7533950391261328"/>
              <Coefficient value="1.0"/>
              <Coefficient value="-1.0"/>
              <Coefficient value="0.6770277034872721"/>
              <Coefficient value="1.0"/>
              <Coefficient value="-1.0"/>
              <Coefficient value="-1.0"/>
              <Coefficient value="1.0"/>
              <Coefficient value="-0.567927943335206"/>
              <Coefficient value="-1.0"/>
              <Coefficient value="-0.9999999999999999"/>
              <Coefficient value="-0.08248119136684767"/>
              <Coefficient value="0.6376469482927558"/>
              <Coefficient value="-0.7139431065936791"/>
              <Coefficient value="-1.0"/>
              <Coefficient value="1.0"/>
              <Coefficient value="1.0"/>
              <Coefficient value="1.0"/>
              <Coefficient value="-1.0"/>
              <Coefficient value="1.0"/>
              <Coefficient value="1.0"/>
              <Coefficient value="1.0"/>
              <Coefficient value="1.0"/>
              <Coefficient value="-1.0"/>
              <Coefficient value="0.5514918802357958"/>
              <Coefficient value="-0.13650846855143997"/>
              <Coefficient value="-0.4670373732647827"/>
              <Coefficient value="-1.0"/>
              <Coefficient value="-0.21745535062453028"/>
              <Coefficient value="1.0"/>
              <Coefficient value="1.0"/>
              <Coefficient value="-0.44293720544164605"/>
              <Coefficient value="-1.0"/>
              <Coefficient value="0.9999999999999999"/>
            </Coefficients>
          </SupportVectorMachine>
        </SupportVectorMachineModel>
      </Segment>
      <Segment>
        <True/>
        <SupportVectorMachineModel algorithmName="Sequential Minimal Optimization (SMO)" functionName="classification" modelName="SVM" svmRepresentation="SupportVectors">
          <MiningSchema>
            <MiningField invalidValueTreatment="asIs" name="Age"/>
            <MiningField invalidValueTreatment="asIs" name="Income"/>
            <MiningField invalidValueTreatment="asIs" name="Deductions"/>
            <MiningField invalidValueTreatment="asIs" name="Hours"/>
            <MiningField invalidValueTreatment="asIs" name="TARGET_Adjusted" usageType="predicted"/>
            <MiningField invalidValueTreatment="asIs" name="Employment"/>
            <MiningField invalidValueTreatment="asIs" name="Education"/>
            <MiningField invalidValueTreatment="asIs" name="Marital"/>
            <MiningField invalidValueTreatment="asIs" name="Occupation"/>
            <MiningField invalidValueTreatment="asIs" name="Gender"/>
          </MiningSchema>
          <Targets>
            <Target field="TARGET_Adjusted" optype="categorical">
              <TargetValue value="0"/>
              <TargetValue value="1"/>
            </Target>
          </Targets>
          <LocalTransformations>
            <DerivedField dataType="integer" name="Private_Employment" optype="ordinal">
              <NormDiscrete field="Employment" mapMissingTo="0.0" value="Private"/>
            </DerivedField>
            <DerivedField dataType="integer" name="Consultant_Employment" optype="ordinal">
              <NormDiscrete field="Employment" mapMissingTo="0.0" value="Consultant"/>
            </DerivedField>
            <DerivedField dataType="integer" name="SelfEmp_Employment" optype="ordinal">
              <NormDiscrete field="Employment" mapMissingTo="0.0" value="SelfEmp"/>
            </DerivedField>
            <DerivedField dataType="integer" name="PSLocal_Employment" optype="ordinal">
              <NormDiscrete field="Employment" mapMissingTo="0.0" value="PSLocal"/>
            </DerivedField>
            <DerivedField dataType="integer" name="PSState_Employment" optype="ordinal">
              <NormDiscrete field="Employment" mapMissingTo="0.0" value="PSState"/>
            </DerivedField>
            <DerivedField dataType="integer" name="PSFederal_Employment" optype="ordinal">
              <NormDiscrete field="Employment" mapMissingTo="0.0" value="PSFederal"/>
            </DerivedField>
            <DerivedField dataType="integer" name="Unemployed_Employment" optype="ordinal">
              <NormDiscrete field="Employment" mapMissingTo="0.0" value="Unemployed"/>
            </DerivedField>
            <DerivedField dataType="integer" name="NA_Employment" optype="ordinal">
              <NormDiscrete field="Employment" mapMissingTo="0.0" value="NA"/>
            </DerivedField>
            <DerivedField dataType="integer" name="Volunteer_Employment" optype="ordinal">
              <NormDiscrete field="Employment" mapMissingTo="0.0" value="Volunteer"/>
            </DerivedField>
            <DerivedField dataType="integer" name="College_Education" optype="ordinal">
              <NormDiscrete field="Education" mapMissingTo="0.0" value="College"/>
            </DerivedField>
            <DerivedField dataType="integer" name="Associate_Education" optype="ordinal">
              <NormDiscrete field="Education" mapMissingTo="0.0" value="Associate"/>
            </DerivedField>
            <DerivedField dataType="integer" name="HSgrad_Education" optype="ordinal">
              <NormDiscrete field="Education" mapMissingTo="0.0" value="HSgrad"/>
            </DerivedField>
            <DerivedField dataType="integer" name="Bachelor_Education" optype="ordinal">
              <NormDiscrete field="Education" mapMissingTo="0.0" value="Bachelor"/>
            </DerivedField>
            <DerivedField dataType="integer" name="Yr12_Education" optype="ordinal">
              <NormDiscrete field="Education" mapMissingTo="0.0" value="Yr12"/>
            </DerivedField>
            <DerivedField dataType="integer" name="Vocational_Education" optype="ordinal">
              <NormDiscrete field="Education" mapMissingTo="0.0" value="Vocational"/>
            </DerivedField>
            <DerivedField dataType="integer" name="Master_Education" optype="ordinal">
              <NormDiscrete field="Education" mapMissingTo="0.0" value="Master"/>
            </DerivedField>
            <DerivedField dataType="integer" name="Yr11_Education" optype="ordinal">
              <NormDiscrete field="Education" mapMissingTo="0.0" value="Yr11"/>
            </DerivedField>
            <DerivedField dataType="integer" name="Yr10_Education" optype="ordinal">
              <NormDiscrete field="Education" mapMissingTo="0.0" value="Yr10"/>
            </DerivedField>
            <DerivedField dataType="integer" name="Doctorate_Education" optype="ordinal">
              <NormDiscrete field="Education" mapMissingTo="0.0" value="Doctorate"/>
            </DerivedField>
            <DerivedField dataType="integer" name="Yr9_Education" optype="ordinal">
              <NormDiscrete field="Education" mapMissingTo="0.0" value="Yr9"/>
            </DerivedField>
            <DerivedField dataType="integer" name="Yr5t6_Education" optype="ordinal">
              <NormDiscrete field="Education" mapMissingTo="0.0" value="Yr5t6"/>
            </DerivedField>
            <DerivedField dataType="integer" name="Professional_Education" optype="ordinal">
              <NormDiscrete field="Education" mapMissingTo="0.0" value="Professional"/>
            </DerivedField>
            <DerivedField dataType="integer" name="Yr7t8_Education" optype="ordinal">
              <NormDiscrete field="Education" mapMissingTo="0.0" value="Yr7t8"/>
            </DerivedField>
            <DerivedField dataType="integer" name="Preschool_Education" optype="ordinal">
              <NormDiscrete field="Education" mapMissingTo="0.0" value="Preschool"/>
            </DerivedField>
            <DerivedField dataType="integer" name="Yr1t4_Education" optype="ordinal">
              <NormDiscrete field="Education" mapMissingTo="0.0" value="Yr1t4"/>
            </DerivedField>
            <DerivedField dataType="integer" name="Unmarried_Marital" optype="ordinal">
              <NormDiscrete field="Marital" mapMissingTo="0.0" value="Unmarried"/>
            </DerivedField>
            <DerivedField dataType="integer" name="Absent_Marital" optype="ordinal">
              <NormDiscrete field="Marital" mapMissingTo="0.0" value="Absent"/>
            </DerivedField>
            <DerivedField dataType="integer" name="Divorced_Marital" optype="ordinal">
              <NormDiscrete field="Marital" mapMissingTo="0.0" value="Divorced"/>
            </DerivedField>
            <DerivedField dataType="integer" name="Married_Marital" optype="ordinal">
              <NormDiscrete field="Marital" mapMissingTo="0.0" value="Married"/>
            </DerivedField>
            <DerivedField dataType="integer" name="Widowed_Marital" optype="ordinal">
              <NormDiscrete field="Marital" mapMissingTo="0.0" value="Widowed"/>
            </DerivedField>
            <DerivedField dataType="integer" name="Married-spouse-absent_Marital" optype="ordinal">
              <NormDiscrete field="Marital" mapMissingTo="0.0" value="Married-spouse-absent"/>
            </DerivedField>
            <DerivedField dataType="integer" name="Service_Occupation" optype="ordinal">
              <NormDiscrete field="Occupation" mapMissingTo="0.0" value="Service"/>
            </DerivedField>
            <DerivedField dataType="integer" name="Transport_Occupation" optype="ordinal">
              <NormDiscrete field="Occupation" mapMissingTo="0.0" value="Transport"/>
            </DerivedField>
            <DerivedField dataType="integer" name="Clerical_Occupation" optype="ordinal">
              <NormDiscrete field="Occupation" mapMissingTo="0.0" value="Clerical"/>
            </DerivedField>
            <DerivedField dataType="integer" name="Repair_Occupation" optype="ordinal">
              <NormDiscrete field="Occupation" mapMissingTo="0.0" value="Repair"/>
            </DerivedField>
            <DerivedField dataType="integer" name="Executive_Occupation" optype="ordinal">
              <NormDiscrete field="Occupation" mapMissingTo="0.0" value="Executive"/>
            </DerivedField>
            <DerivedField dataType="integer" name="Machinist_Occupation" optype="ordinal">
              <NormDiscrete field="Occupation" mapMissingTo="0.0" value="Machinist"/>
            </DerivedField>
            <DerivedField dataType="integer" name="Sales_Occupation" optype="ordinal">
              <NormDiscrete field="Occupation" mapMissingTo="0.0" value="Sales"/>
            </DerivedField>
            <DerivedField dataType="integer" name="Professional_Occupation" optype="ordinal">
              <NormDiscrete field="Occupation" mapMissingTo="0.0" value="Professional"/>
            </DerivedField>
            <DerivedField dataType="integer" name="Support_Occupation" optype="ordinal">
              <NormDiscrete field="Occupation" mapMissingTo="0.0" value="Support"/>
            </DerivedField>
            <DerivedField dataType="integer" name="Cleaner_Occupation" optype="ordinal">
              <NormDiscrete field="Occupation" mapMissingTo="0.0" value="Cleaner"/>
            </DerivedField>
            <DerivedField dataType="integer" name="Farming_Occupation" optype="ordinal">
              <NormDiscrete field="Occupation" mapMissingTo="0.0" value="Farming"/>
            </DerivedField>
            <DerivedField dataType="integer" name="NA_Occupation" optype="ordinal">
              <NormDiscrete field="Occupation" mapMissingTo="0.0" value="NA"/>
            </DerivedField>
            <DerivedField dataType="integer" name="Protective_Occupation" optype="ordinal">
              <NormDiscrete field="Occupation" mapMissingTo="0.0" value="Protective"/>
            </DerivedField>
            <DerivedField dataType="integer" name="Home_Occupation" optype="ordinal">
              <NormDiscrete field="Occupation" mapMissingTo="0.0" value="Home"/>
            </DerivedField>
            <DerivedField dataType="integer" name="Military_Occupation" optype="ordinal">
              <NormDiscrete field="Occupation" mapMissingTo="0.0" value="Military"/>
            </DerivedField>
            <DerivedField dataType="integer" name="Female_Gender" optype="ordinal">
              <NormDiscrete field="Gender" mapMissingTo="0.0" value="Female"/>
            </DerivedField>
            <DerivedField dataType="integer" name="Male_Gender" optype="ordinal">
              <NormDiscrete field="Gender" mapMissingTo="0.0" value="Male"/>
            </DerivedField>
            <DerivedField dataType="string" name="Age_binned" optype="categorical">
              <Discretize field="Age">
                <DiscretizeBin binValue="0.92">
                  <Interval closure="openOpen" rightMargin="18.0"/>
                </DiscretizeBin>
                <DiscretizeBin binValue="0.83">
                  <Interval closure="closedOpen" leftMargin="18.0" rightMargin="32.0"/>
                </DiscretizeBin>
                <DiscretizeBin binValue="0.69">
                  <Interval closure="closedOpen" leftMargin="32.0" rightMargin="40.0"/>
                </DiscretizeBin>
                <DiscretizeBin binValue="0.32">
                  <Interval closure="closedOpen" leftMargin="40.0" rightMargin="57.0"/>
                </DiscretizeBin>
                <DiscretizeBin binValue="0.12">
                  <Interval closure="closedOpen" leftMargin="57.0"/>
                </DiscretizeBin>
              </Discretize>
            </DerivedField>
            <DerivedField dataType="double" displayName="Age" name="Age*" optype="continuous">
              <Extension extender="KNIME" name="summary" value="Z-Score (Gaussian) normalization on 4 column(s)"/>
              <NormContinuous field="Age">
                <LinearNorm norm="-2.982994170836628" orig="0.0"/>
                <LinearNorm norm="-2.9046900844516266" orig="1.0"/>
              </NormContinuous>
            </DerivedField>
            <DerivedField dataType="double" displayName="Income" name="Income*" optype="continuous">
              <Extension extender="KNIME" name="summary" value="Z-Score (Gaussian) normalization on 4 column(s)"/>
              <NormContinuous field="Income">
                <LinearNorm norm="-1.2299709678027562" orig="0.0"/>
                <LinearNorm norm="-1.229956383513618" orig="1.0"/>
              </NormContinuous>
            </DerivedField>
            <DerivedField dataType="double" displayName="Deductions" name="Deductions*" optype="continuous">
              <Extension extender="KNIME" name="summary" value="Z-Score (Gaussian) normalization on 4 column(s)"/>
              <NormContinuous field="Deductions">
                <LinearNorm norm="-0.1849749898971637" orig="0.0"/>
                <LinearNorm norm="-0.1818743307381343" orig="1.0"/>
              </NormContinuous>
            </DerivedField>
            <DerivedField dataType="double" displayName="Hours" name="Hours*" optype="continuous">
              <Extension extender="KNIME" name="summary" value="Z-Score (Gaussian) normalization on 4 column(s)"/>
              <NormContinuous field="Hours">
                <LinearNorm norm="-3.422959988462373" orig="0.0"/>
                <LinearNorm norm="-3.335169273190191" orig="1.0"/>
              </NormContinuous>
            </DerivedField>
            <DerivedField dataType="double" displayName="Age_binned" name="Age_binned*" optype="continuous">
              <FieldRef field="Age_binned"/>
            </DerivedField>
          </LocalTransformations>
          <PolynomialKernelType coef0="1.0" degree="1.0" gamma="1.0"/>
          <VectorDictionary numberOfVectors="80">
            <VectorFields numberOfFields="53">
              <FieldRef field="Age*"/>
              <FieldRef field="Income*"/>
              <FieldRef field="Deductions*"/>
              <FieldRef field="Hours*"/>
              <FieldRef field="Private_Employment"/>
              <FieldRef field="Consultant_Employment"/>
              <FieldRef field="SelfEmp_Employment"/>
              <FieldRef field="PSLocal_Employment"/>
              <FieldRef field="PSState_Employment"/>
              <FieldRef field="PSFederal_Employment"/>
              <FieldRef field="Unemployed_Employment"/>
              <FieldRef field="NA_Employment"/>
              <FieldRef field="Volunteer_Employment"/>
              <FieldRef field="College_Education"/>
              <FieldRef field="Associate_Education"/>
