<?xml version="1.0" encoding="UTF-8"?>
<PMML version="4.1" xmlns="http://www.dmg.org/PMML-4_1">
  <Header copyright="KNIME">
    <Application name="KNIME" version="2.8.0"/>
  </Header>
  <DataDictionary numberOfFields="10">
    <DataField dataType="integer" name="Age" optype="continuous">
      <Interval closure="closedClosed" leftMargin="17.0" rightMargin="90.0"/>
    </DataField>
    <DataField dataType="string" name="Employment" optype="categorical">
      <Value value="Private"/>
      <Value value="Consultant"/>
      <Value value="SelfEmp"/>
      <Value value="PSLocal"/>
      <Value value="PSState"/>
      <Value value="PSFederal"/>
      <Value value="Unemployed"/>
      <Value value="NA"/>
      <Value value="Volunteer"/>
    </DataField>
    <DataField dataType="string" name="Education" optype="categorical">
      <Value value="College"/>
      <Value value="Associate"/>
      <Value value="HSgrad"/>
      <Value value="Bachelor"/>
      <Value value="Yr12"/>
      <Value value="Vocational"/>
      <Value value="Master"/>
      <Value value="Yr11"/>
      <Value value="Yr10"/>
      <Value value="Doctorate"/>
      <Value value="Yr9"/>
      <Value value="Yr5t6"/>
      <Value value="Professional"/>
      <Value value="Yr7t8"/>
      <Value value="Preschool"/>
      <Value value="Yr1t4"/>
    </DataField>
    <DataField dataType="string" name="Marital" optype="categorical">
      <Value value="Unmarried"/>
      <Value value="Absent"/>
      <Value value="Divorced"/>
      <Value value="Married"/>
      <Value value="Widowed"/>
      <Value value="Married-spouse-absent"/>
    </DataField>
    <DataField dataType="string" name="Occupation" optype="categorical">
      <Value value="Service"/>
      <Value value="Transport"/>
      <Value value="Clerical"/>
      <Value value="Repair"/>
      <Value value="Executive"/>
      <Value value="Machinist"/>
      <Value value="Sales"/>
      <Value value="Professional"/>
      <Value value="Support"/>
      <Value value="Cleaner"/>
      <Value value="Farming"/>
      <Value value="NA"/>
      <Value value="Protective"/>
      <Value value="Home"/>
      <Value value="Military"/>
    </DataField>
    <DataField dataType="double" name="Income" optype="continuous">
      <Interval closure="closedClosed" leftMargin="609.72" rightMargin="481259.5"/>
    </DataField>
    <DataField dataType="string" name="Gender" optype="categorical">
      <Value value="Female"/>
      <Value value="Male"/>
    </DataField>
    <DataField dataType="double" name="Deductions" optype="continuous">
      <Interval closure="closedClosed" leftMargin="0.0" rightMargin="2904.0"/>
    </DataField>
    <DataField dataType="integer" name="Hours" optype="continuous">
      <Interval closure="closedClosed" leftMargin="1.0" rightMargin="99.0"/>
    </DataField>
    <DataField dataType="string" name="TARGET_Adjusted" optype="categorical">
      <Value value="0"/>
      <Value value="1"/>
    </DataField>
  </DataDictionary>
  <TransformationDictionary/>
  <SupportVectorMachineModel modelName="SVM" functionName="classification" algorithmName="Sequential Minimal Optimization (SMO)" svmRepresentation="SupportVectors">
    <MiningSchema>
      <MiningField name="Age" invalidValueTreatment="asIs"/>
      <MiningField name="Income" invalidValueTreatment="asIs"/>
      <MiningField name="Deductions" invalidValueTreatment="asIs"/>
      <MiningField name="Hours" invalidValueTreatment="asIs"/>
      <MiningField name="TARGET_Adjusted" invalidValueTreatment="asIs" usageType="predicted"/>
      <MiningField name="Employment" invalidValueTreatment="asIs"/>
      <MiningField name="Education" invalidValueTreatment="asIs"/>
      <MiningField name="Marital" invalidValueTreatment="asIs"/>
      <MiningField name="Occupation" invalidValueTreatment="asIs"/>
      <MiningField name="Gender" invalidValueTreatment="asIs"/>
    </MiningSchema>
    <Targets>
      <Target field="TARGET_Adjusted" optype="categorical">
        <TargetValue value="0"/>
        <TargetValue value="1"/>
      </Target>
    </Targets>
    <LocalTransformations>
      <DerivedField dataType="integer" name="Private_Employment" optype="ordinal">
        <NormDiscrete field="Employment" mapMissingTo="0.0" value="Private"/>
      </DerivedField>
      <DerivedField dataType="integer" name="Consultant_Employment" optype="ordinal">
        <NormDiscrete field="Employment" mapMissingTo="0.0" value="Consultant"/>
      </DerivedField>
      <DerivedField dataType="integer" name="SelfEmp_Employment" optype="ordinal">
        <NormDiscrete field="Employment" mapMissingTo="0.0" value="SelfEmp"/>
      </DerivedField>
      <DerivedField dataType="integer" name="PSLocal_Employment" optype="ordinal">
        <NormDiscrete field="Employment" mapMissingTo="0.0" value="PSLocal"/>
      </DerivedField>
      <DerivedField dataType="integer" name="PSState_Employment" optype="ordinal">
        <NormDiscrete field="Employment" mapMissingTo="0.0" value="PSState"/>
      </DerivedField>
      <DerivedField dataType="integer" name="PSFederal_Employment" optype="ordinal">
        <NormDiscrete field="Employment" mapMissingTo="0.0" value="PSFederal"/>
      </DerivedField>
      <DerivedField dataType="integer" name="Unemployed_Employment" optype="ordinal">
        <NormDiscrete field="Employment" mapMissingTo="0.0" value="Unemployed"/>
      </DerivedField>
      <DerivedField dataType="integer" name="NA_Employment" optype="ordinal">
        <NormDiscrete field="Employment" mapMissingTo="0.0" value="NA"/>
      </DerivedField>
      <DerivedField dataType="integer" name="Volunteer_Employment" optype="ordinal">
        <NormDiscrete field="Employment" mapMissingTo="0.0" value="Volunteer"/>
      </DerivedField>
      <DerivedField dataType="integer" name="College_Education" optype="ordinal">
        <NormDiscrete field="Education" mapMissingTo="0.0" value="College"/>
      </DerivedField>
      <DerivedField dataType="integer" name="Associate_Education" optype="ordinal">
        <NormDiscrete field="Education" mapMissingTo="0.0" value="Associate"/>
      </DerivedField>
      <DerivedField dataType="integer" name="HSgrad_Education" optype="ordinal">
        <NormDiscrete field="Education" mapMissingTo="0.0" value="HSgrad"/>
      </DerivedField>
      <DerivedField dataType="integer" name="Bachelor_Education" optype="ordinal">
        <NormDiscrete field="Education" mapMissingTo="0.0" value="Bachelor"/>
      </DerivedField>
      <DerivedField dataType="integer" name="Yr12_Education" optype="ordinal">
        <NormDiscrete field="Education" mapMissingTo="0.0" value="Yr12"/>
      </DerivedField>
      <DerivedField dataType="integer" name="Vocational_Education" optype="ordinal">
        <NormDiscrete field="Education" mapMissingTo="0.0" value="Vocational"/>
      </DerivedField>
      <DerivedField dataType="integer" name="Master_Education" optype="ordinal">
        <NormDiscrete field="Education" mapMissingTo="0.0" value="Master"/>
      </DerivedField>
      <DerivedField dataType="integer" name="Yr11_Education" optype="ordinal">
        <NormDiscrete field="Education" mapMissingTo="0.0" value="Yr11"/>
      </DerivedField>
      <DerivedField dataType="integer" name="Yr10_Education" optype="ordinal">
        <NormDiscrete field="Education" mapMissingTo="0.0" value="Yr10"/>
      </DerivedField>
      <DerivedField dataType="integer" name="Doctorate_Education" optype="ordinal">
        <NormDiscrete field="Education" mapMissingTo="0.0" value="Doctorate"/>
      </DerivedField>
      <DerivedField dataType="integer" name="Yr9_Education" optype="ordinal">
        <NormDiscrete field="Education" mapMissingTo="0.0" value="Yr9"/>
      </DerivedField>
      <DerivedField dataType="integer" name="Yr5t6_Education" optype="ordinal">
        <NormDiscrete field="Education" mapMissingTo="0.0" value="Yr5t6"/>
      </DerivedField>
      <DerivedField dataType="integer" name="Professional_Education" optype="ordinal">
        <NormDiscrete field="Education" mapMissingTo="0.0" value="Professional"/>
      </DerivedField>
      <DerivedField dataType="integer" name="Yr7t8_Education" optype="ordinal">
        <NormDiscrete field="Education" mapMissingTo="0.0" value="Yr7t8"/>
      </DerivedField>
      <DerivedField dataType="integer" name="Preschool_Education" optype="ordinal">
        <NormDiscrete field="Education" mapMissingTo="0.0" value="Preschool"/>
      </DerivedField>
      <DerivedField dataType="integer" name="Yr1t4_Education" optype="ordinal">
        <NormDiscrete field="Education" mapMissingTo="0.0" value="Yr1t4"/>
      </DerivedField>
      <DerivedField dataType="integer" name="Unmarried_Marital" optype="ordinal">
        <NormDiscrete field="Marital" mapMissingTo="0.0" value="Unmarried"/>
      </DerivedField>
      <DerivedField dataType="integer" name="Absent_Marital" optype="ordinal">
        <NormDiscrete field="Marital" mapMissingTo="0.0" value="Absent"/>
      </DerivedField>
      <DerivedField dataType="integer" name="Divorced_Marital" optype="ordinal">
        <NormDiscrete field="Marital" mapMissingTo="0.0" value="Divorced"/>
      </DerivedField>
      <DerivedField dataType="integer" name="Married_Marital" optype="ordinal">
        <NormDiscrete field="Marital" mapMissingTo="0.0" value="Married"/>
      </DerivedField>
      <DerivedField dataType="integer" name="Widowed_Marital" optype="ordinal">
        <NormDiscrete field="Marital" mapMissingTo="0.0" value="Widowed"/>
      </DerivedField>
      <DerivedField dataType="integer" name="Married-spouse-absent_Marital" optype="ordinal">
        <NormDiscrete field="Marital" mapMissingTo="0.0" value="Married-spouse-absent"/>
      </DerivedField>
      <DerivedField dataType="integer" name="Service_Occupation" optype="ordinal">
        <NormDiscrete field="Occupation" mapMissingTo="0.0" value="Service"/>
      </DerivedField>
      <DerivedField dataType="integer" name="Transport_Occupation" optype="ordinal">
        <NormDiscrete field="Occupation" mapMissingTo="0.0" value="Transport"/>
      </DerivedField>
      <DerivedField dataType="integer" name="Clerical_Occupation" optype="ordinal">
        <NormDiscrete field="Occupation" mapMissingTo="0.0" value="Clerical"/>
      </DerivedField>
      <DerivedField dataType="integer" name="Repair_Occupation" optype="ordinal">
        <NormDiscrete field="Occupation" mapMissingTo="0.0" value="Repair"/>
      </DerivedField>
      <DerivedField dataType="integer" name="Executive_Occupation" optype="ordinal">
        <NormDiscrete field="Occupation" mapMissingTo="0.0" value="Executive"/>
      </DerivedField>
      <DerivedField dataType="integer" name="Machinist_Occupation" optype="ordinal">
        <NormDiscrete field="Occupation" mapMissingTo="0.0" value="Machinist"/>
      </DerivedField>
      <DerivedField dataType="integer" name="Sales_Occupation" optype="ordinal">
        <NormDiscrete field="Occupation" mapMissingTo="0.0" value="Sales"/>
      </DerivedField>
      <DerivedField dataType="integer" name="Professional_Occupation" optype="ordinal">
        <NormDiscrete field="Occupation" mapMissingTo="0.0" value="Professional"/>
      </DerivedField>
      <DerivedField dataType="integer" name="Support_Occupation" optype="ordinal">
        <NormDiscrete field="Occupation" mapMissingTo="0.0" value="Support"/>
      </DerivedField>
      <DerivedField dataType="integer" name="Cleaner_Occupation" optype="ordinal">
        <NormDiscrete field="Occupation" mapMissingTo="0.0" value="Cleaner"/>
      </DerivedField>
      <DerivedField dataType="integer" name="Farming_Occupation" optype="ordinal">
        <NormDiscrete field="Occupation" mapMissingTo="0.0" value="Farming"/>
      </DerivedField>
      <DerivedField dataType="integer" name="NA_Occupation" optype="ordinal">
        <NormDiscrete field="Occupation" mapMissingTo="0.0" value="NA"/>
      </DerivedField>
      <DerivedField dataType="integer" name="Protective_Occupation" optype="ordinal">
        <NormDiscrete field="Occupation" mapMissingTo="0.0" value="Protective"/>
      </DerivedField>
      <DerivedField dataType="integer" name="Home_Occupation" optype="ordinal">
        <NormDiscrete field="Occupation" mapMissingTo="0.0" value="Home"/>
      </DerivedField>
      <DerivedField dataType="integer" name="Military_Occupation" optype="ordinal">
        <NormDiscrete field="Occupation" mapMissingTo="0.0" value="Military"/>
      </DerivedField>
      <DerivedField dataType="integer" name="Female_Gender" optype="ordinal">
        <NormDiscrete field="Gender" mapMissingTo="0.0" value="Female"/>
      </DerivedField>
      <DerivedField dataType="integer" name="Male_Gender" optype="ordinal">
        <NormDiscrete field="Gender" mapMissingTo="0.0" value="Male"/>
      </DerivedField>
      <DerivedField dataType="string" name="Age_binned" optype="categorical">
        <Discretize field="Age">
          <DiscretizeBin binValue="0.92">
            <Interval closure="openOpen" rightMargin="18.0"/>
          </DiscretizeBin>
          <DiscretizeBin binValue="0.83">
            <Interval closure="closedOpen" leftMargin="18.0" rightMargin="32.0"/>
          </DiscretizeBin>
          <DiscretizeBin binValue="0.69">
            <Interval closure="closedOpen" leftMargin="32.0" rightMargin="40.0"/>
          </DiscretizeBin>
          <DiscretizeBin binValue="0.32">
            <Interval closure="closedOpen" leftMargin="40.0" rightMargin="57.0"/>
          </DiscretizeBin>
          <DiscretizeBin binValue="0.12">
            <Interval closure="closedOpen" leftMargin="57.0"/>
          </DiscretizeBin>
        </Discretize>
      </DerivedField>
      <DerivedField dataType="double" displayName="Age" name="Age*" optype="continuous">
        <Extension extender="KNIME" name="summary" value="Z-Score (Gaussian) normalization on 4 column(s)"/>
        <NormContinuous field="Age">
          <LinearNorm norm="-2.8430412477523532" orig="0.0"/>
          <LinearNorm norm="-2.769429284421807" orig="1.0"/>
        </NormContinuous>
      </DerivedField>
      <DerivedField dataType="double" displayName="Income" name="Income*" optype="continuous">
        <Extension extender="KNIME" name="summary" value="Z-Score (Gaussian) normalization on 4 column(s)"/>
        <NormContinuous field="Income">
          <LinearNorm norm="-1.2164099347279616" orig="0.0"/>
          <LinearNorm norm="-1.2163955713786447" orig="1.0"/>
        </NormContinuous>
      </DerivedField>
      <DerivedField dataType="double" displayName="Deductions" name="Deductions*" optype="continuous">
        <Extension extender="KNIME" name="summary" value="Z-Score (Gaussian) normalization on 4 column(s)"/>
        <NormContinuous field="Deductions">
          <LinearNorm norm="-0.1983193433770224" orig="0.0"/>
          <LinearNorm norm="-0.19538425035943" orig="1.0"/>
        </NormContinuous>
      </DerivedField>
      <DerivedField dataType="double" displayName="Hours" name="Hours*" optype="continuous">
        <Extension extender="KNIME" name="summary" value="Z-Score (Gaussian) normalization on 4 column(s)"/>
        <NormContinuous field="Hours">
          <LinearNorm norm="-3.297304369766391" orig="0.0"/>
          <LinearNorm norm="-3.2150250058375485" orig="1.0"/>
        </NormContinuous>
      </DerivedField>
      <DerivedField dataType="double" displayName="Age_binned" name="Age_binned*" optype="continuous">
        <FieldRef field="Age_binned"/>
      </DerivedField>
    </LocalTransformations>
    <PolynomialKernelType coef0="1.0" degree="1.0" gamma="1.0"/>
    <VectorDictionary numberOfVectors="741">
      <VectorFields numberOfFields="53">
        <FieldRef field="Age*"/>
        <FieldRef field="Income*"/>
        <FieldRef field="Deductions*"/>
        <FieldRef field="Hours*"/>
        <FieldRef field="Private_Employment"/>
        <FieldRef field="Consultant_Employment"/>
        <FieldRef field="SelfEmp_Employment"/>
        <FieldRef field="PSLocal_Employment"/>
        <FieldRef field="PSState_Employment"/>
        <FieldRef field="PSFederal_Employment"/>
        <FieldRef field="Unemployed_Employment"/>
        <FieldRef field="NA_Employment"/>
        <FieldRef field="Volunteer_Employment"/>
        <FieldRef field="College_Education"/>
        <FieldRef field="Associate_Education"/>
        <FieldRef field="HSgrad_Education"/>
        <FieldRef field="Bachelor_Education"/>
        <FieldRef field="Yr12_Education"/>
        <FieldRef field="Vocational_Education"/>
        <FieldRef field="Master_Education"/>
        <FieldRef field="Yr11_Education"/>
        <FieldRef field="Yr10_Education"/>
        <FieldRef field="Doctorate_Education"/>
        <FieldRef field="Yr9_Education"/>
        <FieldRef field="Yr5t6_Education"/>
        <FieldRef field="Professional_Education"/>
        <FieldRef field="Yr7t8_Education"/>
        <FieldRef field="Preschool_Education"/>
        <FieldRef field="Yr1t4_Education"/>
        <FieldRef field="Unmarried_Marital"/>
        <FieldRef field="Absent_Marital"/>
        <FieldRef field="Divorced_Marital"/>
        <FieldRef field="Married_Marital"/>
        <FieldRef field="Widowed_Marital"/>
        <FieldRef field="Married-spouse-absent_Marital"/>
        <FieldRef field="Service_Occupation"/>
        <FieldRef field="Transport_Occupation"/>
        <FieldRef field="Clerical_Occupation"/>
        <FieldRef field="Repair_Occupation"/>
        <FieldRef field="Executive_Occupation"/>
        <FieldRef field="Machinist_Occupation"/>
        <FieldRef field="Sales_Occupation"/>
        <FieldRef field="Professional_Occupation"/>
        <FieldRef field="Support_Occupation"/>
        <FieldRef field="Cleaner_Occupation"/>
        <FieldRef field="Farming_Occupation"/>
        <FieldRef field="NA_Occupation"/>
        <FieldRef field="Protective_Occupation"/>
        <FieldRef field="Home_Occupation"/>
        <FieldRef field="Military_Occupation"/>
        <FieldRef field="Female_Gender"/>
        <FieldRef field="Male_Gender"/>
        <FieldRef field="Age_binned*"/>
      </VectorFields>
      <VectorInstance id="1_1038288">
        <REAL-SparseArray n="53">
          <Indices>1 2 3 4 5 6 7 8 9 10 11 12 13 14 15 16 17 18 19 20 21 22 23 24 25 26 27 28 29 30 31 32 33 34 35 36 37 38 39 40 41 42 43 44 45 46 47 48 49 50 51 52 53</Indices>
          <REAL-Entries>0.4694971021222236 -0.8179157566856157 -0.1983193433770224 1.228060646319936 1.0 0.0 0.0 0.0 0.0 0.0 0.0 0.0 0.0 0.0 0.0 0.0 1.0 0.0 0.0 0.0 0.0 0.0 0.0 0.0 0.0 0.0 0.0 0.0 0.0 0.0 0.0 0.0 1.0 0.0 0.0 0.0 0.0 0.0 1.0 0.0 0.0 0.0 0.0 0.0 0.0 0.0 0.0 0.0 0.0 0.0 0.0 1.0 0.32</REAL-Entries>
        </REAL-SparseArray>
      </VectorInstance>
      <VectorInstance id="1_1044221">
        <REAL-SparseArray n="53">
          <Indices>1 2 3 4 5 6 7 8 9 10 11 12 13 14 15 16 17 18 19 20 21 22 23 24 25 26 27 28 29 30 31 32 33 34 35 36 37 38 39 40 41 42 43 44 45 46 47 48 49 50 51 52 53</Indices>
          <REAL-Entries>1.573676552080416 -1.1077048035280972 -0.1983193433770224 -0.006129812612698959 1.0 0.0 0.0 0.0 0.0 0.0 0.0 0.0 0.0 1.0 0.0 0.0 0.0 0.0 0.0 0.0 0.0 0.0 0.0 0.0 0.0 0.0 0.0 0.0 0.0 0.0 0.0 0.0 1.0 0.0 0.0 0.0 0.0 0.0 0.0 1.0 0.0 0.0 0.0 0.0 0.0 0.0 0.0 0.0 0.0 0.0 0.0 1.0 0.12</REAL-Entries>
        </REAL-SparseArray>
      </VectorInstance>
      <VectorInstance id="0_1099084">
        <REAL-SparseArray n="53">
          <Indices>1 2 3 4 5 6 7 8 9 10 11 12 13 14 15 16 17 18 19 20 21 22 23 24 25 26 27 28 29 30 31 32 33 34 35 36 37 38 39 40 41 42 43 44 45 46 47 48 49 50 51 52 53</Indices>
          <REAL-Entries>1.9417363687331468 -0.7429452494921402 -0.1983193433770224 -0.006129812612698959 0.0 0.0 1.0 0.0 0.0 0.0 0.0 0.0 0.0 1.0 0.0 0.0 0.0 0.0 0.0 0.0 0.0 0.0 0.0 0.0 0.0 0.0 0.0 0.0 0.0 0.0 0.0 0.0 1.0 0.0 0.0 0.0 0.0 0.0 0.0 0.0 0.0 1.0 0.0 0.0 0.0 0.0 0.0 0.0 0.0 0.0 0.0 1.0 0.12</REAL-Entries>
        </REAL-SparseArray>
      </VectorInstance>
      <VectorInstance id="0_1099829">
        <REAL-SparseArray n="53">
          <Indices>1 2 3 4 5 6 7 8 9 10 11 12 13 14 15 16 17 18 19 20 21 22 23 24 25 26 27 28 29 30 31 32 33 34 35 36 37 38 39 40 41 42 43 44 45 46 47 48 49 50 51 52 53</Indices>
          <REAL-Entries>-0.7819062744970608 -0.7634621449232397 -0.1983193433770224 1.228060646319936 1.0 0.0 0.0 0.0 0.0 0.0 0.0 0.0 0.0 1.0 0.0 0.0 0.0 0.0 0.0 0.0 0.0 0.0 0.0 0.0 0.0 0.0 0.0 0.0 0.0 0.0 0.0 0.0 1.0 0.0 0.0 0.0 0.0 0.0 0.0 1.0 0.0 0.0 0.0 0.0 0.0 0.0 0.0 0.0 0.0 0.0 0.0 1.0 0.83</REAL-Entries>
        </REAL-SparseArray>
      </VectorInstance>
      <VectorInstance id="0_1113899">
        <REAL-SparseArray n="53">
          <Indices>1 2 3 4 5 6 7 8 9 10 11 12 13 14 15 16 17 18 19 20 21 22 23 24 25 26 27 28 29 30 31 32 33 34 35 36 37 38 39 40 41 42 43 44 45 46 47 48 49 50 51 52 53</Indices>
          <REAL-Entries>0.1750492488000388 -0.20230432856960356 -0.1983193433770224 -0.006129812612698959 0.0 0.0 0.0 0.0 1.0 0.0 0.0 0.0 0.0 0.0 0.0 0.0 1.0 0.0 0.0 0.0 0.0 0.0 0.0 0.0 0.0 0.0 0.0 0.0 0.0 0.0 0.0 1.0 0.0 0.0 0.0 0.0 0.0 0.0 0.0 1.0 0.0 0.0 0.0 0.0 0.0 0.0 0.0 0.0 0.0 0.0 0.0 1.0 0.32</REAL-Entries>
        </REAL-SparseArray>
      </VectorInstance>
      <VectorInstance id="1_1141887">
        <REAL-SparseArray n="53">
          <Indices>1 2 3 4 5 6 7 8 9 10 11 12 13 14 15 16 17 18 19 20 21 22 23 24 25 26 27 28 29 30 31 32 33 34 35 36 37 38 39 40 41 42 43 44 45 46 47 48 49 50 51 52 53</Indices>
          <REAL-Entries>-0.4874584211748765 -1.1958951937992595 -0.1983193433770224 1.639457465964147 0.0 1.0 0.0 0.0 0.0 0.0 0.0 0.0 0.0 0.0 0.0 1.0 0.0 0.0 0.0 0.0 0.0 0.0 0.0 0.0 0.0 0.0 0.0 0.0 0.0 0.0 0.0 0.0 1.0 0.0 0.0 0.0 0.0 0.0 0.0 0.0 0.0 1.0 0.0 0.0 0.0 0.0 0.0 0.0 0.0 0.0 0.0 1.0 0.69</REAL-Entries>
        </REAL-SparseArray>
      </VectorInstance>
      <VectorInstance id="1_1142177">
        <REAL-SparseArray n="53">
          <Indices>1 2 3 4 5 6 7 8 9 10 11 12 13 14 15 16 17 18 19 20 21 22 23 24 25 26 27 28 29 30 31 32 33 34 35 36 37 38 39 40 41 42 43 44 45 46 47 48 49 50 51 52 53</Indices>
          <REAL-Entries>0.763944955444408 -0.9959995995564332 -0.1983193433770224 -0.006129812612698959 0.0 0.0 0.0 0.0 0.0 1.0 0.0 0.0 0.0 1.0 0.0 0.0 0.0 0.0 0.0 0.0 0.0 0.0 0.0 0.0 0.0 0.0 0.0 0.0 0.0 0.0 0.0 0.0 1.0 0.0 0.0 0.0 0.0 0.0 0.0 0.0 0.0 0.0 0.0 1.0 0.0 0.0 0.0 0.0 0.0 0.0 0.0 1.0 0.32</REAL-Entries>
        </REAL-SparseArray>
      </VectorInstance>
      <VectorInstance id="0_1145025">
        <REAL-SparseArray n="53">
          <Indices>1 2 3 4 5 6 7 8 9 10 11 12 13 14 15 16 17 18 19 20 21 22 23 24 25 26 27 28 29 30 31 32 33 34 35 36 37 38 39 40 41 42 43 44 45 46 47 48 49 50 51 52 53</Indices>
          <REAL-Entries>0.1750492488000388 -0.43140463371128723 -0.1983193433770224 -1.3225996354741756 0.0 0.0 0.0 0.0 0.0 1.0 0.0 0.0 0.0 0.0 0.0 0.0 1.0 0.0 0.0 0.0 0.0 0.0 0.0 0.0 0.0 0.0 0.0 0.0 0.0 0.0 0.0 0.0 1.0 0.0 0.0 0.0 0.0 0.0 0.0 0.0 0.0 0.0 0.0 1.0 0.0 0.0 0.0 0.0 0.0 0.0 0.0 1.0 0.32</REAL-Entries>
        </REAL-SparseArray>
      </VectorInstance>
      <VectorInstance id="0_1155672">
        <REAL-SparseArray n="53">
          <Indices>1 2 3 4 5 6 7 8 9 10 11 12 13 14 15 16 17 18 19 20 21 22 23 24 25 26 27 28 29 30 31 32 33 34 35 36 37 38 39 40 41 42 43 44 45 46 47 48 49 50 51 52 53</Indices>
          <REAL-Entries>0.6167210287833158 1.108122201166543 -0.1983193433770224 -0.006129812612698959 0.0 0.0 0.0 1.0 0.0 0.0 0.0 0.0 0.0 0.0 0.0 0.0 0.0 0.0 0.0 0.0 0.0 0.0 1.0 0.0 0.0 0.0 0.0 0.0 0.0 0.0 1.0 0.0 0.0 0.0 0.0 0.0 0.0 0.0 0.0 0.0 0.0 0.0 1.0 0.0 0.0 0.0 0.0 0.0 0.0 0.0 1.0 0.0 0.32</REAL-Entries>
        </REAL-SparseArray>
      </VectorInstance>
      <VectorInstance id="1_1157546">
        <REAL-SparseArray n="53">
          <Indices>1 2 3 4 5 6 7 8 9 10 11 12 13 14 15 16 17 18 19 20 21 22 23 24 25 26 27 28 29 30 31 32 33 34 35 36 37 38 39 40 41 42 43 44 45 46 47 48 49 50 51 52 53</Indices>
          <REAL-Entries>-1.0763541278192457 1.5576640099477725 -0.1983193433770224 -0.006129812612698959 1.0 0.0 0.0 0.0 0.0 0.0 0.0 0.0 0.0 0.0 1.0 0.0 0.0 0.0 0.0 0.0 0.0 0.0 0.0 0.0 0.0 0.0 0.0 0.0 0.0 1.0 0.0 0.0 0.0 0.0 0.0 0.0 0.0 0.0 1.0 0.0 0.0 0.0 0.0 0.0 0.0 0.0 0.0 0.0 0.0 0.0 0.0 1.0 0.83</REAL-Entries>
        </REAL-SparseArray>
      </VectorInstance>
      <VectorInstance id="0_1158519">
        <REAL-SparseArray n="53">
          <Indices>1 2 3 4 5 6 7 8 9 10 11 12 13 14 15 16 17 18 19 20 21 22 23 24 25 26 27 28 29 30 31 32 33 34 35 36 37 38 39 40 41 42 43 44 45 46 47 48 49 50 51 52 53</Indices>
          <REAL-Entries>0.4694971021222236 -0.8326572929899241 -0.1983193433770224 -0.006129812612698959 1.0 0.0 0.0 0.0 0.0 0.0 0.0 0.0 0.0 0.0 0.0 0.0 0.0 0.0 1.0 0.0 0.0 0.0 0.0 0.0 0.0 0.0 0.0 0.0 0.0 0.0 0.0 0.0 1.0 0.0 0.0 0.0 0.0 0.0 1.0 0.0 0.0 0.0 0.0 0.0 0.0 0.0 0.0 0.0 0.0 0.0 0.0 1.0 0.32</REAL-Entries>
        </REAL-SparseArray>
      </VectorInstance>
      <VectorInstance id="0_1177328">
        <REAL-SparseArray n="53">
          <Indices>1 2 3 4 5 6 7 8 9 10 11 12 13 14 15 16 17 18 19 20 21 22 23 24 25 26 27 28 29 30 31 32 33 34 35 36 37 38 39 40 41 42 43 44 45 46 47 48 49 50 51 52 53</Indices>
          <REAL-Entries>-0.2666225311832382 -0.5825488658705064 -0.1983193433770224 0.40526700703151297 1.0 0.0 0.0 0.0 0.0 0.0 0.0 0.0 0.0 1.0 0.0 0.0 0.0 0.0 0.0 0.0 0.0 0.0 0.0 0.0 0.0 0.0 0.0 0.0 0.0 0.0 0.0 0.0 1.0 0.0 0.0 0.0 0.0 0.0 0.0 0.0 0.0 0.0 0.0 1.0 0.0 0.0 0.0 0.0 0.0 0.0 0.0 1.0 0.69</REAL-Entries>
        </REAL-SparseArray>
      </VectorInstance>
      <VectorInstance id="1_1199127">
        <REAL-SparseArray n="53">
          <Indices>1 2 3 4 5 6 7 8 9 10 11 12 13 14 15 16 17 18 19 20 21 22 23 24 25 26 27 28 29 30 31 32 33 34 35 36 37 38 39 40 41 42 43 44 45 46 47 48 49 50 51 52 53</Indices>
          <REAL-Entries>1.7945124420720537 -1.0858156337032707 -0.1983193433770224 -0.006129812612698959 0.0 0.0 1.0 0.0 0.0 0.0 0.0 0.0 0.0 0.0 0.0 0.0 1.0 0.0 0.0 0.0 0.0 0.0 0.0 0.0 0.0 0.0 0.0 0.0 0.0 0.0 0.0 0.0 1.0 0.0 0.0 0.0 0.0 0.0 0.0 0.0 0.0 0.0 0.0 0.0 0.0 1.0 0.0 0.0 0.0 0.0 0.0 1.0 0.12</REAL-Entries>
        </REAL-SparseArray>
      </VectorInstance>
      <VectorInstance id="1_1210411">
        <REAL-SparseArray n="53">
          <Indices>1 2 3 4 5 6 7 8 9 10 11 12 13 14 15 16 17 18 19 20 21 22 23 24 25 26 27 28 29 30 31 32 33 34 35 36 37 38 39 40 41 42 43 44 45 46 47 48 49 50 51 52 53</Indices>
          <REAL-Entries>0.027825322138946618 -0.9120502754380415 -0.1983193433770224 -0.006129812612698959 1.0 0.0 0.0 0.0 0.0 0.0 0.0 0.0 0.0 0.0 0.0 0.0 1.0 0.0 0.0 0.0 0.0 0.0 0.0 0.0 0.0 0.0 0.0 0.0 0.0 0.0 0.0 0.0 1.0 0.0 0.0 0.0 0.0 0.0 0.0 0.0 0.0 0.0 1.0 0.0 0.0 0.0 0.0 0.0 0.0 0.0 0.0 1.0 0.69</REAL-Entries>
        </REAL-SparseArray>
      </VectorInstance>
      <VectorInstance id="1_1216471">
        <REAL-SparseArray n="53">
          <Indices>1 2 3 4 5 6 7 8 9 10 11 12 13 14 15 16 17 18 19 20 21 22 23 24 25 26 27 28 29 30 31 32 33 34 35 36 37 38 39 40 41 42 43 44 45 46 47 48 49 50 51 52 53</Indices>
          <REAL-Entries>0.2486612121305849 -0.5209038123721963 -0.1983193433770224 0.40526700703151297 0.0 0.0 0.0 1.0 0.0 0.0 0.0 0.0 0.0 1.0 0.0 0.0 0.0 0.0 0.0 0.0 0.0 0.0 0.0 0.0 0.0 0.0 0.0 0.0 0.0 0.0 0.0 0.0 1.0 0.0 0.0 0.0 0.0 0.0 0.0 1.0 0.0 0.0 0.0 0.0 0.0 0.0 0.0 0.0 0.0 0.0 0.0 1.0 0.32</REAL-Entries>
        </REAL-SparseArray>
      </VectorInstance>
      <VectorInstance id="1_1226867">
        <REAL-SparseArray n="53">
          <Indices>1 2 3 4 5 6 7 8 9 10 11 12 13 14 15 16 17 18 19 20 21 22 23 24 25 26 27 28 29 30 31 32 33 34 35 36 37 38 39 40 41 42 43 44 45 46 47 48 49 50 51 52 53</Indices>
          <REAL-Entries>0.4694971021222236 -0.5829541995882263 -0.1983193433770224 -0.006129812612698959 1.0 0.0 0.0 0.0 0.0 0.0 0.0 0.0 0.0 0.0 0.0 0.0 0.0 0.0 0.0 0.0 0.0 0.0 0.0 0.0 0.0 1.0 0.0 0.0 0.0 0.0 1.0 0.0 0.0 0.0 0.0 0.0 0.0 0.0 0.0 0.0 0.0 0.0 1.0 0.0 0.0 0.0 0.0 0.0 0.0 0.0 0.0 1.0 0.32</REAL-Entries>
        </REAL-SparseArray>
      </VectorInstance>
      <VectorInstance id="1_1254408">
        <REAL-SparseArray n="53">
          <Indices>1 2 3 4 5 6 7 8 9 10 11 12 13 14 15 16 17 18 19 20 21 22 23 24 25 26 27 28 29 30 31 32 33 34 35 36 37 38 39 40 41 42 43 44 45 46 47 48 49 50 51 52 53</Indices>
          <REAL-Entries>-0.8555182378276072 0.07306176105641615 -0.1983193433770224 -0.006129812612698959 1.0 0.0 0.0 0.0 0.0 0.0 0.0 0.0 0.0 0.0 0.0 0.0 1.0 0.0 0.0 0.0 0.0 0.0 0.0 0.0 0.0 0.0 0.0 0.0 0.0 0.0 1.0 0.0 0.0 0.0 0.0 0.0 0.0 0.0 0.0 0.0 0.0 0.0 1.0 0.0 0.0 0.0 0.0 0.0 0.0 0.0 0.0 1.0 0.83</REAL-Entries>
        </REAL-SparseArray>
      </VectorInstance>
      <VectorInstance id="0_1267022">
        <REAL-SparseArray n="53">
          <Indices>1 2 3 4 5 6 7 8 9 10 11 12 13 14 15 16 17 18 19 20 21 22 23 24 25 26 27 28 29 30 31 32 33 34 35 36 37 38 39 40 41 42 43 44 45 46 47 48 49 50 51 52 53</Indices>
          <REAL-Entries>-0.5610703845054226 -0.022195253445117302 3.208345285708564 -0.1706885404703833 1.0 0.0 0.0 0.0 0.0 0.0 0.0 0.0 0.0 0.0 0.0 0.0 1.0 0.0 0.0 0.0 0.0 0.0 0.0 0.0 0.0 0.0 0.0 0.0 0.0 0.0 1.0 0.0 0.0 0.0 0.0 0.0 0.0 0.0 0.0 1.0 0.0 0.0 0.0 0.0 0.0 0.0 0.0 0.0 0.0 0.0 0.0 1.0 0.83</REAL-Entries>
        </REAL-SparseArray>
      </VectorInstance>
      <VectorInstance id="0_1273089">
        <REAL-SparseArray n="53">
          <Indices>1 2 3 4 5 6 7 8 9 10 11 12 13 14 15 16 17 18 19 20 21 22 23 24 25 26 27 28 29 30 31 32 33 34 35 36 37 38 39 40 41 42 43 44 45 46 47 48 49 50 51 52 53</Indices>
          <REAL-Entries>1.720900478741508 -0.48056836755377996 -0.1983193433770224 0.816663826675724 0.0 0.0 0.0 0.0 0.0 0.0 0.0 0.0 1.0 0.0 1.0 0.0 0.0 0.0 0.0 0.0 0.0 0.0 0.0 0.0 0.0 0.0 0.0 0.0 0.0 0.0 0.0 0.0 1.0 0.0 0.0 0.0 0.0 0.0 0.0 0.0 0.0 0.0 0.0 0.0 0.0 1.0 0.0 0.0 0.0 0.0 0.0 1.0 0.12</REAL-Entries>
        </REAL-SparseArray>
      </VectorInstance>
      <VectorInstance id="0_1276913">
        <REAL-SparseArray n="53">
          <Indices>1 2 3 4 5 6 7 8 9 10 11 12 13 14 15 16 17 18 19 20 21 22 23 24 25 26 27 28 29 30 31 32 33 34 35 36 37 38 39 40 41 42 43 44 45 46 47 48 49 50 51 52 53</Indices>
          <REAL-Entries>0.027825322138946618 -0.8012027070540835 -0.1983193433770224 -0.006129812612698959 1.0 0.0 0.0 0.0 0.0 0.0 0.0 0.0 0.0 0.0 0.0 1.0 0.0 0.0 0.0 0.0 0.0 0.0 0.0 0.0 0.0 0.0 0.0 0.0 0.0 0.0 0.0 0.0 1.0 0.0 0.0 0.0 0.0 0.0 0.0 1.0 0.0 0.0 0.0 0.0 0.0 0.0 0.0 0.0 0.0 0.0 0.0 1.0 0.69</REAL-Entries>
        </REAL-SparseArray>
      </VectorInstance>
      <VectorInstance id="1_1288612">
        <REAL-SparseArray n="53">
          <Indices>1 2 3 4 5 6 7 8 9 10 11 12 13 14 15 16 17 18 19 20 21 22 23 24 25 26 27 28 29 30 31 32 33 34 35 36 37 38 39 40 41 42 43 44 45 46 47 48 49 50 51 52 53</Indices>
          <REAL-Entries>0.6903329921138619 -0.5666263749853707 -0.1983193433770224 -0.006129812612698959 0.0 0.0 0.0 0.0 1.0 0.0 0.0 0.0 0.0 0.0 0.0 0.0 1.0 0.0 0.0 0.0 0.0 0.0 0.0 0.0 0.0 0.0 0.0 0.0 0.0 0.0 0.0 0.0 1.0 0.0 0.0 0.0 0.0 0.0 0.0 1.0 0.0 0.0 0.0 0.0 0.0 0.0 0.0 0.0 0.0 0.0 0.0 1.0 0.32</REAL-Entries>
        </REAL-SparseArray>
      </VectorInstance>
      <VectorInstance id="0_1298943">
        <REAL-SparseArray n="53">
          <Indices>1 2 3 4 5 6 7 8 9 10 11 12 13 14 15 16 17 18 19 20 21 22 23 24 25 26 27 28 29 30 31 32 33 34 35 36 37 38 39 40 41 42 43 44 45 46 47 48 49 50 51 52 53</Indices>
          <REAL-Entries>0.322273175461131 -0.7469506130826222 -0.1983193433770224 -0.1706885404703833 1.0 0.0 0.0 0.0 0.0 0.0 0.0 0.0 0.0 1.0 0.0 0.0 0.0 0.0 0.0 0.0 0.0 0.0 0.0 0.0 0.0 0.0 0.0 0.0 0.0 0.0 0.0 0.0 1.0 0.0 0.0 0.0 0.0 0.0 1.0 0.0 0.0 0.0 0.0 0.0 0.0 0.0 0.0 0.0 0.0 0.0 0.0 1.0 0.32</REAL-Entries>
        </REAL-SparseArray>
      </VectorInstance>
      <VectorInstance id="1_1301028">
        <REAL-SparseArray n="53">
          <Indices>1 2 3 4 5 6 7 8 9 10 11 12 13 14 15 16 17 18 19 20 21 22 23 24 25 26 27 28 29 30 31 32 33 34 35 36 37 38 39 40 41 42 43 44 45 46 47 48 49 50 51 52 53</Indices>
          <REAL-Entries>0.6167210287833158 -0.33692683091019004 -0.1983193433770224 -0.006129812612698959 0.0 1.0 0.0 0.0 0.0 0.0 0.0 0.0 0.0 0.0 0.0 1.0 0.0 0.0 0.0 0.0 0.0 0.0 0.0 0.0 0.0 0.0 0.0 0.0 0.0 0.0 0.0 0.0 1.0 0.0 0.0 0.0 0.0 0.0 0.0 0.0 1.0 0.0 0.0 0.0 0.0 0.0 0.0 0.0 0.0 0.0 0.0 1.0 0.32</REAL-Entries>
        </REAL-SparseArray>
      </VectorInstance>
      <VectorInstance id="0_1312365">
        <REAL-SparseArray n="53">
          <Indices>1 2 3 4 5 6 7 8 9 10 11 12 13 14 15 16 17 18 19 20 21 22 23 24 25 26 27 28 29 30 31 32 33 34 35 36 37 38 39 40 41 42 43 44 45 46 47 48 49 50 51 52 53</Indices>
          <REAL-Entries>1.8681244054026003 -0.33173649100107216 -0.1983193433770224 -0.006129812612698959 1.0 0.0 0.0 0.0 0.0 0.0 0.0 0.0 0.0 0.0 0.0 1.0 0.0 0.0 0.0 0.0 0.0 0.0 0.0 0.0 0.0 0.0 0.0 0.0 0.0 0.0 0.0 0.0 1.0 0.0 0.0 0.0 0.0 0.0 0.0 0.0 1.0 0.0 0.0 0.0 0.0 0.0 0.0 0.0 0.0 0.0 0.0 1.0 0.12</REAL-Entries>
        </REAL-SparseArray>
      </VectorInstance>
      <VectorInstance id="1_1312435">
        <REAL-SparseArray n="53">
          <Indices>1 2 3 4 5 6 7 8 9 10 11 12 13 14 15 16 17 18 19 20 21 22 23 24 25 26 27 28 29 30 31 32 33 34 35 36 37 38 39 40 41 42 43 44 45 46 47 48 49 50 51 52 53</Indices>
          <REAL-Entries>0.3958851387916775 -0.6754571854917572 -0.1983193433770224 0.816663826675724 1.0 0.0 0.0 0.0 0.0 0.0 0.0 0.0 0.0 0.0 0.0 0.0 1.0 0.0 0.0 0.0 0.0 0.0 0.0 0.0 0.0 0.0 0.0 0.0 0.0 0.0 0.0 0.0 1.0 0.0 0.0 0.0 0.0 0.0 0.0 0.0 0.0 1.0 0.0 0.0 0.0 0.0 0.0 0.0 0.0 0.0 0.0 1.0 0.32</REAL-Entries>
        </REAL-SparseArray>
      </VectorInstance>
      <VectorInstance id="0_1365727">
        <REAL-SparseArray n="53">
          <Indices>1 2 3 4 5 6 7 8 9 10 11 12 13 14 15 16 17 18 19 20 21 22 23 24 25 26 27 28 29 30 31 32 33 34 35 36 37 38 39 40 41 42 43 44 45 46 47 48 49 50 51 52 53</Indices>
          <REAL-Entries>-0.7082943111665148 -0.8515505554142528 -0.1983193433770224 1.228060646319936 1.0 0.0 0.0 0.0 0.0 0.0 0.0 0.0 0.0 0.0 0.0 0.0 0.0 0.0 1.0 0.0 0.0 0.0 0.0 0.0 0.0 0.0 0.0 0.0 0.0 0.0 0.0 0.0 1.0 0.0 0.0 0.0 1.0 0.0 0.0 0.0 0.0 0.0 0.0 0.0 0.0 0.0 0.0 0.0 0.0 0.0 0.0 1.0 0.83</REAL-Entries>
        </REAL-SparseArray>
      </VectorInstance>
      <VectorInstance id="1_1367887">
        <REAL-SparseArray n="53">
          <Indices>1 2 3 4 5 6 7 8 9 10 11 12 13 14 15 16 17 18 19 20 21 22 23 24 25 26 27 28 29 30 31 32 33 34 35 36 37 38 39 40 41 42 43 44 45 46 47 48 49 50 51 52 53</Indices>
          <REAL-Entries>0.3958851387916775 -0.7932475660349754 -0.1983193433770224 -0.006129812612698959 1.0 0.0 0.0 0.0 0.0 0.0 0.0 0.0 0.0 0.0 0.0 0.0 1.0 0.0 0.0 0.0 0.0 0.0 0.0 0.0 0.0 0.0 0.0 0.0 0.0 0.0 0.0 0.0 1.0 0.0 0.0 0.0 0.0 0.0 0.0 1.0 0.0 0.0 0.0 0.0 0.0 0.0 0.0 0.0 0.0 0.0 0.0 1.0 0.32</REAL-Entries>
        </REAL-SparseArray>
      </VectorInstance>
      <VectorInstance id="0_1383516">
        <REAL-SparseArray n="53">
          <Indices>1 2 3 4 5 6 7 8 9 10 11 12 13 14 15 16 17 18 19 20 21 22 23 24 25 26 27 28 29 30 31 32 33 34 35 36 37 38 39 40 41 42 43 44 45 46 47 48 49 50 51 52 53</Indices>
          <REAL-Entries>-0.7819062744970608 -0.11704951963180799 -0.1983193433770224 1.639457465964147 1.0 0.0 0.0 0.0 0.0 0.0 0.0 0.0 0.0 0.0 0.0 0.0 1.0 0.0 0.0 0.0 0.0 0.0 0.0 0.0 0.0 0.0 0.0 0.0 0.0 0.0 1.0 0.0 0.0 0.0 0.0 0.0 0.0 0.0 0.0 1.0 0.0 0.0 0.0 0.0 0.0 0.0 0.0 0.0 0.0 0.0 1.0 0.0 0.83</REAL-Entries>
        </REAL-SparseArray>
      </VectorInstance>
      <VectorInstance id="1_1394083">
        <REAL-SparseArray n="53">
          <Indices>1 2 3 4 5 6 7 8 9 10 11 12 13 14 15 16 17 18 19 20 21 22 23 24 25 26 27 28 29 30 31 32 33 34 35 36 37 38 39 40 41 42 43 44 45 46 47 48 49 50 51 52 53</Indices>
          <REAL-Entries>0.4694971021222236 -0.6619862310680125 -0.1983193433770224 0.816663826675724 0.0 1.0 0.0 0.0 0.0 0.0 0.0 0.0 0.0 0.0 0.0 1.0 0.0 0.0 0.0 0.0 0.0 0.0 0.0 0.0 0.0 0.0 0.0 0.0 0.0 0.0 0.0 0.0 1.0 0.0 0.0 0.0 0.0 0.0 0.0 0.0 0.0 1.0 0.0 0.0 0.0 0.0 0.0 0.0 0.0 0.0 0.0 1.0 0.32</REAL-Entries>
        </REAL-SparseArray>
      </VectorInstance>
      <VectorInstance id="0_1400557">
        <REAL-SparseArray n="53">
          <Indices>1 2 3 4 5 6 7 8 9 10 11 12 13 14 15 16 17 18 19 20 21 22 23 24 25 26 27 28 29 30 31 32 33 34 35 36 37 38 39 40 41 42 43 44 45 46 47 48 49 50 51 52 53</Indices>
          <REAL-Entries>1.4264526254193237 -0.738788496199859 -0.1983193433770224 -0.006129812612698959 0.0 0.0 0.0 0.0 1.0 0.0 0.0 0.0 0.0 0.0 0.0 0.0 0.0 0.0 0.0 0.0 0.0 0.0 1.0 0.0 0.0 0.0 0.0 0.0 0.0 0.0 0.0 0.0 1.0 0.0 0.0 0.0 0.0 0.0 0.0 0.0 0.0 0.0 1.0 0.0 0.0 0.0 0.0 0.0 0.0 0.0 0.0 1.0 0.12</REAL-Entries>
        </REAL-SparseArray>
      </VectorInstance>
      <VectorInstance id="0_1401108">
        <REAL-SparseArray n="53">
          <Indices>1 2 3 4 5 6 7 8 9 10 11 12 13 14 15 16 17 18 19 20 21 22 23 24 25 26 27 28 29 30 31 32 33 34 35 36 37 38 39 40 41 42 43 44 45 46 47 48 49 50 51 52 53</Indices>
          <REAL-Entries>1.205616735427685 -0.6549823746741558 -0.1983193433770224 -0.006129812612698959 1.0 0.0 0.0 0.0 0.0 0.0 0.0 0.0 0.0 1.0 0.0 0.0 0.0 0.0 0.0 0.0 0.0 0.0 0.0 0.0 0.0 0.0 0.0 0.0 0.0 0.0 0.0 0.0 1.0 0.0 0.0 0.0 0.0 0.0 1.0 0.0 0.0 0.0 0.0 0.0 0.0 0.0 0.0 0.0 0.0 0.0 0.0 1.0 0.32</REAL-Entries>
        </REAL-SparseArray>
      </VectorInstance>
      <VectorInstance id="0_1454004">
        <REAL-SparseArray n="53">
          <Indices>1 2 3 4 5 6 7 8 9 10 11 12 13 14 15 16 17 18 19 20 21 22 23 24 25 26 27 28 29 30 31 32 33 34 35 36 37 38 39 40 41 42 43 44 45 46 47 48 49 50 51 52 53</Indices>
          <REAL-Entries>1.0583928087665928 -0.4111270316798056 -0.1983193433770224 1.639457465964147 0.0 0.0 0.0 1.0 0.0 0.0 0.0 0.0 0.0 0.0 0.0 1.0 0.0 0.0 0.0 0.0 0.0 0.0 0.0 0.0 0.0 0.0 0.0 0.0 0.0 0.0 0.0 0.0 1.0 0.0 0.0 0.0 0.0 0.0 0.0 1.0 0.0 0.0 0.0 0.0 0.0 0.0 0.0 0.0 0.0 0.0 0.0 1.0 0.32</REAL-Entries>
        </REAL-SparseArray>
      </VectorInstance>
      <VectorInstance id="0_1455874">
        <REAL-SparseArray n="53">
          <Indices>1 2 3 4 5 6 7 8 9 10 11 12 13 14 15 16 17 18 19 20 21 22 23 24 25 26 27 28 29 30 31 32 33 34 35 36 37 38 39 40 41 42 43 44 45 46 47 48 49 50 51 52 53</Indices>
          <REAL-Entries>-0.3402344945137843 -0.7006216298612927 -0.1983193433770224 -0.006129812612698959 1.0 0.0 0.0 0.0 0.0 0.0 0.0 0.0 0.0 0.0 0.0 0.0 0.0 0.0 1.0 0.0 0.0 0.0 0.0 0.0 0.0 0.0 0.0 0.0 0.0 0.0 0.0 0.0 1.0 0.0 0.0 0.0 0.0 0.0 0.0 1.0 0.0 0.0 0.0 0.0 0.0 0.0 0.0 0.0 0.0 0.0 0.0 1.0 0.69</REAL-Entries>
        </REAL-SparseArray>
      </VectorInstance>
      <VectorInstance id="0_1457685">
        <REAL-SparseArray n="53">
          <Indices>1 2 3 4 5 6 7 8 9 10 11 12 13 14 15 16 17 18 19 20 21 22 23 24 25 26 27 28 29 30 31 32 33 34 35 36 37 38 39 40 41 42 43 44 45 46 47 48 49 50 51 52 53</Indices>
          <REAL-Entries>-0.7819062744970608 -0.6813823543519223 -0.1983193433770224 -0.006129812612698959 1.0 0.0 0.0 0.0 0.0 0.0 0.0 0.0 0.0 1.0 0.0 0.0 0.0 0.0 0.0 0.0 0.0 0.0 0.0 0.0 0.0 0.0 0.0 0.0 0.0 0.0 0.0 0.0 1.0 0.0 0.0 0.0 0.0 0.0 0.0 0.0 0.0 1.0 0.0 0.0 0.0 0.0 0.0 0.0 0.0 0.0 0.0 1.0 0.83</REAL-Entries>
        </REAL-SparseArray>
      </VectorInstance>
      <VectorInstance id="0_1467638">
        <REAL-SparseArray n="53">
          <Indices>1 2 3 4 5 6 7 8 9 10 11 12 13 14 15 16 17 18 19 20 21 22 23 24 25 26 27 28 29 30 31 32 33 34 35 36 37 38 39 40 41 42 43 44 45 46 47 48 49 50 51 52 53</Indices>
          <REAL-Entries>0.8375569187749541 -0.5411633165835389 -0.1983193433770224 0.6521050988180397 1.0 0.0 0.0 0.0 0.0 0.0 0.0 0.0 0.0 0.0 0.0 1.0 0.0 0.0 0.0 0.0 0.0 0.0 0.0 0.0 0.0 0.0 0.0 0.0 0.0 0.0 0.0 0.0 1.0 0.0 0.0 0.0 0.0 0.0 0.0 0.0 0.0 1.0 0.0 0.0 0.0 0.0 0.0 0.0 0.0 0.0 0.0 1.0 0.32</REAL-Entries>
        </REAL-SparseArray>
      </VectorInstance>
      <VectorInstance id="1_1467797">
        <REAL-SparseArray n="53">
          <Indices>1 2 3 4 5 6 7 8 9 10 11 12 13 14 15 16 17 18 19 20 21 22 23 24 25 26 27 28 29 30 31 32 33 34 35 36 37 38 39 40 41 42 43 44 45 46 47 48 49 50 51 52 53</Indices>
          <REAL-Entries>0.6167210287833158 1.710812360237164 -0.1983193433770224 -0.41752663225691045 0.0 1.0 0.0 0.0 0.0 0.0 0.0 0.0 0.0 1.0 0.0 0.0 0.0 0.0 0.0 0.0 0.0 0.0 0.0 0.0 0.0 0.0 0.0 0.0 0.0 0.0 0.0 0.0 1.0 0.0 0.0 0.0 0.0 1.0 0.0 0.0 0.0 0.0 0.0 0.0 0.0 0.0 0.0 0.0 0.0 0.0 1.0 0.0 0.32</REAL-Entries>
        </REAL-SparseArray>
      </VectorInstance>
      <VectorInstance id="0_1471496">
        <REAL-SparseArray n="53">
          <Indices>1 2 3 4 5 6 7 8 9 10 11 12 13 14 15 16 17 18 19 20 21 22 23 24 25 26 27 28 29 30 31 32 33 34 35 36 37 38 39 40 41 42 43 44 45 46 47 48 49 50 51 52 53</Indices>
          <REAL-Entries>1.6472885154109616 0.1072937878496456 -0.1983193433770224 4.848352659188997 0.0 0.0 1.0 0.0 0.0 0.0 0.0 0.0 0.0 0.0 0.0 0.0 0.0 0.0 0.0 1.0 0.0 0.0 0.0 0.0 0.0 0.0 0.0 0.0 0.0 0.0 0.0 0.0 0.0 1.0 0.0 0.0 0.0 0.0 0.0 1.0 0.0 0.0 0.0 0.0 0.0 0.0 0.0 0.0 0.0 0.0 1.0 0.0 0.12</REAL-Entries>
        </REAL-SparseArray>
      </VectorInstance>
      <VectorInstance id="1_1472475">
        <REAL-SparseArray n="53">
          <Indices>1 2 3 4 5 6 7 8 9 10 11 12 13 14 15 16 17 18 19 20 21 22 23 24 25 26 27 28 29 30 31 32 33 34 35 36 37 38 39 40 41 42 43 44 45 46 47 48 49 50 51 52 53</Indices>
          <REAL-Entries>0.4694971021222236 0.0919317548548515 -0.1983193433770224 -0.8289234519011219 0.0 1.0 0.0 0.0 0.0 0.0 0.0 0.0 0.0 0.0 0.0 0.0 0.0 0.0 0.0 0.0 0.0 0.0 0.0 0.0 0.0 1.0 0.0 0.0 0.0 0.0 1.0 0.0 0.0 0.0 0.0 0.0 0.0 0.0 0.0 0.0 0.0 0.0 1.0 0.0 0.0 0.0 0.0 0.0 0.0 0.0 0.0 1.0 0.32</REAL-Entries>
        </REAL-SparseArray>
      </VectorInstance>
      <VectorInstance id="1_1474221">
        <REAL-SparseArray n="53">
          <Indices>1 2 3 4 5 6 7 8 9 10 11 12 13 14 15 16 17 18 19 20 21 22 23 24 25 26 27 28 29 30 31 32 33 34 35 36 37 38 39 40 41 42 43 44 45 46 47 48 49 50 51 52 53</Indices>
          <REAL-Entries>0.027825322138946618 -0.8228946680927902 -0.1983193433770224 0.816663826675724 1.0 0.0 0.0 0.0 0.0 0.0 0.0 0.0 0.0 0.0 0.0 0.0 1.0 0.0 0.0 0.0 0.0 0.0 0.0 0.0 0.0 0.0 0.0 0.0 0.0 0.0 0.0 0.0 1.0 0.0 0.0 0.0 0.0 0.0 0.0 0.0 0.0 0.0 0.0 1.0 0.0 0.0 0.0 0.0 0.0 0.0 0.0 1.0 0.69</REAL-Entries>
        </REAL-SparseArray>
      </VectorInstance>
      <VectorInstance id="1_1488053">
        <REAL-SparseArray n="53">
          <Indices>1 2 3 4 5 6 7 8 9 10 11 12 13 14 15 16 17 18 19 20 21 22 23 24 25 26 27 28 29 30 31 32 33 34 35 36 37 38 39 40 41 42 43 44 45 46 47 48 49 50 51 52 53</Indices>
          <REAL-Entries>1.573676552080416 0.027718247231712123 -0.1983193433770224 0.3229876431026706 1.0 0.0 0.0 0.0 0.0 0.0 0.0 0.0 0.0 1.0 0.0 0.0 0.0 0.0 0.0 0.0 0.0 0.0 0.0 0.0 0.0 0.0 0.0 0.0 0.0 0.0 0.0 1.0 0.0 0.0 0.0 0.0 0.0 0.0 1.0 0.0 0.0 0.0 0.0 0.0 0.0 0.0 0.0 0.0 0.0 0.0 0.0 1.0 0.12</REAL-Entries>
        </REAL-SparseArray>
      </VectorInstance>
      <VectorInstance id="0_1493406">
        <REAL-SparseArray n="53">
          <Indices>1 2 3 4 5 6 7 8 9 10 11 12 13 14 15 16 17 18 19 20 21 22 23 24 25 26 27 28 29 30 31 32 33 34 35 36 37 38 39 40 41 42 43 44 45 46 47 48 49 50 51 52 53</Indices>
          <REAL-Entries>0.322273175461131 -0.8199197311822952 -0.1983193433770224 -0.006129812612698959 1.0 0.0 0.0 0.0 0.0 0.0 0.0 0.0 0.0 1.0 0.0 0.0 0.0 0.0 0.0 0.0 0.0 0.0 0.0 0.0 0.0 0.0 0.0 0.0 0.0 0.0 0.0 0.0 1.0 0.0 0.0 0.0 0.0 0.0 0.0 0.0 0.0 0.0 1.0 0.0 0.0 0.0 0.0 0.0 0.0 0.0 0.0 1.0 0.32</REAL-Entries>
        </REAL-SparseArray>
      </VectorInstance>
      <VectorInstance id="1_1495310">
        <REAL-SparseArray n="53">
          <Indices>1 2 3 4 5 6 7 8 9 10 11 12 13 14 15 16 17 18 19 20 21 22 23 24 25 26 27 28 29 30 31 32 33 34 35 36 37 38 39 40 41 42 43 44 45 46 47 48 49 50 51 52 53</Indices>
          <REAL-Entries>-0.2666225311832382 -0.3506919467279427 -0.1983193433770224 -0.006129812612698959 1.0 0.0 0.0 0.0 0.0 0.0 0.0 0.0 0.0 0.0 0.0 1.0 0.0 0.0 0.0 0.0 0.0 0.0 0.0 0.0 0.0 0.0 0.0 0.0 0.0 0.0 1.0 0.0 0.0 0.0 0.0 0.0 0.0 1.0 0.0 0.0 0.0 0.0 0.0 0.0 0.0 0.0 0.0 0.0 0.0 0.0 0.0 1.0 0.69</REAL-Entries>
        </REAL-SparseArray>
      </VectorInstance>
      <VectorInstance id="0_1502038">
        <REAL-SparseArray n="53">
          <Indices>1 2 3 4 5 6 7 8 9 10 11 12 13 14 15 16 17 18 19 20 21 22 23 24 25 26 27 28 29 30 31 32 33 34 35 36 37 38 39 40 41 42 43 44 45 46 47 48 49 50 51 52 53</Indices>
          <REAL-Entries>1.7945124420720537 -0.7487071070705733 -0.1983193433770224 0.40526700703151297 1.0 0.0 0.0 0.0 0.0 0.0 0.0 0.0 0.0 1.0 0.0 0.0 0.0 0.0 0.0 0.0 0.0 0.0 0.0 0.0 0.0 0.0 0.0 0.0 0.0 0.0 0.0 0.0 1.0 0.0 0.0 0.0 0.0 0.0 1.0 0.0 0.0 0.0 0.0 0.0 0.0 0.0 0.0 0.0 0.0 0.0 0.0 1.0 0.12</REAL-Entries>
        </REAL-SparseArray>
      </VectorInstance>
      <VectorInstance id="1_1505676">
        <REAL-SparseArray n="53">
          <Indices>1 2 3 4 5 6 7 8 9 10 11 12 13 14 15 16 17 18 19 20 21 22 23 24 25 26 27 28 29 30 31 32 33 34 35 36 37 38 39 40 41 42 43 44 45 46 47 48 49 50 51 52 53</Indices>
          <REAL-Entries>1.132004772097139 -0.8249404399359817 -0.1983193433770224 0.40526700703151297 1.0 0.0 0.0 0.0 0.0 0.0 0.0 0.0 0.0 0.0 0.0 1.0 0.0 0.0 0.0 0.0 0.0 0.0 0.0 0.0 0.0 0.0 0.0 0.0 0.0 0.0 0.0 0.0 1.0 0.0 0.0 0.0 0.0 0.0 0.0 0.0 1.0 0.0 0.0 0.0 0.0 0.0 0.0 0.0 0.0 0.0 0.0 1.0 0.32</REAL-Entries>
        </REAL-SparseArray>
      </VectorInstance>
      <VectorInstance id="1_1518173">
        <REAL-SparseArray n="53">
          <Indices>1 2 3 4 5 6 7 8 9 10 11 12 13 14 15 16 17 18 19 20 21 22 23 24 25 26 27 28 29 30 31 32 33 34 35 36 37 38 39 40 41 42 43 44 45 46 47 48 49 50 51 52 53</Indices>
          <REAL-Entries>-0.4138464578443304 0.6377719209630828 -0.1983193433770224 -0.006129812612698959 1.0 0.0 0.0 0.0 0.0 0.0 0.0 0.0 0.0 0.0 0.0 0.0 1.0 0.0 0.0 0.0 0.0 0.0 0.0 0.0 0.0 0.0 0.0 0.0 0.0 0.0 0.0 0.0 1.0 0.0 0.0 0.0 0.0 0.0 0.0 1.0 0.0 0.0 0.0 0.0 0.0 0.0 0.0 0.0 0.0 0.0 1.0 0.0 0.69</REAL-Entries>
        </REAL-SparseArray>
      </VectorInstance>
      <VectorInstance id="1_1531306">
        <REAL-SparseArray n="53">
          <Indices>1 2 3 4 5 6 7 8 9 10 11 12 13 14 15 16 17 18 19 20 21 22 23 24 25 26 27 28 29 30 31 32 33 34 35 36 37 38 39 40 41 42 43 44 45 46 47 48 49 50 51 52 53</Indices>
          <REAL-Entries>0.5431090654527697 -0.6211543888972076 -0.1983193433770224 -0.006129812612698959 1.0 0.0 0.0 0.0 0.0 0.0 0.0 0.0 0.0 0.0 0.0 1.0 0.0 0.0 0.0 0.0 0.0 0.0 0.0 0.0 0.0 0.0 0.0 0.0 0.0 0.0 0.0 0.0 1.0 0.0 0.0 0.0 0.0 0.0 0.0 1.0 0.0 0.0 0.0 0.0 0.0 0.0 0.0 0.0 0.0 0.0 0.0 1.0 0.32</REAL-Entries>
        </REAL-SparseArray>
      </VectorInstance>
      <VectorInstance id="1_1545759">
        <REAL-SparseArray n="53">
          <Indices>1 2 3 4 5 6 7 8 9 10 11 12 13 14 15 16 17 18 19 20 21 22 23 24 25 26 27 28 29 30 31 32 33 34 35 36 37 38 39 40 41 42 43 44 45 46 47 48 49 50 51 52 53</Indices>
          <REAL-Entries>-0.1930105678526921 -0.6758537575663939 5.340201180819833 1.639457465964147 1.0 0.0 0.0 0.0 0.0 0.0 0.0 0.0 0.0 0.0 0.0 1.0 0.0 0.0 0.0 0.0 0.0 0.0 0.0 0.0 0.0 0.0 0.0 0.0 0.0 0.0 0.0 0.0 1.0 0.0 0.0 0.0 0.0 0.0 1.0 0.0 0.0 0.0 0.0 0.0 0.0 0.0 0.0 0.0 0.0 0.0 0.0 1.0 0.69</REAL-Entries>
        </REAL-SparseArray>
      </VectorInstance>
      <VectorInstance id="1_1545762">
        <REAL-SparseArray n="53">
          <Indices>1 2 3 4 5 6 7 8 9 10 11 12 13 14 15 16 17 18 19 20 21 22 23 24 25 26 27 28 29 30 31 32 33 34 35 36 37 38 39 40 41 42 43 44 45 46 47 48 49 50 51 52 53</Indices>
          <REAL-Entries>-0.6346823478359687 -0.44563325481149296 -0.1983193433770224 -0.006129812612698959 1.0 0.0 0.0 0.0 0.0 0.0 0.0 0.0 0.0 1.0 0.0 0.0 0.0 0.0 0.0 0.0 0.0 0.0 0.0 0.0 0.0 0.0 0.0 0.0 0.0 0.0 0.0 0.0 1.0 0.0 0.0 0.0 0.0 0.0 0.0 0.0 1.0 0.0 0.0 0.0 0.0 0.0 0.0 0.0 0.0 0.0 0.0 1.0 0.83</REAL-Entries>
        </REAL-SparseArray>
      </VectorInstance>
      <VectorInstance id="1_1551622">
        <REAL-SparseArray n="53">
          <Indices>1 2 3 4 5 6 7 8 9 10 11 12 13 14 15 16 17 18 19 20 21 22 23 24 25 26 27 28 29 30 31 32 33 34 35 36 37 38 39 40 41 42 43 44 45 46 47 48 49 50 51 52 53</Indices>
          <REAL-Entries>1.7945124420720537 -0.9656079014700356 -0.1983193433770224 -0.41752663225691045 0.0 1.0 0.0 0.0 0.0 0.0 0.0 0.0 0.0 1.0 0.0 0.0 0.0 0.0 0.0 0.0 0.0 0.0 0.0 0.0 0.0 0.0 0.0 0.0 0.0 0.0 0.0 0.0 1.0 0.0 0.0 0.0 0.0 0.0 0.0 0.0 1.0 0.0 0.0 0.0 0.0 0.0 0.0 0.0 0.0 0.0 0.0 1.0 0.12</REAL-Entries>
        </REAL-SparseArray>
      </VectorInstance>
      <VectorInstance id="1_1579205">
        <REAL-SparseArray n="53">
          <Indices>1 2 3 4 5 6 7 8 9 10 11 12 13 14 15 16 17 18 19 20 21 22 23 24 25 26 27 28 29 30 31 32 33 34 35 36 37 38 39 40 41 42 43 44 45 46 47 48 49 50 51 52 53</Indices>
          <REAL-Entries>-0.4874584211748765 1.1332559079685407 -0.1983193433770224 -0.41752663225691045 0.0 0.0 0.0 1.0 0.0 0.0 0.0 0.0 0.0 0.0 0.0 0.0 1.0 0.0 0.0 0.0 0.0 0.0 0.0 0.0 0.0 0.0 0.0 0.0 0.0 0.0 0.0 0.0 1.0 0.0 0.0 0.0 0.0 0.0 0.0 0.0 0.0 0.0 1.0 0.0 0.0 0.0 0.0 0.0 0.0 0.0 1.0 0.0 0.69</REAL-Entries>
        </REAL-SparseArray>
      </VectorInstance>
      <VectorInstance id="0_1598679">
        <REAL-SparseArray n="53">
          <Indices>1 2 3 4 5 6 7 8 9 10 11 12 13 14 15 16 17 18 19 20 21 22 23 24 25 26 27 28 29 30 31 32 33 34 35 36 37 38 39 40 41 42 43 44 45 46 47 48 49 50 51 52 53</Indices>
          <REAL-Entries>-0.5610703845054226 -0.8991719528071078 -0.1983193433770224 -0.006129812612698959 1.0 0.0 0.0 0.0 0.0 0.0 0.0 0.0 0.0 1.0 0.0 0.0 0.0 0.0 0.0 0.0 0.0 0.0 0.0 0.0 0.0 0.0 0.0 0.0 0.0 0.0 0.0 0.0 1.0 0.0 0.0 0.0 0.0 1.0 0.0 0.0 0.0 0.0 0.0 0.0 0.0 0.0 0.0 0.0 0.0 0.0 0.0 1.0 0.83</REAL-Entries>
        </REAL-SparseArray>
      </VectorInstance>
      <VectorInstance id="1_1611099">
        <REAL-SparseArray n="53">
          <Indices>1 2 3 4 5 6 7 8 9 10 11 12 13 14 15 16 17 18 19 20 21 22 23 24 25 26 27 28 29 30 31 32 33 34 35 36 37 38 39 40 41 42 43 44 45 46 47 48 49 50 51 52 53</Indices>
          <REAL-Entries>1.5000645887498694 0.5977385373807986 -0.1983193433770224 0.816663826675724 0.0 1.0 0.0 0.0 0.0 0.0 0.0 0.0 0.0 0.0 0.0 0.0 1.0 0.0 0.0 0.0 0.0 0.0 0.0 0.0 0.0 0.0 0.0 0.0 0.0 0.0 0.0 0.0 0.0 1.0 0.0 0.0 0.0 0.0 0.0 0.0 0.0 0.0 1.0 0.0 0.0 0.0 0.0 0.0 0.0 0.0 1.0 0.0 0.12</REAL-Entries>
        </REAL-SparseArray>
      </VectorInstance>
      <VectorInstance id="0_1624617">
        <REAL-SparseArray n="53">
          <Indices>1 2 3 4 5 6 7 8 9 10 11 12 13 14 15 16 17 18 19 20 21 22 23 24 25 26 27 28 29 30 31 32 33 34 35 36 37 38 39 40 41 42 43 44 45 46 47 48 49 50 51 52 53</Indices>
          <REAL-Entries>0.027825322138946618 2.564775526789809 -0.1983193433770224 -1.2403202715453334 1.0 0.0 0.0 0.0 0.0 0.0 0.0 0.0 0.0 0.0 0.0 1.0 0.0 0.0 0.0 0.0 0.0 0.0 0.0 0.0 0.0 0.0 0.0 0.0 0.0 0.0 0.0 0.0 1.0 0.0 0.0 0.0 0.0 1.0 0.0 0.0 0.0 0.0 0.0 0.0 0.0 0.0 0.0 0.0 0.0 0.0 1.0 0.0 0.69</REAL-Entries>
        </REAL-SparseArray>
      </VectorInstance>
      <VectorInstance id="0_1637260">
        <REAL-SparseArray n="53">
          <Indices>1 2 3 4 5 6 7 8 9 10 11 12 13 14 15 16 17 18 19 20 21 22 23 24 25 26 27 28 29 30 31 32 33 34 35 36 37 38 39 40 41 42 43 44 45 46 47 48 49 50 51 52 53</Indices>
          <REAL-Entries>0.10143728546949271 -0.718371138779525 -0.1983193433770224 0.816663826675724 0.0 1.0 0.0 0.0 0.0 0.0 0.0 0.0 0.0 0.0 0.0 0.0 1.0 0.0 0.0 0.0 0.0 0.0 0.0 0.0 0.0 0.0 0.0 0.0 0.0 0.0 0.0 0.0 1.0 0.0 0.0 0.0 0.0 0.0 1.0 0.0 0.0 0.0 0.0 0.0 0.0 0.0 0.0 0.0 0.0 0.0 0.0 1.0 0.32</REAL-Entries>
        </REAL-SparseArray>
      </VectorInstance>
      <VectorInstance id="1_1670669">
        <REAL-SparseArray n="53">
          <Indices>1 2 3 4 5 6 7 8 9 10 11 12 13 14 15 16 17 18 19 20 21 22 23 24 25 26 27 28 29 30 31 32 33 34 35 36 37 38 39 40 41 42 43 44 45 46 47 48 49 50 51 52 53</Indices>
          <REAL-Entries>-0.6346823478359687 -0.7010407523943569 -0.1983193433770224 1.639457465964147 1.0 0.0 0.0 0.0 0.0 0.0 0.0 0.0 0.0 0.0 0.0 1.0 0.0 0.0 0.0 0.0 0.0 0.0 0.0 0.0 0.0 0.0 0.0 0.0 0.0 0.0 0.0 0.0 1.0 0.0 0.0 0.0 0.0 0.0 0.0 0.0 1.0 0.0 0.0 0.0 0.0 0.0 0.0 0.0 0.0 0.0 0.0 1.0 0.83</REAL-Entries>
        </REAL-SparseArray>
      </VectorInstance>
      <VectorInstance id="0_1690774">
        <REAL-SparseArray n="53">
          <Indices>1 2 3 4 5 6 7 8 9 10 11 12 13 14 15 16 17 18 19 20 21 22 23 24 25 26 27 28 29 30 31 32 33 34 35 36 37 38 39 40 41 42 43 44 45 46 47 48 49 50 51 52 53</Indices>
          <REAL-Entries>-0.4138464578443304 -1.0818036629721028 -0.1983193433770224 -0.006129812612698959 1.0 0.0 0.0 0.0 0.0 0.0 0.0 0.0 0.0 0.0 0.0 0.0 1.0 0.0 0.0 0.0 0.0 0.0 0.0 0.0 0.0 0.0 0.0 0.0 0.0 0.0 0.0 0.0 1.0 0.0 0.0 0.0 0.0 0.0 0.0 0.0 0.0 0.0 1.0 0.0 0.0 0.0 0.0 0.0 0.0 0.0 0.0 1.0 0.69</REAL-Entries>
        </REAL-SparseArray>
      </VectorInstance>
      <VectorInstance id="0_1709319">
        <REAL-SparseArray n="53">
          <Indices>1 2 3 4 5 6 7 8 9 10 11 12 13 14 15 16 17 18 19 20 21 22 23 24 25 26 27 28 29 30 31 32 33 34 35 36 37 38 39 40 41 42 43 44 45 46 47 48 49 50 51 52 53</Indices>
          <REAL-Entries>0.027825322138946618 -0.8999806093736435 -0.1983193433770224 0.40526700703151297 1.0 0.0 0.0 0.0 0.0 0.0 0.0 0.0 0.0 0.0 0.0 0.0 1.0 0.0 0.0 0.0 0.0 0.0 0.0 0.0 0.0 0.0 0.0 0.0 0.0 0.0 0.0 0.0 1.0 0.0 0.0 0.0 0.0 0.0 0.0 1.0 0.0 0.0 0.0 0.0 0.0 0.0 0.0 0.0 0.0 0.0 0.0 1.0 0.69</REAL-Entries>
        </REAL-SparseArray>
      </VectorInstance>
      <VectorInstance id="0_1711915">
        <REAL-SparseArray n="53">
          <Indices>1 2 3 4 5 6 7 8 9 10 11 12 13 14 15 16 17 18 19 20 21 22 23 24 25 26 27 28 29 30 31 32 33 34 35 36 37 38 39 40 41 42 43 44 45 46 47 48 49 50 51 52 53</Indices>
          <REAL-Entries>1.720900478741508 -0.10088486267719121 -0.1983193433770224 -0.006129812612698959 0.0 0.0 0.0 0.0 1.0 0.0 0.0 0.0 0.0 0.0 0.0 0.0 1.0 0.0 0.0 0.0 0.0 0.0 0.0 0.0 0.0 0.0 0.0 0.0 0.0 0.0 0.0 1.0 0.0 0.0 0.0 0.0 0.0 0.0 0.0 0.0 0.0 0.0 1.0 0.0 0.0 0.0 0.0 0.0 0.0 0.0 0.0 1.0 0.12</REAL-Entries>
        </REAL-SparseArray>
      </VectorInstance>
      <VectorInstance id="1_1718282">
        <REAL-SparseArray n="53">
          <Indices>1 2 3 4 5 6 7 8 9 10 11 12 13 14 15 16 17 18 19 20 21 22 23 24 25 26 27 28 29 30 31 32 33 34 35 36 37 38 39 40 41 42 43 44 45 46 47 48 49 50 51 52 53</Indices>
          <REAL-Entries>0.1750492488000388 -0.9470360908034167 -0.1983193433770224 -0.006129812612698959 1.0 0.0 0.0 0.0 0.0 0.0 0.0 0.0 0.0 0.0 0.0 0.0 1.0 0.0 0.0 0.0 0.0 0.0 0.0 0.0 0.0 0.0 0.0 0.0 0.0 0.0 0.0 0.0 1.0 0.0 0.0 0.0 0.0 0.0 0.0 0.0 0.0 0.0 1.0 0.0 0.0 0.0 0.0 0.0 0.0 0.0 0.0 1.0 0.32</REAL-Entries>
        </REAL-SparseArray>
      </VectorInstance>
      <VectorInstance id="0_1718309">
        <REAL-SparseArray n="53">
          <Indices>1 2 3 4 5 6 7 8 9 10 11 12 13 14 15 16 17 18 19 20 21 22 23 24 25 26 27 28 29 30 31 32 33 34 35 36 37 38 39 40 41 42 43 44 45 46 47 48 49 50 51 52 53</Indices>
          <REAL-Entries>0.3958851387916775 2.27498475634541 -0.1983193433770224 1.639457465964147 0.0 0.0 0.0 1.0 0.0 0.0 0.0 0.0 0.0 0.0 0.0 0.0 1.0 0.0 0.0 0.0 0.0 0.0 0.0 0.0 0.0 0.0 0.0 0.0 0.0 0.0 0.0 1.0 0.0 0.0 0.0 0.0 0.0 0.0 0.0 0.0 0.0 0.0 1.0 0.0 0.0 0.0 0.0 0.0 0.0 0.0 1.0 0.0 0.32</REAL-Entries>
        </REAL-SparseArray>
      </VectorInstance>
      <VectorInstance id="0_1723024">
        <REAL-SparseArray n="53">
          <Indices>1 2 3 4 5 6 7 8 9 10 11 12 13 14 15 16 17 18 19 20 21 22 23 24 25 26 27 28 29 30 31 32 33 34 35 36 37 38 39 40 41 42 43 44 45 46 47 48 49 50 51 52 53</Indices>
          <REAL-Entries>0.2486612121305849 -0.2547509495319432 -0.1983193433770224 -0.006129812612698959 1.0 0.0 0.0 0.0 0.0 0.0 0.0 0.0 0.0 0.0 0.0 0.0 1.0 0.0 0.0 0.0 0.0 0.0 0.0 0.0 0.0 0.0 0.0 0.0 0.0 0.0 0.0 0.0 1.0 0.0 0.0 0.0 0.0 0.0 0.0 1.0 0.0 0.0 0.0 0.0 0.0 0.0 0.0 0.0 0.0 0.0 0.0 1.0 0.32</REAL-Entries>
        </REAL-SparseArray>
      </VectorInstance>
      <VectorInstance id="1_1731662">
        <REAL-SparseArray n="53">
          <Indices>1 2 3 4 5 6 7 8 9 10 11 12 13 14 15 16 17 18 19 20 21 22 23 24 25 26 27 28 29 30 31 32 33 34 35 36 37 38 39 40 41 42 43 44 45 46 47 48 49 50 51 52 53</Indices>
          <REAL-Entries>0.10143728546949271 0.8546010422494541 -0.1983193433770224 -0.006129812612698959 1.0 0.0 0.0 0.0 0.0 0.0 0.0 0.0 0.0 0.0 0.0 1.0 0.0 0.0 0.0 0.0 0.0 0.0 0.0 0.0 0.0 0.0 0.0 0.0 0.0 0.0 0.0 0.0 1.0 0.0 0.0 0.0 0.0 0.0 1.0 0.0 0.0 0.0 0.0 0.0 0.0 0.0 0.0 0.0 0.0 0.0 1.0 0.0 0.32</REAL-Entries>
        </REAL-SparseArray>
      </VectorInstance>
      <VectorInstance id="1_1742535">
        <REAL-SparseArray n="53">
          <Indices>1 2 3 4 5 6 7 8 9 10 11 12 13 14 15 16 17 18 19 20 21 22 23 24 25 26 27 28 29 30 31 32 33 34 35 36 37 38 39 40 41 42 43 44 45 46 47 48 49 50 51 52 53</Indices>
          <REAL-Entries>-0.7082943111665148 -0.43517802921030313 -0.1983193433770224 -0.006129812612698959 0.0 0.0 0.0 0.0 0.0 1.0 0.0 0.0 0.0 1.0 0.0 0.0 0.0 0.0 0.0 0.0 0.0 0.0 0.0 0.0 0.0 0.0 0.0 0.0 0.0 0.0 0.0 0.0 1.0 0.0 0.0 0.0 0.0 1.0 0.0 0.0 0.0 0.0 0.0 0.0 0.0 0.0 0.0 0.0 0.0 0.0 0.0 1.0 0.83</REAL-Entries>
        </REAL-SparseArray>
      </VectorInstance>
      <VectorInstance id="1_1747347">
        <REAL-SparseArray n="53">
          <Indices>1 2 3 4 5 6 7 8 9 10 11 12 13 14 15 16 17 18 19 20 21 22 23 24 25 26 27 28 29 30 31 32 33 34 35 36 37 38 39 40 41 42 43 44 45 46 47 48 49 50 51 52 53</Indices>
          <REAL-Entries>1.205616735427685 -0.5585093590194622 -0.1983193433770224 -0.006129812612698959 0.0 0.0 0.0 0.0 0.0 1.0 0.0 0.0 0.0 1.0 0.0 0.0 0.0 0.0 0.0 0.0 0.0 0.0 0.0 0.0 0.0 0.0 0.0 0.0 0.0 0.0 0.0 0.0 1.0 0.0 0.0 0.0 0.0 1.0 0.0 0.0 0.0 0.0 0.0 0.0 0.0 0.0 0.0 0.0 0.0 0.0 0.0 1.0 0.32</REAL-Entries>
        </REAL-SparseArray>
      </VectorInstance>
      <VectorInstance id="0_1761439">
        <REAL-SparseArray n="53">
          <Indices>1 2 3 4 5 6 7 8 9 10 11 12 13 14 15 16 17 18 19 20 21 22 23 24 25 26 27 28 29 30 31 32 33 34 35 36 37 38 39 40 41 42 43 44 45 46 47 48 49 50 51 52 53</Indices>
          <REAL-Entries>0.4694971021222236 0.7069478221416825 -0.1983193433770224 -0.006129812612698959 0.0 0.0 0.0 1.0 0.0 0.0 0.0 0.0 0.0 0.0 0.0 0.0 0.0 0.0 0.0 1.0 0.0 0.0 0.0 0.0 0.0 0.0 0.0 0.0 0.0 0.0 0.0 1.0 0.0 0.0 0.0 0.0 0.0 0.0 0.0 0.0 0.0 0.0 1.0 0.0 0.0 0.0 0.0 0.0 0.0 0.0 1.0 0.0 0.32</REAL-Entries>
        </REAL-SparseArray>
      </VectorInstance>
      <VectorInstance id="0_1767024">
        <REAL-SparseArray n="53">
          <Indices>1 2 3 4 5 6 7 8 9 10 11 12 13 14 15 16 17 18 19 20 21 22 23 24 25 26 27 28 29 30 31 32 33 34 35 36 37 38 39 40 41 42 43 44 45 46 47 48 49 50 51 52 53</Indices>
          <REAL-Entries>-0.6346823478359687 -0.4031161608653483 -0.1983193433770224 0.816663826675724 1.0 0.0 0.0 0.0 0.0 0.0 0.0 0.0 0.0 0.0 0.0 1.0 0.0 0.0 0.0 0.0 0.0 0.0 0.0 0.0 0.0 0.0 0.0 0.0 0.0 0.0 0.0 0.0 1.0 0.0 0.0 0.0 0.0 0.0 0.0 1.0 0.0 0.0 0.0 0.0 0.0 0.0 0.0 0.0 0.0 0.0 0.0 1.0 0.83</REAL-Entries>
        </REAL-SparseArray>
      </VectorInstance>
      <VectorInstance id="1_1770057">
        <REAL-SparseArray n="53">
          <Indices>1 2 3 4 5 6 7 8 9 10 11 12 13 14 15 16 17 18 19 20 21 22 23 24 25 26 27 28 29 30 31 32 33 34 35 36 37 38 39 40 41 42 43 44 45 46 47 48 49 50 51 52 53</Indices>
          <REAL-Entries>-0.3402344945137843 -1.1514177899383584 -0.1983193433770224 -0.006129812612698959 1.0 0.0 0.0 0.0 0.0 0.0 0.0 0.0 0.0 0.0 0.0 1.0 0.0 0.0 0.0 0.0 0.0 0.0 0.0 0.0 0.0 0.0 0.0 0.0 0.0 0.0 0.0 0.0 1.0 0.0 0.0 0.0 0.0 0.0 0.0 1.0 0.0 0.0 0.0 0.0 0.0 0.0 0.0 0.0 0.0 0.0 0.0 1.0 0.69</REAL-Entries>
        </REAL-SparseArray>
      </VectorInstance>
      <VectorInstance id="1_1777740">
        <REAL-SparseArray n="53">
          <Indices>1 2 3 4 5 6 7 8 9 10 11 12 13 14 15 16 17 18 19 20 21 22 23 24 25 26 27 28 29 30 31 32 33 34 35 36 37 38 39 40 41 42 43 44 45 46 47 48 49 50 51 52 53</Indices>
          <REAL-Entries>0.5431090654527697 -0.7432233239349134 -0.1983193433770224 0.40526700703151297 1.0 0.0 0.0 0.0 0.0 0.0 0.0 0.0 0.0 0.0 0.0 1.0 0.0 0.0 0.0 0.0 0.0 0.0 0.0 0.0 0.0 0.0 0.0 0.0 0.0 0.0 0.0 0.0 1.0 0.0 0.0 0.0 0.0 0.0 0.0 0.0 0.0 1.0 0.0 0.0 0.0 0.0 0.0 0.0 0.0 0.0 0.0 1.0 0.32</REAL-Entries>
        </REAL-SparseArray>
      </VectorInstance>
      <VectorInstance id="1_1782051">
        <REAL-SparseArray n="53">
          <Indices>1 2 3 4 5 6 7 8 9 10 11 12 13 14 15 16 17 18 19 20 21 22 23 24 25 26 27 28 29 30 31 32 33 34 35 36 37 38 39 40 41 42 43 44 45 46 47 48 49 50 51 52 53</Indices>
          <REAL-Entries>1.132004772097139 -0.18633515679918822 -0.1983193433770224 0.816663826675724 0.0 0.0 0.0 0.0 1.0 0.0 0.0 0.0 0.0 0.0 0.0 0.0 0.0 0.0 0.0 0.0 0.0 0.0 1.0 0.0 0.0 0.0 0.0 0.0 0.0 0.0 1.0 0.0 0.0 0.0 0.0 0.0 0.0 0.0 0.0 1.0 0.0 0.0 0.0 0.0 0.0 0.0 0.0 0.0 0.0 0.0 1.0 0.0 0.32</REAL-Entries>
        </REAL-SparseArray>
      </VectorInstance>
      <VectorInstance id="1_1797150">
        <REAL-SparseArray n="53">
          <Indices>1 2 3 4 5 6 7 8 9 10 11 12 13 14 15 16 17 18 19 20 21 22 23 24 25 26 27 28 29 30 31 32 33 34 35 36 37 38 39 40 41 42 43 44 45 46 47 48 49 50 51 52 53</Indices>
          <REAL-Entries>2.309796185385877 -0.17196520034170515 -0.1983193433770224 -0.006129812612698959 1.0 0.0 0.0 0.0 0.0 0.0 0.0 0.0 0.0 0.0 0.0 0.0 1.0 0.0 0.0 0.0 0.0 0.0 0.0 0.0 0.0 0.0 0.0 0.0 0.0 0.0 0.0 0.0 1.0 0.0 0.0 0.0 0.0 0.0 0.0 0.0 0.0 0.0 0.0 0.0 1.0 0.0 0.0 0.0 0.0 0.0 0.0 1.0 0.12</REAL-Entries>
        </REAL-SparseArray>
      </VectorInstance>
      <VectorInstance id="0_1827120">
        <REAL-SparseArray n="53">
          <Indices>1 2 3 4 5 6 7 8 9 10 11 12 13 14 15 16 17 18 19 20 21 22 23 24 25 26 27 28 29 30 31 32 33 34 35 36 37 38 39 40 41 42 43 44 45 46 47 48 49 50 51 52 53</Indices>
          <REAL-Entries>-0.2666225311832382 -0.6025667785463403 -0.1983193433770224 0.816663826675724 0.0 0.0 1.0 0.0 0.0 0.0 0.0 0.0 0.0 0.0 0.0 0.0 1.0 0.0 0.0 0.0 0.0 0.0 0.0 0.0 0.0 0.0 0.0 0.0 0.0 1.0 0.0 0.0 0.0 0.0 0.0 0.0 0.0 0.0 0.0 0.0 0.0 0.0 1.0 0.0 0.0 0.0 0.0 0.0 0.0 0.0 1.0 0.0 0.69</REAL-Entries>
        </REAL-SparseArray>
      </VectorInstance>
      <VectorInstance id="1_1839135">
        <REAL-SparseArray n="53">
          <Indices>1 2 3 4 5 6 7 8 9 10 11 12 13 14 15 16 17 18 19 20 21 22 23 24 25 26 27 28 29 30 31 32 33 34 35 36 37 38 39 40 41 42 43 44 45 46 47 48 49 50 51 52 53</Indices>
          <REAL-Entries>1.0583928087665928 -0.7811720109973576 -0.1983193433770224 1.639457465964147 1.0 0.0 0.0 0.0 0.0 0.0 0.0 0.0 0.0 0.0 0.0 1.0 0.0 0.0 0.0 0.0 0.0 0.0 0.0 0.0 0.0 0.0 0.0 0.0 0.0 0.0 0.0 0.0 1.0 0.0 0.0 0.0 0.0 0.0 0.0 1.0 0.0 0.0 0.0 0.0 0.0 0.0 0.0 0.0 0.0 0.0 0.0 1.0 0.32</REAL-Entries>
        </REAL-SparseArray>
      </VectorInstance>
      <VectorInstance id="0_1841487">
        <REAL-SparseArray n="53">
          <Indices>1 2 3 4 5 6 7 8 9 10 11 12 13 14 15 16 17 18 19 20 21 22 23 24 25 26 27 28 29 30 31 32 33 34 35 36 37 38 39 40 41 42 43 44 45 46 47 48 49 50 51 52 53</Indices>
          <REAL-Entries>-0.6346823478359687 -0.9068547647231695 -0.1983193433770224 -1.3225996354741756 1.0 0.0 0.0 0.0 0.0 0.0 0.0 0.0 0.0 0.0 0.0 0.0 0.0 0.0 1.0 0.0 0.0 0.0 0.0 0.0 0.0 0.0 0.0 0.0 0.0 0.0 0.0 0.0 1.0 0.0 0.0 0.0 0.0 1.0 0.0 0.0 0.0 0.0 0.0 0.0 0.0 0.0 0.0 0.0 0.0 0.0 1.0 0.0 0.83</REAL-Entries>
        </REAL-SparseArray>
      </VectorInstance>
      <VectorInstance id="1_1860764">
        <REAL-SparseArray n="53">
          <Indices>1 2 3 4 5 6 7 8 9 10 11 12 13 14 15 16 17 18 19 20 21 22 23 24 25 26 27 28 29 30 31 32 33 34 35 36 37 38 39 40 41 42 43 44 45 46 47 48 49 50 51 52 53</Indices>
          <REAL-Entries>0.3958851387916775 -0.5685520692282737 -0.1983193433770224 0.816663826675724 0.0 1.0 0.0 0.0 0.0 0.0 0.0 0.0 0.0 0.0 0.0 1.0 0.0 0.0 0.0 0.0 0.0 0.0 0.0 0.0 0.0 0.0 0.0 0.0 0.0 0.0 0.0 0.0 1.0 0.0 0.0 0.0 0.0 0.0 1.0 0.0 0.0 0.0 0.0 0.0 0.0 0.0 0.0 0.0 0.0 0.0 0.0 1.0 0.32</REAL-Entries>
        </REAL-SparseArray>
      </VectorInstance>
      <VectorInstance id="0_1861969">
        <REAL-SparseArray n="53">
          <Indices>1 2 3 4 5 6 7 8 9 10 11 12 13 14 15 16 17 18 19 20 21 22 23 24 25 26 27 28 29 30 31 32 33 34 35 36 37 38 39 40 41 42 43 44 45 46 47 48 49 50 51 52 53</Indices>
          <REAL-Entries>-0.3402344945137843 -0.20184254688906833 -0.1983193433770224 -0.006129812612698959 1.0 0.0 0.0 0.0 0.0 0.0 0.0 0.0 0.0 0.0 0.0 0.0 0.0 0.0 0.0 0.0 0.0 0.0 0.0 0.0 0.0 1.0 0.0 0.0 0.0 0.0 1.0 0.0 0.0 0.0 0.0 0.0 0.0 0.0 0.0 0.0 0.0 0.0 1.0 0.0 0.0 0.0 0.0 0.0 0.0 0.0 1.0 0.0 0.69</REAL-Entries>
        </REAL-SparseArray>
      </VectorInstance>
      <VectorInstance id="1_1877898">
        <REAL-SparseArray n="53">
          <Indices>1 2 3 4 5 6 7 8 9 10 11 12 13 14 15 16 17 18 19 20 21 22 23 24 25 26 27 28 29 30 31 32 33 34 35 36 37 38 39 40 41 42 43 44 45 46 47 48 49 50 51 52 53</Indices>
          <REAL-Entries>2.5306320753775156 -0.9204054357356224 -0.1983193433770224 0.816663826675724 0.0 0.0 1.0 0.0 0.0 0.0 0.0 0.0 0.0 0.0 0.0 0.0 1.0 0.0 0.0 0.0 0.0 0.0 0.0 0.0 0.0 0.0 0.0 0.0 0.0 0.0 0.0 0.0 1.0 0.0 0.0 0.0 0.0 0.0 0.0 0.0 0.0 1.0 0.0 0.0 0.0 0.0 0.0 0.0 0.0 0.0 0.0 1.0 0.12</REAL-Entries>
        </REAL-SparseArray>
      </VectorInstance>
      <VectorInstance id="0_1950125">
        <REAL-SparseArray n="53">
          <Indices>1 2 3 4 5 6 7 8 9 10 11 12 13 14 15 16 17 18 19 20 21 22 23 24 25 26 27 28 29 30 31 32 33 34 35 36 37 38 39 40 41 42 43 44 45 46 47 48 49 50 51 52 53</Indices>
          <REAL-Entries>0.10143728546949271 3.0392285540921193 -0.1983193433770224 -0.006129812612698959 0.0 0.0 0.0 1.0 0.0 0.0 0.0 0.0 0.0 0.0 0.0 0.0 1.0 0.0 0.0 0.0 0.0 0.0 0.0 0.0 0.0 0.0 0.0 0.0 0.0 0.0 0.0 1.0 0.0 0.0 0.0 0.0 0.0 0.0 0.0 0.0 0.0 0.0 1.0 0.0 0.0 0.0 0.0 0.0 0.0 0.0 1.0 0.0 0.32</REAL-Entries>
        </REAL-SparseArray>
      </VectorInstance>
      <VectorInstance id="1_1965508">
        <REAL-SparseArray n="53">
          <Indices>1 2 3 4 5 6 7 8 9 10 11 12 13 14 15 16 17 18 19 20 21 22 23 24 25 26 27 28 29 30 31 32 33 34 35 36 37 38 39 40 41 42 43 44 45 46 47 48 49 50 51 52 53</Indices>
          <REAL-Entries>1.573676552080416 2.1684971826465658 -0.1983193433770224 -2.0631139108337564 0.0 0.0 1.0 0.0 0.0 0.0 0.0 0.0 0.0 0.0 0.0 1.0 0.0 0.0 0.0 0.0 0.0 0.0 0.0 0.0 0.0 0.0 0.0 0.0 0.0 0.0 0.0 0.0 1.0 0.0 0.0 0.0 0.0 1.0 0.0 0.0 0.0 0.0 0.0 0.0 0.0 0.0 0.0 0.0 0.0 0.0 1.0 0.0 0.12</REAL-Entries>
        </REAL-SparseArray>
      </VectorInstance>
      <VectorInstance id="1_1972687">
        <REAL-SparseArray n="53">
          <Indices>1 2 3 4 5 6 7 8 9 10 11 12 13 14 15 16 17 18 19 20 21 22 23 24 25 26 27 28 29 30 31 32 33 34 35 36 37 38 39 40 41 42 43 44 45 46 47 48 49 50 51 52 53</Indices>
          <REAL-Entries>-0.5610703845054226 -0.6842232812132917 -0.1983193433770224 -0.006129812612698959 1.0 0.0 0.0 0.0 0.0 0.0 0.0 0.0 0.0 1.0 0.0 0.0 0.0 0.0 0.0 0.0 0.0 0.0 0.0 0.0 0.0 0.0 0.0 0.0 0.0 0.0 0.0 0.0 1.0 0.0 0.0 0.0 0.0 0.0 1.0 0.0 0.0 0.0 0.0 0.0 0.0 0.0 0.0 0.0 0.0 0.0 0.0 1.0 0.83</REAL-Entries>
        </REAL-SparseArray>
      </VectorInstance>
      <VectorInstance id="1_1980500">
        <REAL-SparseArray n="53">
          <Indices>1 2 3 4 5 6 7 8 9 10 11 12 13 14 15 16 17 18 19 20 21 22 23 24 25 26 27 28 29 30 31 32 33 34 35 36 37 38 39 40 41 42 43 44 45 46 47 48 49 50 51 52 53</Indices>
          <REAL-Entries>2.604244038708062 -0.6326380303094801 -0.1983193433770224 -1.2403202715453334 0.0 1.0 0.0 0.0 0.0 0.0 0.0 0.0 0.0 0.0 0.0 0.0 0.0 0.0 0.0 0.0 0.0 0.0 1.0 0.0 0.0 0.0 0.0 0.0 0.0 0.0 0.0 0.0 0.0 0.0 1.0 0.0 0.0 0.0 0.0 0.0 0.0 0.0 1.0 0.0 0.0 0.0 0.0 0.0 0.0 0.0 0.0 1.0 0.12</REAL-Entries>
        </REAL-SparseArray>
      </VectorInstance>
      <VectorInstance id="0_1985107">
        <REAL-SparseArray n="53">
          <Indices>1 2 3 4 5 6 7 8 9 10 11 12 13 14 15 16 17 18 19 20 21 22 23 24 25 26 27 28 29 30 31 32 33 34 35 36 37 38 39 40 41 42 43 44 45 46 47 48 49 50 51 52 53</Indices>
          <REAL-Entries>0.027825322138946618 -0.39417583771660103 -0.1983193433770224 0.40526700703151297 1.0 0.0 0.0 0.0 0.0 0.0 0.0 0.0 0.0 0.0 0.0 0.0 1.0 0.0 0.0 0.0 0.0 0.0 0.0 0.0 0.0 0.0 0.0 0.0 0.0 0.0 1.0 0.0 0.0 0.0 0.0 0.0 0.0 0.0 0.0 1.0 0.0 0.0 0.0 0.0 0.0 0.0 0.0 0.0 0.0 0.0 0.0 1.0 0.69</REAL-Entries>
        </REAL-SparseArray>
      </VectorInstance>
      <VectorInstance id="0_1997523">
        <REAL-SparseArray n="53">
          <Indices>1 2 3 4 5 6 7 8 9 10 11 12 13 14 15 16 17 18 19 20 21 22 23 24 25 26 27 28 29 30 31 32 33 34 35 36 37 38 39 40 41 42 43 44 45 46 47 48 49 50 51 52 53</Indices>
          <REAL-Entries>0.10143728546949271 -0.7834865211062663 -0.1983193433770224 1.639457465964147 0.0 0.0 1.0 0.0 0.0 0.0 0.0 0.0 0.0 0.0 0.0 0.0 1.0 0.0 0.0 0.0 0.0 0.0 0.0 0.0 0.0 0.0 0.0 0.0 0.0 0.0 0.0 0.0 1.0 0.0 0.0 0.0 0.0 0.0 0.0 0.0 0.0 0.0 1.0 0.0 0.0 0.0 0.0 0.0 0.0 0.0 0.0 1.0 0.32</REAL-Entries>
        </REAL-SparseArray>
      </VectorInstance>
      <VectorInstance id="0_2023005">
        <REAL-SparseArray n="53">
          <Indices>1 2 3 4 5 6 7 8 9 10 11 12 13 14 15 16 17 18 19 20 21 22 23 24 25 26 27 28 29 30 31 32 33 34 35 36 37 38 39 40 41 42 43 44 45 46 47 48 49 50 51 52 53</Indices>
          <REAL-Entries>1.3528406620887772 -1.1676890229449057 -0.1983193433770224 -0.006129812612698959 0.0 0.0 1.0 0.0 0.0 0.0 0.0 0.0 0.0 1.0 0.0 0.0 0.0 0.0 0.0 0.0 0.0 0.0 0.0 0.0 0.0 0.0 0.0 0.0 0.0 0.0 0.0 0.0 1.0 0.0 0.0 0.0 0.0 0.0 0.0 1.0 0.0 0.0 0.0 0.0 0.0 0.0 0.0 0.0 0.0 0.0 0.0 1.0 0.12</REAL-Entries>
        </REAL-SparseArray>
      </VectorInstance>
      <VectorInstance id="0_2042579">
        <REAL-SparseArray n="53">
          <Indices>1 2 3 4 5 6 7 8 9 10 11 12 13 14 15 16 17 18 19 20 21 22 23 24 25 26 27 28 29 30 31 32 33 34 35 36 37 38 39 40 41 42 43 44 45 46 47 48 49 50 51 52 53</Indices>
          <REAL-Entries>0.8375569187749541 -0.7359500111078736 -0.1983193433770224 1.639457465964147 1.0 0.0 0.0 0.0 0.0 0.0 0.0 0.0 0.0 1.0 0.0 0.0 0.0 0.0 0.0 0.0 0.0 0.0 0.0 0.0 0.0 0.0 0.0 0.0 0.0 0.0 0.0 0.0 1.0 0.0 0.0 0.0 0.0 0.0 0.0 0.0 0.0 1.0 0.0 0.0 0.0 0.0 0.0 0.0 0.0 0.0 0.0 1.0 0.32</REAL-Entries>
        </REAL-SparseArray>
      </VectorInstance>
      <VectorInstance id="1_2049462">
        <REAL-SparseArray n="53">
          <Indices>1 2 3 4 5 6 7 8 9 10 11 12 13 14 15 16 17 18 19 20 21 22 23 24 25 26 27 28 29 30 31 32 33 34 35 36 37 38 39 40 41 42 43 44 45 46 47 48 49 50 51 52 53</Indices>
          <REAL-Entries>1.4264526254193237 -0.6825459292800761 -0.1983193433770224 -0.006129812612698959 1.0 0.0 0.0 0.0 0.0 0.0 0.0 0.0 0.0 0.0 0.0 1.0 0.0 0.0 0.0 0.0 0.0 0.0 0.0 0.0 0.0 0.0 0.0 0.0 0.0 0.0 0.0 0.0 1.0 0.0 0.0 0.0 1.0 0.0 0.0 0.0 0.0 0.0 0.0 0.0 0.0 0.0 0.0 0.0 0.0 0.0 0.0 1.0 0.12</REAL-Entries>
        </REAL-SparseArray>
      </VectorInstance>
      <VectorInstance id="0_2062685">
        <REAL-SparseArray n="53">
          <Indices>1 2 3 4 5 6 7 8 9 10 11 12 13 14 15 16 17 18 19 20 21 22 23 24 25 26 27 28 29 30 31 32 33 34 35 36 37 38 39 40 41 42 43 44 45 46 47 48 49 50 51 52 53</Indices>
          <REAL-Entries>0.10143728546949271 -0.649871607720253 -0.1983193433770224 -0.006129812612698959 1.0 0.0 0.0 0.0 0.0 0.0 0.0 0.0 0.0 1.0 0.0 0.0 0.0 0.0 0.0 0.0 0.0 0.0 0.0 0.0 0.0 0.0 0.0 0.0 0.0 0.0 0.0 0.0 1.0 0.0 0.0 0.0 0.0 0.0 0.0 0.0 1.0 0.0 0.0 0.0 0.0 0.0 0.0 0.0 0.0 0.0 0.0 1.0 0.32</REAL-Entries>
        </REAL-SparseArray>
      </VectorInstance>
      <VectorInstance id="1_2077101">
        <REAL-SparseArray n="53">
          <Indices>1 2 3 4 5 6 7 8 9 10 11 12 13 14 15 16 17 18 19 20 21 22 23 24 25 26 27 28 29 30 31 32 33 34 35 36 37 38 39 40 41 42 43 44 45 46 47 48 49 50 51 52 53</Indices>
          <REAL-Entries>0.1750492488000388 -1.034697048018762 -0.1983193433770224 0.1584289152449858 1.0 0.0 0.0 0.0 0.0 0.0 0.0 0.0 0.0 1.0 0.0 0.0 0.0 0.0 0.0 0.0 0.0 0.0 0.0 0.0 0.0 0.0 0.0 0.0 0.0 0.0 0.0 0.0 1.0 0.0 0.0 0.0 0.0 0.0 0.0 0.0 1.0 0.0 0.0 0.0 0.0 0.0 0.0 0.0 0.0 0.0 0.0 1.0 0.32</REAL-Entries>
        </REAL-SparseArray>
      </VectorInstance>
      <VectorInstance id="0_2109381">
        <REAL-SparseArray n="53">
          <Indices>1 2 3 4 5 6 7 8 9 10 11 12 13 14 15 16 17 18 19 20 21 22 23 24 25 26 27 28 29 30 31 32 33 34 35 36 37 38 39 40 41 42 43 44 45 46 47 48 49 50 51 52 53</Indices>
          <REAL-Entries>0.3958851387916775 -0.6999607721592269 -0.1983193433770224 0.07614955131614343 1.0 0.0 0.0 0.0 0.0 0.0 0.0 0.0 0.0 0.0 0.0 1.0 0.0 0.0 0.0 0.0 0.0 0.0 0.0 0.0 0.0 0.0 0.0 0.0 0.0 0.0 0.0 0.0 1.0 0.0 0.0 0.0 0.0 0.0 1.0 0.0 0.0 0.0 0.0 0.0 0.0 0.0 0.0 0.0 0.0 0.0 0.0 1.0 0.32</REAL-Entries>
        </REAL-SparseArray>
      </VectorInstance>
      <VectorInstance id="1_2109898">
        <REAL-SparseArray n="53">
          <Indices>1 2 3 4 5 6 7 8 9 10 11 12 13 14 15 16 17 18 19 20 21 22 23 24 25 26 27 28 29 30 31 32 33 34 35 36 37 38 39 40 41 42 43 44 45 46 47 48 49 50 51 52 53</Indices>
          <REAL-Entries>0.9111688821055002 -0.604122903811322 -0.1983193433770224 0.6521050988180397 1.0 0.0 0.0 0.0 0.0 0.0 0.0 0.0 0.0 1.0 0.0 0.0 0.0 0.0 0.0 0.0 0.0 0.0 0.0 0.0 0.0 0.0 0.0 0.0 0.0 0.0 0.0 0.0 1.0 0.0 0.0 0.0 0.0 0.0 1.0 0.0 0.0 0.0 0.0 0.0 0.0 0.0 0.0 0.0 0.0 0.0 0.0 1.0 0.32</REAL-Entries>
        </REAL-SparseArray>
      </VectorInstance>
      <VectorInstance id="1_2134665">
        <REAL-SparseArray n="53">
          <Indices>1 2 3 4 5 6 7 8 9 10 11 12 13 14 15 16 17 18 19 20 21 22 23 24 25 26 27 28 29 30 31 32 33 34 35 36 37 38 39 40 41 42 43 44 45 46 47 48 49 50 51 52 53</Indices>
          <REAL-Entries>0.1750492488000388 1.5470803760036904 -0.1983193433770224 -0.006129812612698959 1.0 0.0 0.0 0.0 0.0 0.0 0.0 0.0 0.0 1.0 0.0 0.0 0.0 0.0 0.0 0.0 0.0 0.0 0.0 0.0 0.0 0.0 0.0 0.0 0.0 0.0 0.0 0.0 1.0 0.0 0.0 0.0 0.0 0.0 0.0 1.0 0.0 0.0 0.0 0.0 0.0 0.0 0.0 0.0 0.0 0.0 0.0 1.0 0.32</REAL-Entries>
        </REAL-SparseArray>
      </VectorInstance>
      <VectorInstance id="1_2137895">
        <REAL-SparseArray n="53">
          <Indices>1 2 3 4 5 6 7 8 9 10 11 12 13 14 15 16 17 18 19 20 21 22 23 24 25 26 27 28 29 30 31 32 33 34 35 36 37 38 39 40 41 42 43 44 45 46 47 48 49 50 51 52 53</Indices>
          <REAL-Entries>0.763944955444408 1.5001241453176968 -0.1983193433770224 2.050854285608359 0.0 0.0 1.0 0.0 0.0 0.0 0.0 0.0 0.0 1.0 0.0 0.0 0.0 0.0 0.0 0.0 0.0 0.0 0.0 0.0 0.0 0.0 0.0 0.0 0.0 0.0 0.0 0.0 1.0 0.0 0.0 0.0 0.0 0.0 0.0 0.0 0.0 0.0 1.0 0.0 0.0 0.0 0.0 0.0 0.0 0.0 1.0 0.0 0.32</REAL-Entries>
        </REAL-SparseArray>
      </VectorInstance>
      <VectorInstance id="1_2179519">
        <REAL-SparseArray n="53">
          <Indices>1 2 3 4 5 6 7 8 9 10 11 12 13 14 15 16 17 18 19 20 21 22 23 24 25 26 27 28 29 30 31 32 33 34 35 36 37 38 39 40 41 42 43 44 45 46 47 48 49 50 51 52 53</Indices>
          <REAL-Entries>1.205616735427685 -0.7860003945036922 -0.1983193433770224 0.40526700703151297 1.0 0.0 0.0 0.0 0.0 0.0 0.0 0.0 0.0 0.0 0.0 1.0 0.0 0.0 0.0 0.0 0.0 0.0 0.0 0.0 0.0 0.0 0.0 0.0 0.0 0.0 0.0 0.0 1.0 0.0 0.0 0.0 0.0 0.0 0.0 0.0 0.0 0.0 0.0 0.0 0.0 1.0 0.0 0.0 0.0 0.0 0.0 1.0 0.32</REAL-Entries>
        </REAL-SparseArray>
      </VectorInstance>
      <VectorInstance id="0_2204629">
        <REAL-SparseArray n="53">
          <Indices>1 2 3 4 5 6 7 8 9 10 11 12 13 14 15 16 17 18 19 20 21 22 23 24 25 26 27 28 29 30 31 32 33 34 35 36 37 38 39 40 41 42 43 44 45 46 47 48 49 50 51 52 53</Indices>
          <REAL-Entries>-0.4138464578443304 -0.8200722699520395 -0.1983193433770224 -0.006129812612698959 1.0 0.0 0.0 0.0 0.0 0.0 0.0 0.0 0.0 1.0 0.0 0.0 0.0 0.0 0.0 0.0 0.0 0.0 0.0 0.0 0.0 0.0 0.0 0.0 0.0 0.0 0.0 0.0 1.0 0.0 0.0 0.0 0.0 0.0 0.0 0.0 0.0 0.0 1.0 0.0 0.0 0.0 0.0 0.0 0.0 0.0 0.0 1.0 0.69</REAL-Entries>
        </REAL-SparseArray>
      </VectorInstance>
      <VectorInstance id="1_2206284">
        <REAL-SparseArray n="53">
          <Indices>1 2 3 4 5 6 7 8 9 10 11 12 13 14 15 16 17 18 19 20 21 22 23 24 25 26 27 28 29 30 31 32 33 34 35 36 37 38 39 40 41 42 43 44 45 46 47 48 49 50 51 52 53</Indices>
          <REAL-Entries>-0.6346823478359687 -0.7944036720214844 5.22573255313373 -0.006129812612698959 1.0 0.0 0.0 0.0 0.0 0.0 0.0 0.0 0.0 0.0 0.0 1.0 0.0 0.0 0.0 0.0 0.0 0.0 0.0 0.0 0.0 0.0 0.0 0.0 0.0 0.0 0.0 0.0 1.0 0.0 0.0 0.0 0.0 0.0 1.0 0.0 0.0 0.0 0.0 0.0 0.0 0.0 0.0 0.0 0.0 0.0 0.0 1.0 0.83</REAL-Entries>
        </REAL-SparseArray>
      </VectorInstance>
      <VectorInstance id="1_2206428">
        <REAL-SparseArray n="53">
          <Indices>1 2 3 4 5 6 7 8 9 10 11 12 13 14 15 16 17 18 19 20 21 22 23 24 25 26 27 28 29 30 31 32 33 34 35 36 37 38 39 40 41 42 43 44 45 46 47 48 49 50 51 52 53</Indices>
          <REAL-Entries>0.9111688821055002 -0.9248233147184829 -0.1983193433770224 0.816663826675724 1.0 0.0 0.0 0.0 0.0 0.0 0.0 0.0 0.0 0.0 0.0 0.0 0.0 0.0 1.0 0.0 0.0 0.0 0.0 0.0 0.0 0.0 0.0 0.0 0.0 0.0 0.0 0.0 1.0 0.0 0.0 0.0 0.0 0.0 0.0 1.0 0.0 0.0 0.0 0.0 0.0 0.0 0.0 0.0 0.0 0.0 0.0 1.0 0.32</REAL-Entries>
        </REAL-SparseArray>
      </VectorInstance>
      <VectorInstance id="0_2243150">
        <REAL-SparseArray n="53">
          <Indices>1 2 3 4 5 6 7 8 9 10 11 12 13 14 15 16 17 18 19 20 21 22 23 24 25 26 27 28 29 30 31 32 33 34 35 36 37 38 39 40 41 42 43 44 45 46 47 48 49 50 51 52 53</Indices>
          <REAL-Entries>0.4694971021222236 -1.053049099440834 -0.1983193433770224 0.816663826675724 0.0 1.0 0.0 0.0 0.0 0.0 0.0 0.0 0.0 0.0 0.0 1.0 0.0 0.0 0.0 0.0 0.0 0.0 0.0 0.0 0.0 0.0 0.0 0.0 0.0 0.0 0.0 0.0 1.0 0.0 0.0 0.0 0.0 0.0 0.0 1.0 0.0 0.0 0.0 0.0 0.0 0.0 0.0 0.0 0.0 0.0 0.0 1.0 0.32</REAL-Entries>
        </REAL-SparseArray>
      </VectorInstance>
      <VectorInstance id="0_2245751">
        <REAL-SparseArray n="53">
          <Indices>1 2 3 4 5 6 7 8 9 10 11 12 13 14 15 16 17 18 19 20 21 22 23 24 25 26 27 28 29 30 31 32 33 34 35 36 37 38 39 40 41 42 43 44 45 46 47 48 49 50 51 52 53</Indices>
          <REAL-Entries>-0.8555182378276072 -0.36434962469280574 -0.1983193433770224 0.816663826675724 1.0 0.0 0.0 0.0 0.0 0.0 0.0 0.0 0.0 1.0 0.0 0.0 0.0 0.0 0.0 0.0 0.0 0.0 0.0 0.0 0.0 0.0 0.0 0.0 0.0 0.0 0.0 0.0 1.0 0.0 0.0 0.0 0.0 0.0 0.0 0.0 0.0 1.0 0.0 0.0 0.0 0.0 0.0 0.0 0.0 0.0 0.0 1.0 0.83</REAL-Entries>
        </REAL-SparseArray>
      </VectorInstance>
      <VectorInstance id="1_2293213">
        <REAL-SparseArray n="53">
          <Indices>1 2 3 4 5 6 7 8 9 10 11 12 13 14 15 16 17 18 19 20 21 22 23 24 25 26 27 28 29 30 31 32 33 34 35 36 37 38 39 40 41 42 43 44 45 46 47 48 49 50 51 52 53</Indices>
          <REAL-Entries>0.6167210287833158 0.8853592930104164 -0.1983193433770224 -0.006129812612698959 0.0 0.0 0.0 0.0 1.0 0.0 0.0 0.0 0.0 0.0 0.0 1.0 0.0 0.0 0.0 0.0 0.0 0.0 0.0 0.0 0.0 0.0 0.0 0.0 0.0 0.0 0.0 0.0 1.0 0.0 0.0 0.0 0.0 1.0 0.0 0.0 0.0 0.0 0.0 0.0 0.0 0.0 0.0 0.0 0.0 0.0 1.0 0.0 0.32</REAL-Entries>
        </REAL-SparseArray>
      </VectorInstance>
      <VectorInstance id="1_2305277">
        <REAL-SparseArray n="53">
          <Indices>1 2 3 4 5 6 7 8 9 10 11 12 13 14 15 16 17 18 19 20 21 22 23 24 25 26 27 28 29 30 31 32 33 34 35 36 37 38 39 40 41 42 43 44 45 46 47 48 49 50 51 52 53</Indices>
          <REAL-Entries>0.4694971021222236 -0.8601925517976903 -0.1983193433770224 -0.006129812612698959 0.0 1.0 0.0 0.0 0.0 0.0 0.0 0.0 0.0 0.0 0.0 0.0 1.0 0.0 0.0 0.0 0.0 0.0 0.0 0.0 0.0 0.0 0.0 0.0 0.0 0.0 0.0 0.0 1.0 0.0 0.0 0.0 1.0 0.0 0.0 0.0 0.0 0.0 0.0 0.0 0.0 0.0 0.0 0.0 0.0 0.0 0.0 1.0 0.32</REAL-Entries>
        </REAL-SparseArray>
      </VectorInstance>
      <VectorInstance id="1_2314294">
        <REAL-SparseArray n="53">
          <Indices>1 2 3 4 5 6 7 8 9 10 11 12 13 14 15 16 17 18 19 20 21 22 23 24 25 26 27 28 29 30 31 32 33 34 35 36 37 38 39 40 41 42 43 44 45 46 47 48 49 50 51 52 53</Indices>
          <REAL-Entries>0.027825322138946618 -0.12597102679295036 -0.1983193433770224 0.816663826675724 1.0 0.0 0.0 0.0 0.0 0.0 0.0 0.0 0.0 0.0 0.0 0.0 0.0 0.0 0.0 1.0 0.0 0.0 0.0 0.0 0.0 0.0 0.0 0.0 0.0 0.0 1.0 0.0 0.0 0.0 0.0 0.0 0.0 0.0 0.0 1.0 0.0 0.0 0.0 0.0 0.0 0.0 0.0 0.0 0.0 0.0 0.0 1.0 0.69</REAL-Entries>
        </REAL-SparseArray>
      </VectorInstance>
      <VectorInstance id="0_2323070">
        <REAL-SparseArray n="53">
          <Indices>1 2 3 4 5 6 7 8 9 10 11 12 13 14 15 16 17 18 19 20 21 22 23 24 25 26 27 28 29 30 31 32 33 34 35 36 37 38 39 40 41 42 43 44 45 46 47 48 49 50 51 52 53</Indices>
          <REAL-Entries>1.205616735427685 -0.7085362662353275 -0.1983193433770224 -0.006129812612698959 1.0 0.0 0.0 0.0 0.0 0.0 0.0 0.0 0.0 1.0 0.0 0.0 0.0 0.0 0.0 0.0 0.0 0.0 0.0 0.0 0.0 0.0 0.0 0.0 0.0 0.0 0.0 0.0 1.0 0.0 0.0 0.0 0.0 0.0 0.0 0.0 0.0 0.0 1.0 0.0 0.0 0.0 0.0 0.0 0.0 0.0 0.0 1.0 0.32</REAL-Entries>
        </REAL-SparseArray>
      </VectorInstance>
      <VectorInstance id="0_2336844">
        <REAL-SparseArray n="53">
          <Indices>1 2 3 4 5 6 7 8 9 10 11 12 13 14 15 16 17 18 19 20 21 22 23 24 25 26 27 28 29 30 31 32 33 34 35 36 37 38 39 40 41 42 43 44 45 46 47 48 49 50 51 52 53</Indices>
          <REAL-Entries>-0.8555182378276072 -0.814380218251286 -0.1983193433770224 -0.006129812612698959 1.0 0.0 0.0 0.0 0.0 0.0 0.0 0.0 0.0 0.0 0.0 0.0 0.0 0.0 0.0 0.0 0.0 0.0 0.0 1.0 0.0 0.0 0.0 0.0 0.0 0.0 0.0 0.0 1.0 0.0 0.0 0.0 0.0 0.0 0.0 0.0 0.0 0.0 0.0 0.0 0.0 0.0 0.0 1.0 0.0 0.0 0.0 1.0 0.83</REAL-Entries>
        </REAL-SparseArray>
      </VectorInstance>
      <VectorInstance id="0_2361729">
        <REAL-SparseArray n="53">
          <Indices>1 2 3 4 5 6 7 8 9 10 11 12 13 14 15 16 17 18 19 20 21 22 23 24 25 26 27 28 29 30 31 32 33 34 35 36 37 38 39 40 41 42 43 44 45 46 47 48 49 50 51 52 53</Indices>
          <REAL-Entries>0.3958851387916775 -0.05938857196699132 3.6760034398449433 0.40526700703151297 1.0 0.0 0.0 0.0 0.0 0.0 0.0 0.0 0.0 1.0 0.0 0.0 0.0 0.0 0.0 0.0 0.0 0.0 0.0 0.0 0.0 0.0 0.0 0.0 0.0 1.0 0.0 0.0 0.0 0.0 0.0 0.0 0.0 0.0 0.0 1.0 0.0 0.0 0.0 0.0 0.0 0.0 0.0 0.0 0.0 0.0 0.0 1.0 0.32</REAL-Entries>
        </REAL-SparseArray>
      </VectorInstance>
      <VectorInstance id="0_2361855">
        <REAL-SparseArray n="53">
          <Indices>1 2 3 4 5 6 7 8 9 10 11 12 13 14 15 16 17 18 19 20 21 22 23 24 25 26 27 28 29 30 31 32 33 34 35 36 37 38 39 40 41 42 43 44 45 46 47 48 49 50 51 52 53</Indices>
          <REAL-Entries>-0.8555182378276072 1.6433982674857626 -0.1983193433770224 -1.2403202715453334 1.0 0.0 0.0 0.0 0.0 0.0 0.0 0.0 0.0 0.0 1.0 0.0 0.0 0.0 0.0 0.0 0.0 0.0 0.0 0.0 0.0 0.0 0.0 0.0 0.0 0.0 0.0 0.0 1.0 0.0 0.0 0.0 0.0 1.0 0.0 0.0 0.0 0.0 0.0 0.0 0.0 0.0 0.0 0.0 0.0 0.0 1.0 0.0 0.83</REAL-Entries>
        </REAL-SparseArray>
      </VectorInstance>
      <VectorInstance id="1_2371361">
        <REAL-SparseArray n="53">
          <Indices>1 2 3 4 5 6 7 8 9 10 11 12 13 14 15 16 17 18 19 20 21 22 23 24 25 26 27 28 29 30 31 32 33 34 35 36 37 38 39 40 41 42 43 44 45 46 47 48 49 50 51 52 53</Indices>
          <REAL-Entries>0.1750492488000388 -0.819679288714732 -0.1983193433770224 -0.006129812612698959 0.0 0.0 0.0 1.0 0.0 0.0 0.0 0.0 0.0 0.0 1.0 0.0 0.0 0.0 0.0 0.0 0.0 0.0 0.0 0.0 0.0 0.0 0.0 0.0 0.0 0.0 0.0 0.0 1.0 0.0 0.0 0.0 0.0 0.0 0.0 0.0 0.0 0.0 0.0 1.0 0.0 0.0 0.0 0.0 0.0 0.0 0.0 1.0 0.32</REAL-Entries>
        </REAL-SparseArray>
      </VectorInstance>
      <VectorInstance id="1_2371954">
        <REAL-SparseArray n="53">
          <Indices>1 2 3 4 5 6 7 8 9 10 11 12 13 14 15 16 17 18 19 20 21 22 23 24 25 26 27 28 29 30 31 32 33 34 35 36 37 38 39 40 41 42 43 44 45 46 47 48 49 50 51 52 53</Indices>
          <REAL-Entries>-0.045786641191599475 -0.41694447542009483 -0.1983193433770224 -0.006129812612698959 1.0 0.0 0.0 0.0 0.0 0.0 0.0 0.0 0.0 0.0 0.0 0.0 0.0 0.0 1.0 0.0 0.0 0.0 0.0 0.0 0.0 0.0 0.0 0.0 0.0 0.0 0.0 0.0 1.0 0.0 0.0 0.0 0.0 0.0 0.0 0.0 1.0 0.0 0.0 0.0 0.0 0.0 0.0 0.0 0.0 0.0 0.0 1.0 0.69</REAL-Entries>
        </REAL-SparseArray>
      </VectorInstance>
      <VectorInstance id="1_2387868">
        <REAL-SparseArray n="53">
          <Indices>1 2 3 4 5 6 7 8 9 10 11 12 13 14 15 16 17 18 19 20 21 22 23 24 25 26 27 28 29 30 31 32 33 34 35 36 37 38 39 40 41 42 43 44 45 46 47 48 49 50 51 52 53</Indices>
          <REAL-Entries>0.9847808454360463 -0.6680867764233357 -0.1983193433770224 0.816663826675724 1.0 0.0 0.0 0.0 0.0 0.0 0.0 0.0 0.0 0.0 0.0 1.0 0.0 0.0 0.0 0.0 0.0 0.0 0.0 0.0 0.0 0.0 0.0 0.0 0.0 0.0 0.0 0.0 1.0 0.0 0.0 0.0 0.0 0.0 1.0 0.0 0.0 0.0 0.0 0.0 0.0 0.0 0.0 0.0 0.0 0.0 0.0 1.0 0.32</REAL-Entries>
        </REAL-SparseArray>
      </VectorInstance>
      <VectorInstance id="0_2394361">
        <REAL-SparseArray n="53">
          <Indices>1 2 3 4 5 6 7 8 9 10 11 12 13 14 15 16 17 18 19 20 21 22 23 24 25 26 27 28 29 30 31 32 33 34 35 36 37 38 39 40 41 42 43 44 45 46 47 48 49 50 51 52 53</Indices>
          <REAL-Entries>2.088960295394239 -0.9880609763890393 -0.1983193433770224 -2.309952002620283 0.0 0.0 0.0 0.0 1.0 0.0 0.0 0.0 0.0 0.0 0.0 0.0 0.0 0.0 0.0 0.0 0.0 0.0 1.0 0.0 0.0 0.0 0.0 0.0 0.0 0.0 0.0 0.0 1.0 0.0 0.0 0.0 0.0 0.0 0.0 0.0 0.0 0.0 1.0 0.0 0.0 0.0 0.0 0.0 0.0 0.0 0.0 1.0 0.12</REAL-Entries>
        </REAL-SparseArray>
      </VectorInstance>
      <VectorInstance id="1_2403809">
        <REAL-SparseArray n="53">
          <Indices>1 2 3 4 5 6 7 8 9 10 11 12 13 14 15 16 17 18 19 20 21 22 23 24 25 26 27 28 29 30 31 32 33 34 35 36 37 38 39 40 41 42 43 44 45 46 47 48 49 50 51 52 53</Indices>
          <REAL-Entries>1.4264526254193237 -0.5093190529807334 -0.1983193433770224 -0.006129812612698959 1.0 0.0 0.0 0.0 0.0 0.0 0.0 0.0 0.0 0.0 0.0 0.0 0.0 0.0 1.0 0.0 0.0 0.0 0.0 0.0 0.0 0.0 0.0 0.0 0.0 0.0 0.0 0.0 1.0 0.0 0.0 0.0 0.0 0.0 0.0 1.0 0.0 0.0 0.0 0.0 0.0 0.0 0.0 0.0 0.0 0.0 0.0 1.0 0.12</REAL-Entries>
        </REAL-SparseArray>
      </VectorInstance>
      <VectorInstance id="0_2405630">
        <REAL-SparseArray n="53">
          <Indices>1 2 3 4 5 6 7 8 9 10 11 12 13 14 15 16 17 18 19 20 21 22 23 24 25 26 27 28 29 30 31 32 33 34 35 36 37 38 39 40 41 42 43 44 45 46 47 48 49 50 51 52 53</Indices>
          <REAL-Entries>0.9847808454360463 -0.6272300856582128 -0.1983193433770224 1.228060646319936 0.0 0.0 1.0 0.0 0.0 0.0 0.0 0.0 0.0 0.0 0.0 0.0 1.0 0.0 0.0 0.0 0.0 0.0 0.0 0.0 0.0 0.0 0.0 0.0 0.0 0.0 0.0 0.0 1.0 0.0 0.0 0.0 0.0 0.0 0.0 0.0 0.0 1.0 0.0 0.0 0.0 0.0 0.0 0.0 0.0 0.0 0.0 1.0 0.32</REAL-Entries>
        </REAL-SparseArray>
      </VectorInstance>
      <VectorInstance id="1_2411282">
        <REAL-SparseArray n="53">
          <Indices>1 2 3 4 5 6 7 8 9 10 11 12 13 14 15 16 17 18 19 20 21 22 23 24 25 26 27 28 29 30 31 32 33 34 35 36 37 38 39 40 41 42 43 44 45 46 47 48 49 50 51 52 53</Indices>
          <REAL-Entries>0.2486612121305849 0.3014677418921259 -0.1983193433770224 -0.33524726832806806 1.0 0.0 0.0 0.0 0.0 0.0 0.0 0.0 0.0 0.0 0.0 0.0 0.0 0.0 0.0 0.0 0.0 0.0 1.0 0.0 0.0 0.0 0.0 0.0 0.0 0.0 1.0 0.0 0.0 0.0 0.0 0.0 0.0 0.0 0.0 0.0 0.0 0.0 1.0 0.0 0.0 0.0 0.0 0.0 0.0 0.0 0.0 1.0 0.32</REAL-Entries>
        </REAL-SparseArray>
      </VectorInstance>
      <VectorInstance id="1_2416521">
        <REAL-SparseArray n="53">
          <Indices>1 2 3 4 5 6 7 8 9 10 11 12 13 14 15 16 17 18 19 20 21 22 23 24 25 26 27 28 29 30 31 32 33 34 35 36 37 38 39 40 41 42 43 44 45 46 47 48 49 50 51 52 53</Indices>
          <REAL-Entries>1.0583928087665928 -1.0060354153575726 -0.1983193433770224 -0.006129812612698959 0.0 0.0 0.0 0.0 1.0 0.0 0.0 0.0 0.0 0.0 0.0 0.0 0.0 0.0 0.0 0.0 0.0 1.0 0.0 0.0 0.0 0.0 0.0 0.0 0.0 0.0 0.0 0.0 1.0 0.0 0.0 0.0 1.0 0.0 0.0 0.0 0.0 0.0 0.0 0.0 0.0 0.0 0.0 0.0 0.0 0.0 0.0 1.0 0.32</REAL-Entries>
        </REAL-SparseArray>
      </VectorInstance>
      <VectorInstance id="0_2424026">
        <REAL-SparseArray n="53">
          <Indices>1 2 3 4 5 6 7 8 9 10 11 12 13 14 15 16 17 18 19 20 21 22 23 24 25 26 27 28 29 30 31 32 33 34 35 36 37 38 39 40 41 42 43 44 45 46 47 48 49 50 51 52 53</Indices>
          <REAL-Entries>0.10143728546949271 4.314449652851837 -0.1983193433770224 -0.006129812612698959 1.0 0.0 0.0 0.0 0.0 0.0 0.0 0.0 0.0 1.0 0.0 0.0 0.0 0.0 0.0 0.0 0.0 0.0 0.0 0.0 0.0 0.0 0.0 0.0 0.0 0.0 0.0 0.0 1.0 0.0 0.0 0.0 0.0 0.0 0.0 0.0 0.0 0.0 1.0 0.0 0.0 0.0 0.0 0.0 0.0 0.0 1.0 0.0 0.32</REAL-Entries>
        </REAL-SparseArray>
      </VectorInstance>
      <VectorInstance id="0_2426379">
        <REAL-SparseArray n="53">
          <Indices>1 2 3 4 5 6 7 8 9 10 11 12 13 14 15 16 17 18 19 20 21 22 23 24 25 26 27 28 29 30 31 32 33 34 35 36 37 38 39 40 41 42 43 44 45 46 47 48 49 50 51 52 53</Indices>
          <REAL-Entries>0.1750492488000388 -0.8529134936309237 -0.1983193433770224 -0.006129812612698959 1.0 0.0 0.0 0.0 0.0 0.0 0.0 0.0 0.0 0.0 0.0 0.0 1.0 0.0 0.0 0.0 0.0 0.0 0.0 0.0 0.0 0.0 0.0 0.0 0.0 0.0 0.0 0.0 1.0 0.0 0.0 0.0 0.0 0.0 0.0 0.0 0.0 0.0 1.0 0.0 0.0 0.0 0.0 0.0 0.0 0.0 0.0 1.0 0.32</REAL-Entries>
        </REAL-SparseArray>
      </VectorInstance>
      <VectorInstance id="0_2430330">
        <REAL-SparseArray n="53">
          <Indices>1 2 3 4 5 6 7 8 9 10 11 12 13 14 15 16 17 18 19 20 21 22 23 24 25 26 27 28 29 30 31 32 33 34 35 36 37 38 39 40 41 42 43 44 45 46 47 48 49 50 51 52 53</Indices>
          <REAL-Entries>1.573676552080416 -0.697239922898146 -0.1983193433770224 0.40526700703151297 0.0 1.0 0.0 0.0 0.0 0.0 0.0 0.0 0.0 0.0 0.0 1.0 0.0 0.0 0.0 0.0 0.0 0.0 0.0 0.0 0.0 0.0 0.0 0.0 0.0 0.0 0.0 0.0 1.0 0.0 0.0 0.0 0.0 0.0 0.0 0.0 0.0 1.0 0.0 0.0 0.0 0.0 0.0 0.0 0.0 0.0 0.0 1.0 0.12</REAL-Entries>
        </REAL-SparseArray>
      </VectorInstance>
      <VectorInstance id="0_2434068">
        <REAL-SparseArray n="53">
          <Indices>1 2 3 4 5 6 7 8 9 10 11 12 13 14 15 16 17 18 19 20 21 22 23 24 25 26 27 28 29 30 31 32 33 34 35 36 37 38 39 40 41 42 43 44 45 46 47 48 49 50 51 52 53</Indices>
          <REAL-Entries>0.027825322138946618 -0.755630528708256 3.8149311760109734 -0.006129812612698959 1.0 0.0 0.0 0.0 0.0 0.0 0.0 0.0 0.0 0.0 0.0 1.0 0.0 0.0 0.0 0.0 0.0 0.0 0.0 0.0 0.0 0.0 0.0 0.0 0.0 0.0 0.0 0.0 1.0 0.0 0.0 0.0 0.0 0.0 0.0 0.0 1.0 0.0 0.0 0.0 0.0 0.0 0.0 0.0 0.0 0.0 0.0 1.0 0.69</REAL-Entries>
        </REAL-SparseArray>
      </VectorInstance>
      <VectorInstance id="1_2464767">
        <REAL-SparseArray n="53">
          <Indices>1 2 3 4 5 6 7 8 9 10 11 12 13 14 15 16 17 18 19 20 21 22 23 24 25 26 27 28 29 30 31 32 33 34 35 36 37 38 39 40 41 42 43 44 45 46 47 48 49 50 51 52 53</Indices>
          <REAL-Entries>-0.7819062744970608 0.05169800254959811 -0.1983193433770224 0.816663826675724 0.0 1.0 0.0 0.0 0.0 0.0 0.0 0.0 0.0 0.0 0.0 0.0 1.0 0.0 0.0 0.0 0.0 0.0 0.0 0.0 0.0 0.0 0.0 0.0 0.0 0.0 1.0 0.0 0.0 0.0 0.0 0.0 0.0 0.0 0.0 0.0 0.0 0.0 1.0 0.0 0.0 0.0 0.0 0.0 0.0 0.0 0.0 1.0 0.83</REAL-Entries>
        </REAL-SparseArray>
      </VectorInstance>
      <VectorInstance id="0_2478789">
        <REAL-SparseArray n="53">
          <Indices>1 2 3 4 5 6 7 8 9 10 11 12 13 14 15 16 17 18 19 20 21 22 23 24 25 26 27 28 29 30 31 32 33 34 35 36 37 38 39 40 41 42 43 44 45 46 47 48 49 50 51 52 53</Indices>
          <REAL-Entries>1.132004772097139 -0.7882179520047125 -0.1983193433770224 1.639457465964147 1.0 0.0 0.0 0.0 0.0 0.0 0.0 0.0 0.0 0.0 0.0 0.0 0.0 0.0 0.0 1.0 0.0 0.0 0.0 0.0 0.0 0.0 0.0 0.0 0.0 0.0 0.0 0.0 1.0 0.0 0.0 0.0 0.0 0.0 0.0 0.0 0.0 0.0 1.0 0.0 0.0 0.0 0.0 0.0 0.0 0.0 0.0 1.0 0.32</REAL-Entries>
        </REAL-SparseArray>
      </VectorInstance>
      <VectorInstance id="1_2511963">
        <REAL-SparseArray n="53">
          <Indices>1 2 3 4 5 6 7 8 9 10 11 12 13 14 15 16 17 18 19 20 21 22 23 24 25 26 27 28 29 30 31 32 33 34 35 36 37 38 39 40 41 42 43 44 45 46 47 48 49 50 51 52 53</Indices>
          <REAL-Entries>1.9417363687331468 -0.7984338842062845 6.182572876868851 -2.474510730477968 0.0 1.0 0.0 0.0 0.0 0.0 0.0 0.0 0.0 1.0 0.0 0.0 0.0 0.0 0.0 0.0 0.0 0.0 0.0 0.0 0.0 0.0 0.0 0.0 0.0 0.0 0.0 0.0 1.0 0.0 0.0 0.0 0.0 0.0 0.0 1.0 0.0 0.0 0.0 0.0 0.0 0.0 0.0 0.0 0.0 0.0 0.0 1.0 0.12</REAL-Entries>
        </REAL-SparseArray>
      </VectorInstance>
      <VectorInstance id="0_2515064">
        <REAL-SparseArray n="53">
          <Indices>1 2 3 4 5 6 7 8 9 10 11 12 13 14 15 16 17 18 19 20 21 22 23 24 25 26 27 28 29 30 31 32 33 34 35 36 37 38 39 40 41 42 43 44 45 46 47 48 49 50 51 52 53</Indices>
          <REAL-Entries>0.9111688821055002 -0.8893501509107887 -0.1983193433770224 -0.006129812612698959 1.0 0.0 0.0 0.0 0.0 0.0 0.0 0.0 0.0 0.0 0.0 1.0 0.0 0.0 0.0 0.0 0.0 0.0 0.0 0.0 0.0 0.0 0.0 0.0 0.0 0.0 0.0 0.0 1.0 0.0 0.0 0.0 0.0 0.0 1.0 0.0 0.0 0.0 0.0 0.0 0.0 0.0 0.0 0.0 0.0 0.0 0.0 1.0 0.32</REAL-Entries>
        </REAL-SparseArray>
      </VectorInstance>
      <VectorInstance id="1_2519287">
        <REAL-SparseArray n="53">
          <Indices>1 2 3 4 5 6 7 8 9 10 11 12 13 14 15 16 17 18 19 20 21 22 23 24 25 26 27 28 29 30 31 32 33 34 35 36 37 38 39 40 41 42 43 44 45 46 47 48 49 50 51 52 53</Indices>
          <REAL-Entries>1.132004772097139 -0.26220940593167663 -0.1983193433770224 -0.006129812612698959 1.0 0.0 0.0 0.0 0.0 0.0 0.0 0.0 0.0 0.0 0.0 0.0 0.0 0.0 1.0 0.0 0.0 0.0 0.0 0.0 0.0 0.0 0.0 0.0 0.0 0.0 0.0 0.0 1.0 0.0 0.0 0.0 0.0 0.0 0.0 0.0 0.0 0.0 0.0 1.0 0.0 0.0 0.0 0.0 0.0 0.0 0.0 1.0 0.32</REAL-Entries>
        </REAL-SparseArray>
      </VectorInstance>
      <VectorInstance id="1_2533797">
        <REAL-SparseArray n="53">
          <Indices>1 2 3 4 5 6 7 8 9 10 11 12 13 14 15 16 17 18 19 20 21 22 23 24 25 26 27 28 29 30 31 32 33 34 35 36 37 38 39 40 41 42 43 44 45 46 47 48 49 50 51 52 53</Indices>
          <REAL-Entries>0.322273175461131 -0.9900011776147523 -0.1983193433770224 -0.006129812612698959 0.0 0.0 0.0 0.0 1.0 0.0 0.0 0.0 0.0 0.0 0.0 0.0 0.0 0.0 0.0 1.0 0.0 0.0 0.0 0.0 0.0 0.0 0.0 0.0 0.0 0.0 0.0 0.0 1.0 0.0 0.0 0.0 0.0 0.0 0.0 1.0 0.0 0.0 0.0 0.0 0.0 0.0 0.0 0.0 0.0 0.0 0.0 1.0 0.32</REAL-Entries>
        </REAL-SparseArray>
      </VectorInstance>
      <VectorInstance id="1_2571658">
        <REAL-SparseArray n="53">
          <Indices>1 2 3 4 5 6 7 8 9 10 11 12 13 14 15 16 17 18 19 20 21 22 23 24 25 26 27 28 29 30 31 32 33 34 35 36 37 38 39 40 41 42 43 44 45 46 47 48 49 50 51 52 53</Indices>
          <REAL-Entries>0.8375569187749541 -0.8406905706293157 -0.1983193433770224 0.2407082791738282 1.0 0.0 0.0 0.0 0.0 0.0 0.0 0.0 0.0 0.0 0.0 0.0 1.0 0.0 0.0 0.0 0.0 0.0 0.0 0.0 0.0 0.0 0.0 0.0 0.0 0.0 0.0 0.0 1.0 0.0 0.0 0.0 0.0 0.0 0.0 0.0 0.0 0.0 1.0 0.0 0.0 0.0 0.0 0.0 0.0 0.0 0.0 1.0 0.32</REAL-Entries>
        </REAL-SparseArray>
      </VectorInstance>
      <VectorInstance id="0_2601767">
        <REAL-SparseArray n="53">
          <Indices>1 2 3 4 5 6 7 8 9 10 11 12 13 14 15 16 17 18 19 20 21 22 23 24 25 26 27 28 29 30 31 32 33 34 35 36 37 38 39 40 41 42 43 44 45 46 47 48 49 50 51 52 53</Indices>
          <REAL-Entries>-0.8555182378276072 -0.8152020890991931 -0.1983193433770224 1.639457465964147 1.0 0.0 0.0 0.0 0.0 0.0 0.0 0.0 0.0 1.0 0.0 0.0 0.0 0.0 0.0 0.0 0.0 0.0 0.0 0.0 0.0 0.0 0.0 0.0 0.0 0.0 0.0 0.0 1.0 0.0 0.0 0.0 0.0 0.0 1.0 0.0 0.0 0.0 0.0 0.0 0.0 0.0 0.0 0.0 0.0 0.0 0.0 1.0 0.83</REAL-Entries>
        </REAL-SparseArray>
      </VectorInstance>
      <VectorInstance id="0_2613647">
        <REAL-SparseArray n="53">
          <Indices>1 2 3 4 5 6 7 8 9 10 11 12 13 14 15 16 17 18 19 20 21 22 23 24 25 26 27 28 29 30 31 32 33 34 35 36 37 38 39 40 41 42 43 44 45 46 47 48 49 50 51 52 53</Indices>
          <REAL-Entries>-0.7082943111665148 -0.7734676540573207 -0.1983193433770224 0.40526700703151297 1.0 0.0 0.0 0.0 0.0 0.0 0.0 0.0 0.0 0.0 0.0 0.0 1.0 0.0 0.0 0.0 0.0 0.0 0.0 0.0 0.0 0.0 0.0 0.0 0.0 0.0 0.0 0.0 1.0 0.0 0.0 0.0 0.0 0.0 1.0 0.0 0.0 0.0 0.0 0.0 0.0 0.0 0.0 0.0 0.0 0.0 0.0 1.0 0.83</REAL-Entries>
        </REAL-SparseArray>
      </VectorInstance>
      <VectorInstance id="1_2628576">
        <REAL-SparseArray n="53">
          <Indices>1 2 3 4 5 6 7 8 9 10 11 12 13 14 15 16 17 18 19 20 21 22 23 24 25 26 27 28 29 30 31 32 33 34 35 36 37 38 39 40 41 42 43 44 45 46 47 48 49 50 51 52 53</Indices>
          <REAL-Entries>1.573676552080416 -0.8469917719745946 -0.1983193433770224 -0.1706885404703833 0.0 0.0 0.0 0.0 1.0 0.0 0.0 0.0 0.0 0.0 0.0 0.0 0.0 0.0 0.0 1.0 0.0 0.0 0.0 0.0 0.0 0.0 0.0 0.0 0.0 0.0 0.0 0.0 1.0 0.0 0.0 0.0 0.0 0.0 0.0 0.0 0.0 0.0 1.0 0.0 0.0 0.0 0.0 0.0 0.0 0.0 0.0 1.0 0.12</REAL-Entries>
        </REAL-SparseArray>
      </VectorInstance>
      <VectorInstance id="1_2652767">
        <REAL-SparseArray n="53">
          <Indices>1 2 3 4 5 6 7 8 9 10 11 12 13 14 15 16 17 18 19 20 21 22 23 24 25 26 27 28 29 30 31 32 33 34 35 36 37 38 39 40 41 42 43 44 45 46 47 48 49 50 51 52 53</Indices>
          <REAL-Entries>-0.9291302011581535 -1.0183271388024082 -0.1983193433770224 1.474898738106463 1.0 0.0 0.0 0.0 0.0 0.0 0.0 0.0 0.0 0.0 0.0 0.0 1.0 0.0 0.0 0.0 0.0 0.0 0.0 0.0 0.0 0.0 0.0 0.0 0.0 0.0 0.0 0.0 1.0 0.0 0.0 0.0 0.0 0.0 0.0 0.0 0.0 0.0 1.0 0.0 0.0 0.0 0.0 0.0 0.0 0.0 0.0 1.0 0.83</REAL-Entries>
        </REAL-SparseArray>
      </VectorInstance>
      <VectorInstance id="0_2686697">
        <REAL-SparseArray n="53">
          <Indices>1 2 3 4 5 6 7 8 9 10 11 12 13 14 15 16 17 18 19 20 21 22 23 24 25 26 27 28 29 30 31 32 33 34 35 36 37 38 39 40 41 42 43 44 45 46 47 48 49 50 51 52 53</Indices>
          <REAL-Entries>-0.8555182378276072 -0.8445471299208758 -0.1983193433770224 -0.0884091765415409 1.0 0.0 0.0 0.0 0.0 0.0 0.0 0.0 0.0 0.0 0.0 1.0 0.0 0.0 0.0 0.0 0.0 0.0 0.0 0.0 0.0 0.0 0.0 0.0 0.0 0.0 0.0 0.0 1.0 0.0 0.0 0.0 0.0 1.0 0.0 0.0 0.0 0.0 0.0 0.0 0.0 0.0 0.0 0.0 0.0 0.0 0.0 1.0 0.83</REAL-Entries>
        </REAL-SparseArray>
      </VectorInstance>
      <VectorInstance id="1_2689854">
        <REAL-SparseArray n="53">
          <Indices>1 2 3 4 5 6 7 8 9 10 11 12 13 14 15 16 17 18 19 20 21 22 23 24 25 26 27 28 29 30 31 32 33 34 35 36 37 38 39 40 41 42 43 44 45 46 47 48 49 50 51 52 53</Indices>
          <REAL-Entries>0.8375569187749541 -0.8927121800853715 -0.1983193433770224 -0.006129812612698959 0.0 0.0 1.0 0.0 0.0 0.0 0.0 0.0 0.0 0.0 0.0 0.0 0.0 0.0 0.0 1.0 0.0 0.0 0.0 0.0 0.0 0.0 0.0 0.0 0.0 0.0 0.0 0.0 1.0 0.0 0.0 0.0 0.0 0.0 0.0 0.0 0.0 1.0 0.0 0.0 0.0 0.0 0.0 0.0 0.0 0.0 0.0 1.0 0.32</REAL-Entries>
        </REAL-SparseArray>
      </VectorInstance>
      <VectorInstance id="0_2698881">
        <REAL-SparseArray n="53">
          <Indices>1 2 3 4 5 6 7 8 9 10 11 12 13 14 15 16 17 18 19 20 21 22 23 24 25 26 27 28 29 30 31 32 33 34 35 36 37 38 39 40 41 42 43 44 45 46 47 48 49 50 51 52 53</Indices>
          <REAL-Entries>0.1750492488000388 1.5025659147015522 -0.1983193433770224 1.639457465964147 0.0 0.0 0.0 1.0 0.0 0.0 0.0 0.0 0.0 0.0 0.0 0.0 0.0 0.0 0.0 1.0 0.0 0.0 0.0 0.0 0.0 0.0 0.0 0.0 0.0 0.0 0.0 1.0 0.0 0.0 0.0 0.0 0.0 0.0 0.0 0.0 0.0 0.0 1.0 0.0 0.0 0.0 0.0 0.0 0.0 0.0 1.0 0.0 0.32</REAL-Entries>
        </REAL-SparseArray>
      </VectorInstance>
      <VectorInstance id="1_2700450">
        <REAL-SparseArray n="53">
          <Indices>1 2 3 4 5 6 7 8 9 10 11 12 13 14 15 16 17 18 19 20 21 22 23 24 25 26 27 28 29 30 31 32 33 34 35 36 37 38 39 40 41 42 43 44 45 46 47 48 49 50 51 52 53</Indices>
          <REAL-Entries>-0.5610703845054226 0.22130316031871033 -0.1983193433770224 0.816663826675724 1.0 0.0 0.0 0.0 0.0 0.0 0.0 0.0 0.0 0.0 0.0 0.0 1.0 0.0 0.0 0.0 0.0 0.0 0.0 0.0 0.0 0.0 0.0 0.0 0.0 0.0 0.0 1.0 0.0 0.0 0.0 0.0 0.0 0.0 0.0 1.0 0.0 0.0 0.0 0.0 0.0 0.0 0.0 0.0 0.0 0.0 1.0 0.0 0.83</REAL-Entries>
        </REAL-SparseArray>
      </VectorInstance>
      <VectorInstance id="1_2714780">
        <REAL-SparseArray n="53">
          <Indices>1 2 3 4 5 6 7 8 9 10 11 12 13 14 15 16 17 18 19 20 21 22 23 24 25 26 27 28 29 30 31 32 33 34 35 36 37 38 39 40 41 42 43 44 45 46 47 48 49 50 51 52 53</Indices>
          <REAL-Entries>2.0153483320636925 -0.8433439121486076 -0.1983193433770224 -1.2403202715453334 0.0 1.0 0.0 0.0 0.0 0.0 0.0 0.0 0.0 0.0 0.0 0.0 0.0 0.0 0.0 0.0 0.0 0.0 0.0 1.0 0.0 0.0 0.0 0.0 0.0 0.0 0.0 0.0 1.0 0.0 0.0 0.0 0.0 0.0 0.0 0.0 0.0 0.0 0.0 0.0 0.0 1.0 0.0 0.0 0.0 0.0 0.0 1.0 0.12</REAL-Entries>
        </REAL-SparseArray>
      </VectorInstance>
      <VectorInstance id="0_2718332">
        <REAL-SparseArray n="53">
